%YAML:1.0
---
opencv_ml_svm:
   format: 3
   svmType: EPS_SVR
   kernel:
      type: LINEAR
   C: 1.0000000000000000e-02
   p: 1.0000000000000001e-01
   term_criteria: { epsilon:1.0000000000000000e-03, iterations:1000 }
   var_count: 8100
   sv_total: 1
   support_vectors:
      - [ 4.09601163e-03, 2.98302830e-03, 6.12817239e-04,
          -2.56858557e-03, -1.54060707e-03, -1.32201996e-03,
          -1.26154255e-03, -1.49872107e-03, 1.40540081e-03,
          2.41579022e-03, 1.26557623e-03, 2.58402666e-04,
          -3.12198303e-03, -4.00228566e-03, -2.38574017e-03,
          -1.97649631e-03, -1.50901277e-03, 1.17710722e-03,
          1.29651185e-03, 2.97203398e-04, 1.97095843e-03, 8.63265072e-04,
          1.25904553e-04, -1.16837723e-03, -1.13629119e-03,
          -2.37739342e-03, 7.61069183e-04, 1.57063629e-03,
          1.55861548e-03, 2.48604058e-03, 1.69618361e-04,
          -1.59414543e-03, -2.02237768e-03, -1.06462976e-03,
          -2.50255642e-03, -1.04413228e-03, 2.61843018e-03,
          1.83833810e-03, 2.18565203e-03, -8.03574687e-04,
          -2.95057800e-03, -1.35169167e-03, -1.40738790e-03,
          -2.18360266e-03, 1.17137632e-03, 2.18399032e-03,
          1.68602669e-03, 1.23715284e-03, 1.84673467e-03,
          -4.25551872e-04, -1.10071746e-03, -1.33898982e-03,
          -2.75078765e-03, 4.28032246e-04, 2.28143414e-03,
          6.50727656e-04, 2.43728515e-03, 9.29220812e-04,
          -1.89072103e-03, -9.02151281e-04, -1.13275379e-03,
          -1.88639539e-03, -4.48828592e-04, 5.54481812e-04,
          -2.33824179e-03, 4.38613264e-04, 3.99632700e-04,
          -6.94568909e-04, -1.42668164e-03, -1.52558088e-03,
          -1.94496277e-03, 1.83521086e-04, 2.85695819e-03,
          1.44742685e-03, 1.71121408e-03, 1.42758538e-03,
          -4.61341668e-04, -1.72214222e-03, -1.42976921e-03,
          -2.13085790e-03, 1.79907959e-03, 4.03651828e-03,
          1.75555120e-03, 8.36661085e-04, -2.12353282e-03,
          -3.46532394e-03, -4.43718489e-03, -1.94548687e-03,
          -1.18118757e-03, 1.92056468e-03, 1.33808015e-03,
          1.48124251e-04, 2.80750496e-03, 1.19867024e-03,
          -1.74371770e-03, -2.81285332e-03, -1.23618520e-03,
          -1.64853851e-03, 1.48239767e-03, 2.60526338e-03,
          6.33196032e-04, 8.41488072e-04, -5.46503114e-04,
          -3.82954371e-03, -3.98257701e-03, -2.02463940e-03,
          -3.33124516e-03, 8.09548656e-04, 3.79227055e-03,
          -3.43648077e-04, -5.71404584e-04, -1.96750904e-03,
          -3.40550696e-03, -3.18804011e-03, -2.45923223e-03,
          -1.34132642e-04, 3.75426887e-03, 4.31910902e-03,
          4.14346548e-04, -1.90321205e-03, -2.60928180e-03,
          -3.26495175e-03, -2.30046222e-03, -3.42736882e-03,
          7.43567012e-04, 5.31405816e-03, 3.85059812e-03, 1.26009795e-03,
          -5.57691528e-05, -1.19033281e-03, -1.87727821e-03,
          -2.30298704e-03, -2.08631437e-03, -2.22037500e-03,
          5.03235264e-04, 3.43583315e-03, 1.47589261e-03,
          -5.31735539e-04, -2.17788434e-03, -8.40786961e-04,
          -1.91863009e-03, -2.19798763e-03, -1.28325995e-03,
          6.89274631e-04, 4.47655283e-03, -3.14306904e-04,
          -3.11899348e-03, -3.30804661e-03, -3.51172476e-03,
          -2.54088058e-03, -1.91665534e-03, 1.22117740e-03,
          5.31875947e-03, 5.62730571e-03, -2.39846413e-04,
          -3.39254481e-03, -3.74516030e-03, -3.50245880e-03,
          -3.17724538e-03, -4.47047612e-04, 3.03826109e-03,
          6.84864726e-03, 3.97980912e-03, 7.88586447e-04,
          -2.27036630e-03, -3.50752473e-03, -3.38353124e-03,
          -2.49973219e-03, -2.07127235e-03, -1.48745766e-03,
          -3.04737623e-04, 5.00045856e-03, 1.63859178e-04,
          -2.10159551e-03, -1.70582172e-03, -3.53021128e-03,
          -2.83983955e-03, -1.69193780e-03, -2.08300957e-03,
          2.03391723e-03, 6.29054662e-03, -2.25787703e-03,
          -4.02821368e-03, -4.79019620e-03, -3.94259114e-03,
          -3.09163774e-03, -3.72883893e-04, 3.52831394e-03,
          7.34188780e-03, 5.14379377e-03, -2.66713277e-03,
          -3.67599120e-03, -4.82327119e-03, -4.45145741e-03,
          -4.02843487e-03, -1.98150077e-03, 1.50980114e-03,
          6.09621545e-03, 6.07082155e-03, -9.87595879e-04,
          -2.71767238e-03, -2.63483077e-03, -3.67229129e-03,
          -4.18729195e-03, -1.66709337e-03, -1.61441520e-03,
          4.78015887e-03, 5.50315576e-03, -2.73615308e-03,
          -3.71562806e-03, -3.78832361e-03, -4.34824638e-03,
          -4.48559830e-03, -4.27685445e-03, -2.54555303e-03,
          4.87465737e-03, 5.61061408e-03, 1.23578100e-03,
          -3.40590905e-03, -4.46661515e-03, -4.24825167e-03,
          -3.03318584e-03, -2.10108142e-03, -7.86530087e-04,
          4.68490785e-03, 5.26123727e-03, 1.40898139e-03,
          -5.09828469e-03, -5.80555387e-03, -3.90690286e-03,
          -1.55092287e-03, 5.17092529e-04, -7.36879010e-04,
          5.81348035e-03, 4.90123499e-03, -2.98044272e-03,
          -4.39800974e-03, -3.81673081e-03, -4.36658552e-03,
          -3.41225392e-03, -3.67153832e-03, -2.85447552e-03,
          3.01160500e-03, 5.60060423e-03, -1.80353038e-03,
          -5.33962669e-03, -4.80743358e-03, -5.14113111e-03,
          -2.97501287e-03, -2.97079678e-03, -3.99996201e-03,
          1.68695161e-03, 4.73226467e-03, 2.52300961e-04,
          -3.94756626e-03, -4.21115011e-03, -2.49995710e-03,
          -1.42787094e-03, 1.19620143e-03, -1.30618876e-03,
          6.62559830e-03, 3.53216077e-03, 6.80958095e-04,
          -3.78945051e-03, -3.56038916e-03, -2.85420730e-03,
          -2.78954441e-03, -1.55450113e-03, 1.28215447e-03,
          5.38193667e-03, 4.55687847e-03, -2.20081466e-03,
          -3.14604794e-03, -4.07257164e-03, -4.17688536e-03,
          -3.20111075e-03, -3.09442333e-03, -3.40717519e-03,
          1.47086882e-03, 2.65633711e-03, -2.42458680e-03,
          -2.95082689e-03, -5.07617230e-03, -4.12688404e-03,
          -3.04678595e-03, -2.74686329e-03, -2.77891359e-03,
          1.26935553e-03, 2.43902067e-03, -1.26607367e-04,
          -2.00354122e-03, -1.57079229e-03, -2.28666631e-03,
          -2.09286227e-03, -7.22992234e-04, 3.66167398e-03,
          4.06757137e-03, -2.51070363e-03, 1.46989507e-04,
          -6.15205732e-04, 1.54806662e-03, -9.29392816e-04,
          -1.15552661e-03, 1.36199221e-03, 1.09119480e-03,
          2.03556055e-03, 1.01456966e-03, -2.93441000e-03,
          -2.07813806e-03, -4.16432600e-03, -2.94753700e-03,
          -8.40842375e-04, -8.25437019e-05, 3.97008145e-04,
          7.20808457e-04, -1.14217552e-03, -2.17680517e-03,
          -1.67082902e-03, -1.97204691e-03, -2.29728944e-03,
          3.32244890e-05, 4.48115490e-04, 2.69305106e-04, 1.99710994e-04,
          -2.56535620e-03, 8.02888768e-04, 3.62271536e-03,
          5.05989883e-03, 4.64332197e-03, 9.48304587e-05, 9.92395566e-04,
          -2.74693267e-03, -4.13344475e-03, -2.47574924e-03,
          2.49973289e-03, 2.45589600e-03, 3.44836782e-03, 3.87487793e-03,
          -8.13250837e-04, -4.13089874e-04, -1.56833278e-03,
          -3.89819313e-03, -9.49951471e-04, 5.22042566e-04,
          9.64162115e-04, 1.80732738e-03, -7.73001811e-04,
          -1.15318573e-03, 8.93369433e-04, 8.13190418e-04,
          -9.11743846e-04, -1.38729124e-03, 1.04905537e-03,
          1.56176364e-04, 1.33967842e-03, -1.25746627e-03,
          -2.85672676e-03, -2.93491088e-04, 2.41554924e-03,
          1.00742342e-04, -7.14325404e-04, 1.80303445e-03,
          -1.25175901e-03, -9.66966385e-04, -1.40994554e-03,
          -2.29102094e-03, -2.60740961e-03, -1.34479604e-03,
          -1.63629290e-03, 3.07514356e-03, 1.72072859e-03,
          -7.96979584e-04, -1.62783428e-03, -2.27295165e-03,
          -2.68587191e-03, -3.00631486e-03, -1.36855361e-03,
          2.01057224e-03, 3.75814247e-03, -1.82102303e-04,
          -8.84987239e-04, 4.46211081e-04, -2.24655704e-03,
          -2.79264268e-03, -2.54237209e-03, 2.84165284e-03,
          3.50050628e-03, 6.09701080e-03, -4.88124468e-04,
          -1.23859651e-03, 5.30653924e-04, -4.06106422e-03,
          -3.23242904e-03, -3.27803101e-03, 1.00561592e-03,
          3.49420286e-03, 2.98392773e-03, -8.09393183e-04,
          -2.68121669e-03, -1.39027846e-03, -2.72266101e-04,
          -9.48483241e-04, -2.32232129e-03, -1.27398467e-03,
          7.69279839e-04, 2.66124640e-04, -3.52952885e-03,
          -4.87676030e-03, -1.18810521e-03, -8.62707268e-04,
          7.82822492e-04, 5.59485401e-04, 7.34478890e-05, 1.88410108e-03,
          5.21301711e-03, -8.50373006e-04, -1.34171313e-03,
          1.16058812e-03, -1.73887436e-03, -1.41025544e-03,
          -2.04534293e-03, -1.52506211e-04, 4.37413389e-03,
          1.52993680e-03, -1.99745339e-03, -3.43010179e-03,
          -3.13055061e-04, -1.26089749e-03, -1.87001983e-03,
          -2.37631192e-03, -4.32538660e-03, 1.29164779e-03,
          -8.44097114e-04, -1.07428292e-03, -1.89539930e-03,
          1.78802984e-05, -8.90014402e-04, -1.16665801e-03,
          -1.49424057e-04, -1.09395408e-03, 5.85655449e-04,
          1.28904672e-03, 5.14254021e-03, 8.90949101e-04,
          -1.35367678e-03, -1.85069244e-03, -2.96441489e-03,
          -1.47500273e-03, -2.34258361e-03, 1.70766783e-03,
          1.79851544e-03, -1.26247003e-03, -1.81096001e-03,
          -5.73831436e-04, -1.56902161e-03, -2.53811991e-03,
          -1.96764874e-03, -3.39603866e-03, 1.22324901e-03,
          2.39994540e-03, 8.58140993e-04, -1.79945433e-04,
          -1.72255549e-03, -3.28493747e-03, -3.17096617e-03,
          -3.23717739e-03, -1.95614691e-03, 2.20804522e-03,
          1.99176371e-03, 4.01611580e-03, 1.32534711e-03,
          -2.04977929e-03, -8.86830792e-04, -2.11851578e-03,
          -3.50999343e-03, -2.84059974e-03, 1.68439583e-03,
          3.32935364e-04, 1.07621588e-03, -4.88048187e-04,
          -1.48265471e-03, -9.89316497e-04, -3.22447298e-03,
          -3.23655503e-03, -2.05833744e-03, 1.64227339e-03,
          4.20156866e-03, 8.72343313e-04, -1.08389137e-03,
          -2.25709472e-03, -2.72372970e-03, -2.37217336e-03,
          -3.56676499e-03, -2.91447248e-03, 3.20295617e-03,
          2.81097088e-03, -7.70641840e-04, -3.17478180e-03,
          -3.54901259e-03, -3.77603155e-03, -4.40665800e-03,
          -4.21551382e-03, -3.14907008e-03, 2.80968379e-03,
          7.02729099e-04, 1.71032443e-04, -7.95137137e-04,
          -1.87317550e-03, -1.81943399e-03, -3.98055697e-03,
          -2.56275292e-03, -9.62349528e-04, 1.15493895e-04,
          9.93687310e-04, -1.16897549e-03, -1.68057240e-03,
          -1.89238728e-03, -8.65545182e-04, -2.23687314e-03,
          -1.85560412e-03, -1.27859204e-03, 9.78250755e-04,
          4.49739164e-03, 7.01192621e-05, -2.08531599e-03,
          -3.42666986e-03, -3.62374098e-03, -4.43965476e-03,
          -3.85176716e-03, -1.70624792e-03, 2.98817852e-03,
          4.07299306e-03, -6.13916607e-04, 2.20472837e-04,
          -3.15140001e-03, -3.69082764e-03, -3.88195808e-03,
          -3.79551738e-03, -1.74696767e-03, 3.49925621e-03,
          -5.77082625e-04, 1.62554599e-04, 2.65782117e-03,
          3.21139558e-03, 2.13158154e-03, -5.93349796e-05,
          2.35205560e-04, -2.36805034e-04, -2.03785166e-04,
          -3.27639515e-04, 1.78771489e-03, 3.69263743e-03,
          2.53310124e-03, 8.46823910e-04, -1.02099602e-03,
          6.98637741e-05, -1.90685608e-03, -1.58104475e-03,
          -1.54849375e-03, -1.58443837e-03, 8.72642675e-04,
          2.89315078e-03, 2.00304040e-03, 2.45937589e-03, 8.53087462e-04,
          -5.39961969e-04, -8.11124628e-04, -2.00444041e-03,
          1.43485388e-03, 8.78764200e-04, 1.70714862e-03, 8.13362014e-04,
          -6.57888013e-04, -1.07914850e-03, -2.84571829e-03,
          -3.19668092e-03, 2.85637594e-04, 1.83057413e-03,
          3.05522420e-03, 1.43571862e-03, -4.69252293e-04,
          -8.74912133e-04, -1.36111586e-04, -1.12148118e-03,
          -7.79570080e-04, -7.07473024e-04, 5.03362098e-04,
          2.45493371e-03, 2.20195414e-03, 1.12024347e-04,
          -1.25913904e-03, -1.06457225e-03, -2.95135513e-04,
          1.02403527e-03, -1.49032089e-03, 3.37978662e-03,
          3.24957515e-03, 2.25262577e-03, -6.76475174e-04,
          -2.78341305e-03, -2.45753117e-03, -2.53379834e-03,
          -2.46595475e-03, -9.75191768e-04, 4.07343684e-03,
          2.90333549e-03, 2.38940632e-03, -5.71428798e-04,
          -2.74857832e-03, -3.27195879e-03, -2.60510202e-03,
          -1.11155433e-03, -1.26662548e-03, 1.13057916e-03,
          1.52500696e-03, 9.04726388e-04, -1.25695264e-03,
          -1.53443834e-03, -1.93967920e-04, 3.73948162e-04,
          1.29124825e-03, 3.40036320e-04, 3.86586203e-03, 3.78925074e-03,
          -4.92986524e-04, -3.52637470e-03, -2.40948377e-03,
          -3.81619495e-04, -9.69738176e-04, -1.24309864e-03,
          -1.81539959e-04, 4.96500870e-03, 3.75084393e-03,
          5.96551050e-04, -1.83026167e-03, -1.69095211e-03,
          -1.50665874e-03, -1.10858981e-03, -3.70901282e-04,
          2.96785904e-04, 3.90144065e-03, 2.57236790e-03,
          -3.13455908e-04, -3.22737941e-03, -3.38718062e-03,
          -2.35877116e-03, -1.80235412e-03, -3.36431991e-03,
          1.30064774e-03, 3.44038685e-03, 1.29271252e-03,
          -1.32533524e-03, -1.29721954e-03, -5.70136239e-04,
          -8.97207414e-04, -7.09487300e-04, -2.67703971e-03,
          2.26618908e-03, 2.31685606e-03, -2.10864411e-04,
          -7.17435789e-04, 6.02475309e-04, -4.63651813e-04,
          -7.86222983e-04, -3.90869915e-04, -1.95925171e-03,
          2.01843050e-05, 4.29808022e-03, 2.50560371e-03, 1.38780533e-03,
          -2.11537257e-03, -3.01612332e-03, -2.41225283e-03,
          -1.59964967e-03, -3.97972949e-03, 2.00034794e-03,
          3.30680818e-03, 3.27872345e-03, -2.91879278e-05,
          -5.85571222e-04, -3.01376777e-03, -2.07201391e-03,
          -1.87820185e-03, -3.86393489e-03, 2.18140939e-03,
          2.27228086e-03, -3.51535738e-04, 6.77255521e-05,
          -6.43644657e-04, -7.98051886e-04, -3.01024440e-04,
          2.14114683e-04, -2.00854964e-03, 3.62741575e-03,
          2.00675498e-03, 5.51704725e-04, 9.66211519e-06,
          -2.96682375e-03, -2.62202811e-03, 3.57176585e-04,
          2.20355592e-04, -5.63448179e-04, 6.35048200e-04,
          1.76059955e-03, 3.56102712e-03, 1.53481297e-03, 1.34817543e-04,
          -4.43972135e-03, -2.10287934e-03, -1.47506688e-03,
          -1.75340963e-03, 2.01139163e-04, 4.13450849e-04,
          2.18539941e-03, 3.74154816e-03, -1.23121240e-03,
          -5.25406422e-03, -3.12052178e-03, -7.20755954e-04,
          -3.42488289e-04, 1.83618569e-03, -4.00043180e-04,
          -8.06840253e-04, 3.37055069e-04, -2.22693128e-03,
          -2.05466361e-03, 2.38174573e-03, 9.66887164e-04,
          1.18460222e-04, 1.30129477e-03, -2.32209382e-03,
          -1.41606666e-03, -2.11029942e-03, -3.56617197e-03,
          -2.11697584e-03, -1.57280103e-03, -1.32626330e-03,
          3.19587998e-04, -6.37809688e-04, 4.07111191e-04,
          3.12495674e-03, 4.04823851e-03, -2.05831905e-03,
          -3.56600946e-03, 1.33590854e-03, 3.39810597e-03,
          -6.44173851e-05, -8.26870673e-04, 4.44714795e-04,
          2.24141381e-03, -2.48880498e-03, -4.60998341e-03,
          -1.99083448e-03, 5.86208189e-04, 1.08421082e-03,
          9.50690825e-04, 3.12182121e-03, -2.00964394e-03,
          -2.24233698e-03, -2.88310112e-03, -3.16380919e-03,
          -1.21994130e-03, -2.40353565e-03, -1.90701114e-03,
          8.93990044e-04, 7.89499725e-04, -8.24035320e-04,
          -2.71659740e-03, -3.52496258e-03, -4.09229752e-03,
          -2.07439507e-03, -1.54420489e-03, -2.38196272e-03,
          -1.40655634e-03, -3.31898540e-04, 1.26908603e-03,
          1.38669880e-03, -3.58112273e-03, -4.37567756e-03,
          1.35715608e-03, 3.06361518e-03, 3.30889900e-03,
          -2.44384370e-04, 3.15306504e-04, -4.80444432e-04,
          7.50861363e-04, -3.32022179e-03, -5.06542297e-03,
          -3.40568088e-03, 1.88535394e-03, -7.75854860e-04,
          -3.40436539e-03, -4.87170764e-04, -1.50279360e-04,
          -1.61524513e-04, -2.91765155e-03, -6.18632941e-04,
          -1.71268114e-03, -2.16169981e-04, -1.51212676e-03,
          -1.33726397e-03, -1.73516443e-03, -1.41448644e-03,
          -1.12342439e-03, -3.67244589e-03, 7.05168582e-04,
          3.42850504e-03, 4.14965954e-03, -1.33100536e-03,
          -1.61990244e-03, -2.51038605e-03, -9.92468325e-04,
          -3.22189408e-05, -2.17316044e-03, -1.91145111e-04,
          -8.58143248e-05, 1.23054837e-03, -1.25973683e-03,
          -4.46671760e-03, -5.24138799e-03, -8.68207833e-04,
          4.03002603e-04, -2.17335159e-03, 1.10687257e-03,
          7.20945944e-04, -5.22832619e-04, -1.52800186e-03,
          -5.36988256e-03, 7.85563083e-04, -1.73991802e-03,
          -1.33899739e-03, -4.42366395e-03, -2.78075808e-03,
          7.06116611e-04, 1.52965367e-03, 7.91108934e-04, 2.49232689e-04,
          -4.82553063e-04, -1.96924992e-03, -7.99176807e-04,
          -2.03717360e-03, -2.30333023e-03, 2.11864756e-03,
          2.95682577e-03, 5.26295323e-03, 3.17115337e-03,
          -4.06459346e-03, -2.45439867e-03, -9.38944577e-04,
          -3.85206402e-03, -3.12348409e-03, -2.63512903e-03,
          -2.21285014e-03, -1.45382457e-03, -3.04579944e-03,
          -4.58803726e-03, -4.81618010e-03, -3.88363446e-03,
          -4.04163077e-03, -3.55533347e-03, -1.50445674e-03,
          3.33586911e-04, 2.77398573e-03, -7.14504917e-04,
          -3.03743267e-03, -2.09761667e-03, -1.03954400e-03,
          -1.56997776e-04, -1.88245554e-03, -1.56369712e-03,
          4.63271514e-04, 3.44761438e-03, 1.97517569e-03,
          -2.18018470e-03, -2.25883932e-03, -9.93046327e-04,
          6.01627362e-05, -1.37881783e-03, -2.66977772e-03,
          -1.07071840e-03, 3.51727940e-03, 2.09391885e-03,
          -3.86888371e-03, -2.60878843e-03, -2.59488309e-03,
          -2.14656908e-03, -2.12358148e-03, -1.61140261e-03,
          -4.76744695e-04, 3.21987201e-03, -8.73133482e-04,
          -3.70657304e-03, -3.22126178e-03, -2.64661014e-03,
          -2.56263348e-03, -3.53374705e-03, -3.21062235e-03,
          -1.41023519e-03, 2.98553403e-03, 1.46091240e-03,
          2.34738551e-03, -1.53724127e-03, -3.32710042e-04,
          3.41901468e-04, -9.40445112e-04, -2.21650233e-03,
          -2.33280240e-03, 3.20777693e-03, 3.55704525e-03,
          4.57193144e-03, -7.44003919e-04, 2.08530095e-04,
          6.34964439e-04, -3.24371154e-03, -2.71219830e-03,
          -1.64913677e-03, 1.41273951e-03, 3.01216659e-03,
          -3.54575436e-03, -4.07085242e-03, -2.47442746e-03,
          -2.44094850e-03, -3.31023079e-03, -3.56503041e-03,
          -2.56504584e-03, 2.20887596e-03, -3.23284650e-04,
          -2.35330127e-03, -4.28326521e-03, -3.77276517e-03,
          -2.65706005e-03, -4.21007955e-03, -4.07326687e-03,
          -1.71933731e-03, 1.77058822e-03, 1.90989615e-03,
          5.30808093e-03, 1.18486560e-03, 4.94758657e-04, 2.05599167e-03,
          -8.94068333e-04, -1.35599833e-03, -1.06042263e-03,
          7.94545689e-04, 3.39350454e-03, 1.27800682e-03,
          -2.38012988e-03, -2.87942658e-03, -6.06370886e-05,
          -8.74146353e-04, -1.87861267e-03, -1.17463421e-03,
          8.38664651e-04, 2.13156315e-03, -1.08231150e-03,
          -2.81906268e-03, -2.67929863e-03, -1.23917416e-03,
          -2.81127286e-03, -3.49803199e-03, -2.88290554e-03,
          2.76781851e-04, 3.67564295e-04, -1.44571834e-03,
          -5.10617206e-03, -4.34459141e-03, -2.76602060e-03,
          -3.10525228e-03, -4.60365647e-03, 5.42983995e-04,
          1.92712108e-03, 1.47622614e-03, 2.08171108e-03,
          -2.50522397e-03, -1.80970971e-03, -7.35911482e-04,
          6.26151101e-04, -3.15638259e-03, -5.87963092e-04,
          1.08228787e-03, 2.64196377e-03, 3.56746744e-03,
          -1.26058806e-03, -1.17331813e-03, -3.18771764e-03,
          -9.98347998e-04, -3.22700664e-03, -3.45231453e-03,
          -8.82998633e-04, 3.70754628e-03, -2.72231904e-04,
          -3.31250206e-03, -1.53446896e-03, -1.82327640e-03,
          7.29029882e-04, -3.59756942e-03, 1.57670467e-03,
          1.66096457e-03, 1.57808652e-03, 8.31728044e-04,
          -2.52177217e-03, -1.43893389e-03, -2.79720034e-03,
          -3.35961557e-03, -4.32807719e-03, 8.16804299e-04,
          1.23289740e-03, 2.18608323e-03, 3.94714437e-03,
          -5.68614516e-04, -1.22700620e-03, -2.89299944e-03,
          -5.38536988e-04, -3.47786141e-03, -3.66250728e-03,
          -2.04741419e-03, 4.95833764e-03, 4.07906156e-03,
          -2.42123569e-04, -1.07301702e-03, -2.97121843e-03,
          -1.46889221e-03, -4.39243065e-03, -4.46360046e-03,
          -3.23870452e-03, 3.73508036e-03, 3.29137314e-03,
          -1.81711675e-03, -2.46942975e-03, -3.80570511e-03,
          -2.31595105e-03, -4.50726086e-03, -2.09380197e-03,
          9.28862079e-04, 4.76243393e-03, 3.67196882e-03,
          -7.60732335e-04, -3.45668988e-03, -4.63018753e-03,
          -1.38921069e-03, -4.56910813e-03, -5.09090303e-03,
          -2.40027136e-03, 3.98420542e-03, 5.67062153e-03,
          -1.00770942e-03, -4.88960999e-04, -2.47021439e-03,
          -7.00408360e-04, -3.67985899e-03, -3.14684841e-03,
          -2.66998052e-03, 4.41297702e-03, 4.79606958e-03,
          -1.84419786e-03, -1.00098900e-03, -2.60773278e-03,
          -1.34452875e-03, -3.45002254e-03, -1.10738783e-03,
          2.63803318e-04, 5.72431041e-03, 2.32997374e-03,
          -2.68874620e-03, -2.32883776e-03, -2.86549702e-03,
          -8.87371891e-04, -2.99992389e-03, -2.46754009e-03,
          -2.70072510e-03, 2.67036143e-03, -7.50163395e-04,
          -4.74618049e-03, -2.94145825e-03, -2.94288038e-03,
          -9.10934643e-04, -3.74954240e-03, -2.05704593e-03,
          -1.36200048e-03, 3.10469302e-03, -4.80691990e-04,
          -2.77311471e-03, -6.09630777e-04, 2.22020946e-03,
          1.68860948e-03, -3.04720365e-04, -6.21173996e-04,
          -1.67280727e-03, 2.18502642e-03, -2.74176909e-05,
          -1.56813127e-04, 4.06415493e-04, 1.28230394e-03,
          2.25552940e-05, -2.51953094e-03, -3.48783308e-03,
          -3.61792860e-03, -6.96766423e-04, 4.06580337e-04,
          -1.56747364e-03, -1.67488106e-04, 1.09594909e-03,
          1.78441894e-03, 1.97629081e-04, -1.56322808e-03,
          -2.06955080e-03, 2.27520894e-03, -6.73483999e-04,
          -1.20593980e-03, 6.24752312e-04, 1.91102503e-03,
          4.21582808e-04, -2.21386272e-03, -3.36404960e-03,
          -3.49232345e-03, -9.32636322e-04, 1.46537073e-04,
          2.43660738e-03, 3.08211055e-03, 1.56309176e-03,
          -1.43662025e-03, -3.14472360e-03, -3.52108129e-03,
          -3.14190821e-03, -1.16078334e-03, -8.33392667e-04,
          3.44127556e-03, 2.94554420e-03, 5.33630897e-04,
          -2.86596175e-03, -3.08513665e-03, -3.76324030e-03,
          -3.43029876e-03, -1.03249599e-03, -4.68638973e-05,
          1.22766639e-03, 3.44107323e-03, 1.47348200e-03,
          -2.75370060e-03, -3.13004013e-03, -2.98129232e-03,
          -2.95676640e-03, -1.49331964e-03, -1.47449464e-04,
          1.71061850e-03, 1.38546387e-03, -1.37773622e-03,
          -4.95329592e-03, -4.39633196e-03, -2.69951718e-03,
          -2.42604362e-03, -1.48395286e-03, -3.52866628e-04,
          3.08739510e-03, 2.33007036e-03, -1.17298833e-03,
          -2.93770595e-03, -1.98918791e-03, -2.07572710e-03,
          -2.53253966e-03, -5.53481630e-04, -3.80228885e-05,
          2.26345332e-03, 8.41144123e-04, -1.32054673e-03,
          -2.87355483e-03, -2.89300154e-03, -2.29263119e-03,
          -1.99073507e-03, -5.66664559e-04, 3.52242787e-04,
          1.63119170e-03, 1.77675718e-03, -1.74208544e-04,
          -3.23410425e-03, -2.55515147e-03, -1.72280939e-03,
          -1.81692909e-03, -8.02806171e-04, -3.37603415e-04,
          8.19772249e-04, 2.37150211e-03, 8.42770969e-04, 2.02124029e-05,
          -3.32867424e-03, -1.80441560e-03, -1.58203568e-03,
          -4.62906202e-04, -1.33617769e-03, -1.10042580e-04,
          2.05349046e-04, 1.30212365e-03, 6.64103136e-04,
          -2.83726933e-03, -2.25606235e-03, -2.15336750e-03,
          -1.33584323e-03, -4.11579967e-05, -6.53143332e-04,
          2.34487670e-04, 2.75684427e-03, -1.78664486e-04,
          -3.38978367e-03, -2.69337581e-03, -3.10250837e-03,
          -1.95559906e-03, -1.55045558e-03, -1.17292057e-03,
          -7.02749006e-04, 1.28586392e-03, 8.99936596e-04,
          -2.41154036e-03, -2.43332074e-03, -1.80460571e-03,
          -1.05242922e-04, -1.39819365e-03, -1.90566515e-03,
          -1.71267963e-03, 4.26743273e-03, 1.25557650e-03,
          -1.70341705e-03, -4.05346835e-03, -2.82261916e-03,
          -1.08658941e-03, -9.84246959e-04, -1.29189435e-03,
          2.60987086e-04, 2.12723832e-03, -3.28323629e-04,
          -4.37902333e-03, -2.39785062e-03, -3.09549272e-03,
          -1.91100314e-03, -1.38288084e-03, 9.03214386e-04,
          3.78357875e-03, 1.86695508e-03, -2.22668797e-03,
          -4.97968774e-03, -3.95163707e-03, -3.22412746e-03,
          -2.36496376e-03, -7.11680448e-04, -1.06057094e-03,
          4.33935085e-04, 4.40885453e-03, 1.05316145e-03,
          -3.53340944e-03, -2.98784650e-03, -3.07418127e-03,
          -3.43687774e-04, -4.82451753e-04, 2.26747408e-03,
          3.48585774e-03, 4.39346768e-03, -6.58873178e-04,
          -5.12300339e-03, -4.06272104e-03, -4.54533892e-03,
          -3.06697586e-03, -1.33110967e-03, 2.67762970e-03,
          5.84962359e-03, 2.29968992e-03, -2.64314190e-03,
          -3.70210549e-03, -2.28366861e-03, -1.35634816e-03,
          -3.23202601e-03, -4.53071611e-04, 2.98738107e-03,
          1.46993471e-03, -3.11120227e-03, -4.55253199e-03,
          -2.55867233e-03, 2.55765772e-04, 4.78223868e-04,
          -3.02213524e-03, -1.71170942e-03, 4.64871107e-03,
          6.53838180e-03, 3.92190833e-03, -5.73358906e-04,
          -3.44035518e-03, -3.62403831e-03, -3.09411553e-03,
          -5.08932397e-03, -4.35725844e-04, 3.04293260e-03,
          4.03215969e-03, 3.38188396e-03, -1.58194313e-03,
          -1.45790551e-03, -1.83923158e-03, -1.71128497e-03,
          -4.21669101e-03, 6.90940768e-04, 2.88716890e-03,
          1.82456977e-03, -2.69745127e-03, -4.55475738e-03,
          -1.47589284e-03, 1.37921865e-03, 1.31079822e-03,
          -2.18688976e-03, -5.58555243e-04, -2.42202252e-04,
          1.54108493e-04, -2.84242001e-03, -4.84196888e-03,
          -3.78769310e-03, 2.26787757e-03, -1.10763079e-03,
          -2.81988923e-03, -3.54999735e-04, 2.17188336e-03,
          3.62377684e-03, 3.03082750e-03, 1.37786998e-03,
          -2.39905404e-07, 2.08167499e-03, -3.89481953e-04,
          -2.51926947e-03, -2.13310681e-03, -1.04118511e-03,
          -8.36908992e-04, -9.78818163e-04, -1.27542100e-03,
          -8.89585004e-04, 2.48282379e-03, -1.70753256e-03,
          -3.99844488e-03, -2.31614825e-03, -1.70503650e-03,
          -6.24677923e-04, 5.06530982e-04, -4.71633510e-04,
          6.91143563e-04, 4.76417551e-03, -2.68216769e-04,
          -2.85336049e-03, -3.74685414e-03, -2.33147200e-03,
          -1.16645684e-03, -8.92667798e-04, -3.72852286e-04,
          -6.31192524e-04, -1.41990709e-03, -1.75938697e-03,
          -3.56095494e-03, -2.43932847e-03, -2.40582577e-03,
          -1.08718209e-03, -4.26100014e-04, 1.37935474e-03,
          6.96671847e-03, 6.59476500e-03, 1.18180535e-04,
          -3.02640605e-03, -3.60489730e-03, -3.02896556e-03,
          -2.35799910e-03, -2.02098908e-03, -7.16695562e-04,
          -8.24843068e-04, -2.14214856e-03, -1.93407235e-03,
          -3.14916507e-03, -9.70309018e-04, -2.61670141e-03,
          -9.84382117e-04, -5.58148196e-04, 3.55007476e-03,
          1.63892424e-03, 1.48136192e-03, 1.19222829e-03, 4.08417167e-04,
          -1.46881444e-04, -2.58739735e-03, -2.98669096e-03,
          -3.92933283e-03, -4.93496947e-04, 5.54884900e-04,
          2.79254001e-03, 3.25096888e-03, 2.39874492e-03,
          -2.71343417e-03, -1.18396233e-03, -3.79806784e-06,
          -3.74828815e-04, 2.48611276e-03, -1.17615017e-03,
          -9.70045148e-05, -2.31539365e-04, -3.77351593e-04,
          -2.56603467e-03, -1.02442678e-03, -6.51825860e-04,
          -2.80217803e-03, -7.04186212e-04, -3.37404758e-03,
          -2.09800433e-03, -1.01191038e-03, -1.41802046e-03,
          -4.98740235e-04, 4.83283929e-06, -9.16776131e-04,
          -1.44197186e-03, -1.25534669e-03, -8.36553751e-04,
          5.13930630e-04, 3.57875251e-03, 1.23804272e-03,
          -1.17948838e-03, -1.19900890e-03, -8.57765204e-04,
          -2.66300770e-03, -4.10426687e-03, -8.60909291e-04,
          5.00482041e-03, 9.77153331e-03, 3.94978933e-03,
          -3.01644835e-03, -2.09927466e-03, 1.44483929e-04,
          -2.15200940e-03, -3.24724591e-03, -3.57824215e-03,
          -3.08061414e-03, -2.62555783e-03, -2.50852644e-03,
          -3.52525455e-03, -4.23685694e-03, -3.24091571e-03,
          -4.02062060e-03, -4.61207051e-03, -2.74178758e-03,
          -9.94352857e-04, -1.75401510e-04, -3.31404852e-03,
          -2.92639108e-03, -2.32539000e-03, 2.50377314e-04,
          -2.02980055e-03, -2.78492272e-03, -1.53480854e-03,
          4.24760440e-03, 7.05237500e-03, 2.05824664e-03,
          -2.99475272e-03, -4.47738636e-03, -2.36503687e-03,
          -2.80158897e-03, -4.15616482e-03, -3.21544590e-03,
          5.35335392e-03, 4.55667218e-03, 5.00377361e-03,
          -4.30630380e-03, -5.00609120e-03, -3.06308852e-03,
          -3.84949311e-03, -4.14583040e-03, -2.19139294e-03,
          7.83370866e-04, 8.25631374e-04, -2.54392182e-03,
          -3.72368377e-03, -5.25560463e-03, -4.03547753e-03,
          -4.75424854e-03, -2.94627342e-03, -2.20716465e-03,
          5.06861741e-03, 4.96735936e-03, -4.64899698e-04,
          -1.59255671e-03, -3.24617815e-03, -2.42552999e-03,
          -2.08361028e-03, -2.35606171e-03, -2.95890123e-03,
          2.12539826e-03, 4.62822895e-03, 3.65929352e-03,
          -1.16698036e-03, -4.48161317e-03, -3.47386603e-03,
          -2.64324225e-03, -1.26743002e-03, -2.90226727e-03,
          3.91674135e-03, 5.02793863e-03, 5.01571968e-03,
          -2.89359246e-03, -3.45128216e-03, -3.11950548e-03,
          -3.78901488e-03, -1.99379143e-03, -1.16985885e-03,
          4.79275873e-03, 4.21849126e-03, -5.53525984e-04,
          -3.26814991e-03, -3.56636662e-03, -3.75352311e-03,
          -4.42611286e-03, -2.79018120e-03, -6.10254821e-04,
          3.11658927e-03, 2.37151026e-03, -1.22329802e-04,
          -1.78381626e-03, -3.30125308e-03, -2.21796054e-03,
          -2.06678291e-03, -3.70403955e-04, -1.97169418e-03,
          4.71776072e-03, 5.27087040e-03, 7.81723298e-04, 2.84091948e-05,
          -2.18448648e-03, -1.35799625e-03, -2.21445668e-03,
          -3.49265803e-03, -2.97482079e-03, 3.77559219e-03,
          3.42677580e-03, 1.98715273e-03, -2.85611115e-03,
          -2.78155669e-03, -2.43845140e-03, -3.87410447e-03,
          -1.76766084e-03, -1.54938758e-03, 5.50855766e-04,
          1.34266610e-03, -1.05450791e-03, -2.70381267e-03,
          -3.42846010e-03, -2.70662527e-03, -4.17373376e-03,
          -3.34940362e-03, -4.12627775e-03, 3.41217499e-03,
          5.21546695e-03, 3.86180938e-04, 3.95190109e-05,
          -9.39612451e-04, -1.01516116e-03, -2.59197620e-03,
          -2.33149598e-03, -3.16256378e-03, 2.28157337e-03,
          1.54530676e-03, 1.95068715e-03, 1.15797191e-03,
          -4.81649098e-04, -9.30405047e-04, -3.31547810e-03,
          -8.53213016e-04, -3.49001377e-03, -5.91128366e-04,
          8.71285971e-04, 4.09054710e-03, -2.28884071e-03,
          -3.45319905e-03, -2.37643253e-03, -1.82746875e-03,
          -1.99022330e-03, -2.86027417e-03, 5.21666603e-03,
          3.84938391e-03, -1.49168726e-03, -2.11056485e-03,
          -4.33196919e-03, -2.25692196e-03, -2.05399445e-03,
          -1.23614538e-03, -1.49096060e-03, 5.42112533e-03,
          3.52424756e-03, -1.53048313e-03, 2.54414999e-03,
          -1.45179243e-03, -1.14031427e-03, -3.07718338e-03,
          -1.00774225e-03, -2.25797226e-03, 1.86327926e-03,
          2.87108449e-03, 4.56045708e-03, 1.25416776e-03,
          -3.21043329e-03, -1.50270981e-03, -2.90622306e-03,
          -1.31802086e-03, -2.47407379e-03, 5.58387372e-04,
          2.55998748e-04, 1.42602273e-03, -1.67214812e-03,
          -4.68836632e-03, -2.15894310e-03, -3.06076184e-03,
          -1.27817213e-03, -5.93683915e-04, 6.72765216e-03,
          3.85791063e-03, 1.39996153e-03, -2.85563478e-03,
          -5.36554446e-03, -2.16803257e-03, -2.48154858e-03,
          -2.16294639e-03, -4.83339536e-04, 5.18529117e-03,
          2.14540865e-03, 9.01268621e-04, 1.76040499e-04,
          -6.51204376e-04, 1.99388037e-03, 4.04421473e-03,
          3.35202971e-03, -6.28211012e-04, -2.30499357e-03,
          -2.59593665e-03, 6.66733889e-04, -1.01019815e-03,
          -1.82659223e-05, 3.72061878e-03, 2.67990143e-03,
          -3.91709618e-04, -2.10096827e-03, -2.50489428e-03,
          -2.23248871e-03, -1.47586712e-03, -4.31639748e-03,
          -1.46553895e-04, 2.16705352e-03, 3.92202707e-03,
          2.54208571e-03, -1.47046894e-03, -2.50719138e-03,
          -4.05887095e-03, -3.31780035e-03, -4.61694552e-03,
          1.49999664e-03, 4.13153833e-03, 1.77132292e-03,
          -2.38195760e-03, -3.65322060e-03, -3.49765713e-03,
          -4.08784021e-03, -4.37530503e-03, -3.41583247e-04,
          2.37508118e-03, 4.46436182e-03, 2.49795080e-03,
          -3.04912636e-03, -2.35536788e-03, -1.61428796e-03,
          -2.20884313e-03, -1.47911801e-03, 3.73431947e-04,
          1.51759002e-03, 3.18907690e-03, 9.24818858e-04,
          -2.23195739e-03, -2.21178913e-03, -1.32517493e-03,
          -6.19154773e-04, 8.23470546e-05, -2.75335857e-03,
          2.24777567e-03, 4.54842951e-03, 2.42967624e-03,
          -3.13798315e-03, -3.66445817e-03, -2.82874331e-03,
          -3.63127585e-03, -4.50447481e-03, -3.12927901e-03,
          -1.78802165e-03, 3.58886900e-03, 1.93571963e-03,
          -7.80307862e-04, -3.04341223e-03, -2.49593752e-03,
          -1.84123463e-03, -1.97487720e-03, 7.77149398e-04,
          2.69001350e-03, 3.07953823e-03, 9.81699442e-04,
          -8.83817615e-04, -8.84152018e-04, -1.10050000e-03,
          -8.23217793e-04, 1.93652268e-05, -1.32819568e-03,
          2.60490784e-03, 3.48194106e-03, 1.24791381e-03, 2.78151856e-04,
          1.21378816e-05, -1.07917213e-03, -1.98441651e-03,
          -1.71624240e-03, -2.46223784e-03, -2.11479072e-03,
          5.05165663e-04, 1.95963122e-03, 1.51124527e-03,
          -9.26195469e-04, -2.14645499e-03, -1.44355744e-03,
          -1.53104099e-03, -3.89587739e-03, -6.41402265e-04,
          -5.69950149e-04, 9.38398938e-04, -1.30271830e-04,
          -4.38298448e-04, -1.74216903e-03, -3.21148476e-03,
          -3.66161554e-03, -1.48929958e-03, -1.77916838e-04,
          1.13839247e-04, -1.93804546e-04, 1.17110752e-03,
          -1.16832543e-03, -2.19259434e-03, -2.18873494e-03,
          -1.03996636e-03, -1.06215570e-03, -1.26214232e-03,
          2.84500042e-04, 5.73874032e-03, 4.10793442e-03,
          -1.32907543e-03, -3.46479565e-03, -2.80423346e-03,
          -2.17407057e-03, -3.63894040e-03, -1.46240729e-03,
          6.33991323e-04, -2.48257769e-04, 1.21034938e-03,
          7.23858364e-04, -2.18422455e-03, -2.86199152e-03,
          -3.36765265e-03, -3.98377515e-03, -2.95809750e-03,
          -1.45203539e-03, 3.69377178e-03, 4.17290581e-03,
          6.94209011e-04, -2.54100887e-03, -3.25422105e-03,
          -4.59851045e-03, -1.62130571e-03, -7.63596967e-04,
          8.46786192e-04, 5.51307201e-03, 2.77137291e-03,
          -4.50730650e-03, -2.65361415e-03, -2.36519030e-03,
          -2.66175461e-03, -2.80412473e-03, 1.34697056e-03,
          3.44467163e-03, 6.78581512e-03, 1.24475523e-03,
          -5.60485013e-03, -3.71219334e-03, -4.00030054e-03,
          -4.01012460e-03, -4.41728160e-03, -1.90050935e-03,
          -8.53192352e-04, 3.45555344e-03, 2.72914092e-03,
          -1.99579238e-03, -2.23198486e-03, -2.42065103e-03,
          -4.43244260e-03, -3.24843032e-03, 1.05751900e-03,
          2.84814928e-03, 5.26643684e-03, 1.73709600e-03,
          -3.43543035e-03, -3.56530305e-03, -3.14365630e-03,
          -4.10922058e-03, -1.99617003e-03, 1.54329452e-03,
          4.25421866e-03, 5.02802152e-03, -9.34737385e-04,
          -3.93973198e-03, -3.01217288e-03, -1.96650997e-03,
          -2.99041951e-03, -1.84336130e-03, 1.61647075e-03,
          2.97975773e-03, 3.46225849e-03, -1.42188510e-03,
          -3.58425127e-03, -3.10291094e-03, -1.67865874e-04,
          -2.18356191e-03, -1.71898538e-03, 9.43576626e-04,
          1.77286495e-03, 3.70227033e-03, 8.20228597e-04,
          -4.16733092e-03, -2.45565106e-03, -8.13646300e-04,
          -1.87147979e-03, -1.04522379e-03, -5.39892470e-04,
          1.86300371e-04, 1.06967357e-03, 2.75808881e-04,
          -1.75316120e-03, -1.17760524e-03, 2.08083191e-03,
          -3.64903128e-04, -7.07931875e-04, 3.91968712e-03,
          5.04970690e-03, 5.17811952e-03, 2.24968838e-03,
          -1.82793580e-03, -6.35105942e-04, 6.51763752e-04,
          -4.55415051e-04, -2.48180376e-03, -1.88359933e-04,
          8.13584251e-04, 1.40842295e-03, 2.05573349e-04,
          -1.22420932e-03, 1.05199346e-03, -6.55356562e-04,
          -2.37014843e-03, 5.16334781e-04, 8.07080476e-04,
          1.64826075e-03, 3.54625983e-03, 1.80316670e-03,
          -8.39391505e-05, 4.03678569e-05, 1.86588767e-03,
          1.11526076e-03, -2.51241610e-03, -1.38831034e-03,
          3.62181861e-04, 1.91788643e-03, -1.57716626e-03,
          -3.13376240e-03, -2.25660112e-03, -2.44701776e-04,
          -2.48608203e-03, -2.68605677e-03, -5.77941828e-04,
          1.80927411e-04, 8.11449776e-04, 1.50171586e-03, 2.97272508e-03,
          1.25858805e-03, -1.15844549e-03, -2.01870548e-03,
          -3.77072673e-03, -1.06282893e-03, -1.70448201e-03,
          -8.59613283e-05, 3.85453372e-04, -2.34774197e-04,
          -1.80642435e-03, -2.20504589e-03, -2.83142389e-03,
          -2.62992945e-03, -6.73048140e-04, 1.12306734e-03,
          2.61927303e-03, 5.36871376e-04, -1.43902714e-03,
          -1.81958871e-03, 5.89923817e-04, -1.28831074e-03,
          -3.80726950e-03, -1.34788104e-03, -1.55474106e-03,
          3.62212624e-04, 3.34751722e-03, -1.06498692e-03,
          -2.17183144e-03, -1.30582601e-03, -2.59341672e-03,
          -3.47351958e-03, 1.23800151e-03, 1.40300475e-03,
          1.80526124e-03, 4.93574934e-03, 3.83473642e-04, 4.40568489e-04,
          -1.19018473e-03, -2.63376301e-03, -3.52774421e-03,
          6.42296043e-04, 2.56630383e-03, -1.70407561e-03,
          -1.38631847e-03, -3.44532938e-03, -1.74587814e-03,
          -2.43443786e-03, -3.45629104e-03, -3.59611586e-03,
          1.11384946e-03, 3.95016221e-04, 9.05974128e-04, 8.16970970e-03,
          2.50295666e-03, 6.10133691e-04, -2.08467897e-03,
          -3.12502333e-03, -3.27850576e-03, -2.46481574e-03,
          -2.07389542e-03, -3.99050117e-03, -4.18502232e-03,
          -4.54689143e-03, -2.22690171e-03, -3.09182773e-03,
          -3.44594126e-03, 4.53780784e-04, 2.19001807e-03,
          6.85199490e-03, 1.07591355e-03, 5.20204994e-05,
          -5.67711075e-04, 1.70621742e-03, 8.68373667e-04,
          1.05327251e-03, 7.48469727e-04, -2.10019480e-03,
          -1.88812905e-04, -2.39793747e-03, -6.57403725e-04,
          7.34976609e-04, 3.02104326e-03, 3.17413965e-03, 2.00358918e-03,
          1.95385292e-04, -9.33040283e-04, 4.82843578e-04,
          -2.17870204e-03, -7.59692048e-04, -1.97866443e-03,
          1.16518058e-03, -3.54179327e-04, 3.14523677e-05,
          1.40228728e-03, -2.67228484e-03, -9.32254843e-05,
          -3.67802335e-03, 8.90975993e-04, -9.33767413e-04,
          -5.19121881e-04, -6.26038935e-04, 3.08008678e-03,
          -1.87342230e-03, -3.70978401e-03, -3.05395573e-03,
          -4.60798433e-03, -6.94300164e-04, -1.95929373e-04,
          2.27944204e-03, 1.81100529e-03, 3.38233331e-05,
          -2.88541079e-03, -5.22771850e-03, -4.15664958e-03,
          -3.76772019e-03, 4.24231496e-03, 3.49289086e-03,
          8.70557874e-03, 7.11406954e-03, 1.67487469e-03,
          -1.22587802e-03, -4.26562969e-03, -2.63229548e-03,
          -5.13338111e-03, -3.44422355e-04, -3.18316440e-03,
          -3.09248129e-03, -1.69896812e-03, 6.37054063e-06,
          -3.24850995e-03, -4.71951021e-03, 1.39949634e-03,
          6.10565022e-03, 4.10472136e-03, -3.26314685e-03,
          -2.53627938e-03, 2.56594267e-05, -2.33165571e-03,
          -3.10932402e-03, -3.68270115e-03, -2.89116683e-03,
          -2.47978675e-03, 5.27568394e-04, 1.87568832e-03,
          5.20088803e-03, 4.45240038e-03, -3.09721596e-04,
          -3.16114910e-03, -2.80777575e-03, -2.07869965e-03,
          -3.44497897e-03, -2.83716503e-03, 2.58716661e-03,
          7.21418252e-03, 5.14596282e-03, 1.81786410e-04,
          -3.76848830e-03, -2.42870417e-03, 2.26353155e-03,
          3.09696747e-03, -2.58233194e-04, -2.53840792e-03,
          -1.30871916e-03, 2.71904864e-04, -3.82099650e-03,
          -2.75989366e-03, 1.89286878e-03, 3.56965186e-03,
          1.82604126e-04, -3.22209555e-03, -4.42008924e-04,
          2.67521665e-03, 5.33445622e-04, -4.21829754e-03,
          -1.23827171e-03, -1.74664159e-03, -7.41859432e-04,
          -2.09730351e-03, -2.07189983e-03, -1.02520233e-03,
          2.26107147e-03, 3.52442008e-03, 2.76261009e-03,
          -3.96704214e-04, -2.37327861e-03, -1.26687018e-03,
          -2.90775881e-03, -2.75004143e-03, -3.85259045e-03,
          4.63870773e-03, 8.18136148e-03, 5.83874201e-03,
          -1.33585685e-03, 1.15126593e-03, 1.88945641e-03,
          -8.77869548e-04, -1.28925859e-03, -5.39411558e-04,
          2.08060094e-03, 9.27376823e-05, -1.22371432e-03,
          -1.51095702e-03, -9.88653861e-04, -2.64145504e-03,
          -3.06722568e-03, -6.34405797e-06, -9.96627728e-04,
          8.02630093e-04, 1.92295865e-03, 2.16129376e-03,
          -3.49313486e-03, -4.26027039e-03, -2.75332038e-03,
          -2.74072704e-03, -2.05021026e-03, -3.67734488e-03,
          6.74382271e-03, 6.91214157e-03, -2.13352521e-03,
          -3.48564540e-03, -4.83537512e-03, -3.00526619e-03,
          -2.62121554e-03, -3.41585628e-03, -2.63325730e-03,
          8.61378852e-03, 7.84453284e-03, -3.23134847e-03,
          -3.73533159e-03, -4.28531226e-03, -4.04626550e-03,
          -3.89865041e-03, -1.22418290e-03, -2.38094898e-03,
          -1.10720319e-03, -1.35370484e-03, -2.60333135e-03,
          -4.33840742e-03, -4.48849890e-03, -4.21113102e-03,
          -4.11687046e-03, -2.91494979e-03, -3.24090011e-03,
          7.87988957e-03, 4.10830602e-03, -3.60671524e-03,
          -3.74324224e-03, -4.51683672e-03, -3.26217595e-03,
          -3.76792904e-03, -2.84564542e-03, -1.57124759e-03,
          7.40621332e-03, 5.71568403e-03, -2.80143064e-03,
          -4.38619079e-03, -5.57401404e-03, -3.87776829e-03,
          -3.52039421e-03, -2.72873277e-03, -1.48713577e-03,
          6.82289153e-03, 1.87132310e-03, -2.48398376e-03,
          -2.90634925e-03, -3.66524188e-03, -3.82438302e-03,
          -3.66645539e-03, -2.36834050e-03, -3.29028186e-03,
          6.64629322e-03, 4.94167907e-03, -2.39956030e-03,
          -2.97489623e-03, -4.33241297e-03, -3.82242352e-03,
          -3.46119632e-03, -2.02239677e-03, -2.61084852e-03,
          6.89977268e-03, 4.07784013e-03, -2.42019258e-03,
          -3.19719105e-03, 1.13000371e-03, 3.43096303e-03,
          5.01666591e-03, 3.90221691e-03, 7.88682155e-06,
          -1.53540284e-03, -2.28065206e-03, -2.48388364e-03,
          -3.83787137e-03, 2.83234264e-03, 4.32466436e-03,
          2.92257778e-03, -1.44980289e-03, -1.73869019e-03,
          -1.88544800e-03, -2.45065615e-03, -3.95716820e-03,
          -3.43065243e-03, -1.65360817e-03, 4.18881420e-03,
          5.07087214e-03, 3.52976611e-03, -7.15432514e-04,
          -9.75032628e-04, -3.70022468e-03, -2.94284709e-03,
          -3.84186022e-03, -6.58563105e-04, 3.31926253e-03,
          3.69928684e-03, -2.30467514e-04, -1.58671720e-03,
          -1.07523752e-03, -2.91862967e-03, -3.74189625e-03,
          -1.44104334e-03, 2.35037622e-03, 3.99317360e-03,
          2.08742265e-03, -1.65510457e-03, -2.29039486e-03,
          -1.53271377e-03, -2.13721488e-03, -2.48315674e-03,
          -1.92251510e-03, -1.45127065e-04, 4.63105459e-03,
          3.54488729e-03, -5.58002503e-04, -2.49692355e-03,
          -1.65945129e-03, -1.27440586e-03, -1.23102253e-03,
          -1.72474654e-03, 1.23057025e-03, 2.79943552e-03,
          1.77280791e-03, -2.00944440e-03, -1.99918379e-03,
          -1.88505743e-03, -2.26728106e-03, -1.00667472e-03,
          -1.16770295e-03, 2.24595773e-03, 4.70291590e-03,
          4.23589954e-03, -1.72952714e-03, -1.36005494e-03,
          -2.78523425e-03, -2.63398117e-03, -1.96058559e-03,
          -3.25446040e-03, -1.09164522e-03, 3.24277580e-03,
          2.78319442e-03, -2.08746147e-04, -2.47625425e-03,
          -2.90800189e-03, -2.02211388e-03, -2.44078645e-03,
          -3.65784741e-03, -1.86667952e-04, 4.25548758e-03,
          4.16329876e-03, 1.18370612e-04, -2.05885353e-05,
          -1.49465923e-03, -2.19867448e-03, -3.70531809e-03,
          -2.46732216e-03, 5.25001902e-04, 6.69449987e-03,
          4.79722954e-03, -1.72982563e-03, -2.67512072e-03,
          -3.99172353e-03, -2.98785674e-03, -4.15281020e-03,
          -2.75753881e-03, 3.46029774e-05, 5.54832304e-03,
          4.19067033e-03, -1.17272441e-03, -1.61125223e-04,
          -2.89791543e-03, -3.33497068e-03, -4.29031113e-03,
          -3.15227755e-03, -8.70471180e-04, 1.40452106e-03,
          4.35905968e-04, 1.99062051e-03, 1.82047766e-03,
          -1.29790057e-03, -1.51039637e-03, -2.65230471e-03,
          -3.42487870e-03, -2.51835398e-03, -1.15640425e-04,
          9.19316430e-04, 2.16617901e-03, 2.43909098e-03,
          -8.86170426e-04, -1.52000447e-03, -3.07434634e-03,
          -3.21640330e-03, -1.56462798e-03, 4.49344661e-04,
          -4.59146191e-04, -1.69875030e-03, 2.06538942e-03,
          -7.22214056e-04, -1.59544067e-03, -3.20131471e-03,
          -2.57820683e-03, -8.89813877e-04, -2.70182732e-04,
          -1.94122351e-03, 1.34711829e-03, 1.76232483e-03,
          8.86699650e-04, -9.90941073e-04, -2.65127304e-03,
          -3.43000167e-03, -1.72479358e-03, -6.10702555e-04,
          2.85934249e-04, 2.30535702e-03, 8.55605322e-05,
          -8.16114014e-04, -1.42521155e-03, -3.08217853e-03,
          -2.38241674e-03, 7.62579788e-04, 1.58567727e-03,
          2.21781363e-03, 3.58841824e-03, -3.35487042e-04,
          -1.25043339e-03, -1.27834047e-03, -2.35056900e-03,
          -2.44709128e-03, -6.95226947e-04, -1.23236165e-03,
          -6.04386325e-04, 1.53479550e-03, 4.00307152e-04,
          6.62295730e-04, -7.70785555e-04, -2.24994658e-03,
          -2.03583064e-03, -1.43874169e-03, -1.43105478e-03,
          -1.02350709e-03, 2.11175880e-03, 4.43384983e-03,
          4.42995969e-03, 9.44507599e-04, -3.74372612e-04,
          -1.95257133e-04, 1.86382560e-03, 1.39555288e-03,
          2.74648727e-03, 2.02029501e-03, -1.24409865e-03,
          -1.49822049e-03, -5.77615319e-05, -8.19925801e-04,
          9.62865597e-04, 3.32026713e-04, -3.50821298e-04,
          1.47791894e-03, 8.98897590e-04, -2.07745540e-03,
          -1.16650976e-04, 8.77536135e-04, 1.63717358e-03,
          -1.09294057e-03, -1.38236603e-04, -2.19858787e-03,
          -1.12592557e-03, 2.98787345e-04, 4.54315031e-03,
          1.82607910e-03, 8.02637718e-04, -1.59741030e-03,
          -1.36276576e-04, 3.37904166e-05, -2.35171849e-03,
          -1.50155654e-04, -3.16841615e-04, -1.27090854e-04,
          9.38907033e-05, 8.98478029e-04, 3.73762421e-04, 1.78349251e-03,
          3.28797978e-05, 6.06362650e-04, 2.09139404e-03, 2.04502861e-03,
          -6.57284807e-04, 1.40629371e-03, 2.55444646e-03,
          2.36659357e-03, -1.15038734e-03, -5.21411537e-04,
          2.57022958e-03, 2.10958207e-03, -2.41984241e-03,
          -3.96776013e-03, -1.99712580e-03, -7.89307058e-04,
          -1.94181467e-03, 1.53916469e-03, -1.14835193e-03,
          5.87150280e-04, 2.56513269e-03, 9.50694230e-05, 1.10339257e-04,
          1.86152000e-03, 2.37448514e-03, 2.22897623e-03,
          -1.13647908e-03, 2.61717447e-04, 5.19517064e-03,
          2.83394079e-03, -3.15471739e-03, -4.25129151e-03,
          -2.57791835e-03, -2.13639252e-03, -2.61717336e-03,
          -2.69142026e-03, -8.89029063e-04, 3.85338464e-03,
          6.15323009e-03, 1.45006878e-03, -1.34302955e-03,
          -2.88318750e-03, -1.47469167e-03, -2.97817658e-03,
          -3.82405589e-03, -3.38428933e-03, -7.90454913e-04,
          1.78200833e-03, 2.94220215e-03, -1.45532575e-03,
          -3.15781380e-03, -2.13973271e-03, -3.15498421e-03,
          -3.42629245e-03, -6.54446892e-04, 5.42316306e-03,
          8.52629170e-03, 2.60394206e-03, -1.48067577e-03,
          -4.04177047e-03, -3.38371331e-03, -4.70780954e-03,
          -4.56607295e-03, -4.28700820e-03, -4.31604544e-03,
          3.64141609e-03, 2.37414893e-03, -3.11624783e-04,
          -5.75631484e-03, -3.74920387e-03, -3.98824224e-03,
          -2.51897355e-03, -1.44356291e-03, -1.12025486e-03,
          3.06054880e-03, 7.28678983e-03, 3.85337771e-04, 3.97189229e-04,
          -5.38705208e-04, -2.17278139e-03, -3.17083881e-03,
          -3.01412656e-03, -2.24876381e-03, -2.77929194e-03,
          -2.16846867e-03, -3.80809372e-03, -1.94786105e-03,
          -1.71833474e-03, -2.50254921e-03, 3.15828889e-04,
          -1.40774052e-03, -2.74871243e-03, 5.19805215e-03,
          8.35391879e-03, 2.65629566e-03, -2.62018084e-03,
          -6.11459080e-04, 3.61822895e-04, 1.74540770e-03,
          -1.97967445e-03, -2.51130853e-03, -2.14667991e-03,
          -8.01359129e-04, -4.63646464e-03, -4.34336998e-03,
          -8.04542156e-04, 1.89816311e-03, -2.32782075e-03,
          -3.02216387e-03, -1.19717303e-03, -1.82506256e-03,
          -2.32178591e-05, -2.70734448e-03, -1.33116136e-03,
          -1.78669801e-03, -1.26298401e-03, -9.12529009e-04,
          -3.42118228e-03, -4.71255538e-04, -2.85086315e-03,
          1.40080880e-03, -1.61114137e-03, -1.43981865e-03,
          -2.47035851e-03, 1.61211600e-03, 2.95414007e-03,
          -2.55340128e-03, -1.76138920e-03, -1.52884482e-03,
          1.13554427e-03, -2.61885929e-03, -2.12367391e-03,
          2.26181815e-03, 6.76588528e-03, 1.83896709e-03,
          -4.31997189e-03, -3.81350750e-03, -3.80841945e-03,
          -6.89137727e-04, -3.55933676e-03, -9.69894696e-04,
          1.74873753e-03, 9.78659093e-03, -1.06808869e-03,
          -3.27187823e-03, -1.62671902e-03, -3.69309634e-03,
          9.16965131e-04, -2.11050850e-03, -2.23540608e-03,
          -2.58119614e-03, -5.88427181e-04, -2.57995282e-03,
          -2.90482515e-03, 1.91295973e-03, 6.25364529e-03,
          4.33843816e-03, -3.47796432e-03, -3.38223833e-03,
          -2.29954068e-03, -3.74385947e-03, -2.26801974e-04,
          -3.38039710e-03, -2.90346844e-03, -3.50818760e-03,
          -1.68448978e-03, -3.67027475e-03, -2.42762663e-03,
          -2.84276716e-03, 1.42780773e-04, -2.07655760e-03,
          -1.45368092e-03, 5.04788337e-03, 4.03308356e-03,
          5.83716203e-03, -2.16289377e-03, -7.56789872e-04,
          -1.96284032e-03, -2.75034155e-03, -2.02483311e-03,
          -2.20284960e-03, -1.50124921e-04, 1.49770896e-03,
          -5.80388936e-04, -2.66267615e-03, -2.61261757e-03,
          -2.25726701e-03, -3.15262913e-03, 2.60671630e-04,
          -1.61736956e-04, 2.06331443e-03, 6.43645355e-04,
          -1.13601680e-03, -1.86126854e-03, -6.60112477e-04,
          -1.71923661e-03, -1.53248257e-03, -2.00573984e-03,
          -1.59667223e-04, 2.13057571e-03, 2.20153388e-03,
          2.02002775e-04, -2.40221084e-03, -3.09519982e-03,
          -3.16547975e-03, -2.90281861e-03, 3.75390309e-03,
          3.58276442e-03, 4.15456062e-03, 2.30928091e-03, 9.13513359e-04,
          -4.33224282e-04, -1.94712332e-03, -7.36568763e-04,
          -4.90422244e-04, -2.48117576e-04, -8.62438756e-04,
          1.26052822e-04, -9.54087358e-04, -1.76137511e-03,
          -6.78083627e-04, 1.79850694e-03, -7.33465247e-04,
          -6.25368266e-04, -2.34903977e-03, -3.22147878e-03,
          -3.28089832e-03, -3.36126843e-03, -1.55015721e-03,
          -1.15862966e-03, 1.27813197e-03, -4.31158143e-04,
          -2.10793078e-04, 3.04183527e-03, 2.26175203e-03,
          7.94084044e-04, 1.26014580e-03, 6.57296565e-04, 1.38883025e-03,
          2.90710293e-03, 8.95343779e-04, 4.02850128e-04,
          -3.00099025e-04, -9.90486355e-04, -1.65483879e-03,
          -5.95867692e-04, -1.07983977e-03, 7.57498143e-04,
          3.87665676e-03, 1.02593319e-03, 1.04530866e-03,
          -1.81767659e-03, -3.28887533e-03, -4.05843649e-03,
          -2.27483036e-03, -1.30300748e-03, 7.69036065e-04,
          2.45592953e-03, 1.10975490e-03, 9.35158241e-05,
          -1.40740408e-03, -3.21772089e-03, -4.61634714e-03,
          -3.27300024e-03, -1.01959173e-04, 3.17518134e-03,
          6.88126823e-03, 5.56852622e-03, -1.29101973e-04,
          -3.51874362e-04, -1.75222044e-03, -8.02444294e-04,
          9.21891304e-04, -2.49279139e-04, 2.14036414e-03,
          1.63227809e-03, -7.51903339e-04, 4.92858875e-04,
          1.24595303e-04, -2.17596628e-03, -2.90631829e-03,
          -2.90568848e-03, 2.23092129e-03, 3.77592561e-03,
          -1.10038975e-03, -2.98879459e-03, -7.66100420e-04,
          -2.53419136e-03, -2.90529337e-03, -4.16288525e-03,
          -3.59495892e-03, -2.52666487e-03, -1.99575652e-03,
          7.91598205e-03, 1.89930061e-03, -2.10852595e-03,
          -1.79689366e-03, -3.70971509e-03, -4.31477278e-03,
          -3.23634269e-03, -2.71339971e-03, 2.10422906e-04,
          8.59025680e-03, 7.39620673e-03, -1.90804119e-03,
          -1.18619821e-03, -2.98325834e-03, -3.87428538e-03,
          -4.44248272e-03, -2.66482006e-03, -2.71366700e-03,
          -5.31032402e-03, -3.88782402e-03, -1.97717943e-03,
          -1.49736868e-03, -4.24206909e-03, -4.21702769e-03,
          -4.19906620e-03, -2.89449375e-03, -1.93109654e-03,
          7.78032932e-03, 1.79513576e-04, -1.26108469e-03,
          -2.83269444e-03, -1.38065952e-03, 3.39654949e-03,
          4.84080752e-03, 3.30813229e-03, -1.06587925e-03,
          4.40337346e-04, -2.24797684e-03, -2.61560106e-03,
          -4.10685642e-03, -9.60819016e-04, 1.90376327e-03,
          4.01317235e-03, 1.08684669e-03, -1.17207912e-03,
          -1.06060703e-03, -2.79958057e-03, -3.87171609e-03,
          -1.71576475e-03, 4.12458554e-04, 4.00564820e-03,
          3.66259506e-03, 1.82437047e-03, -1.61387678e-03,
          1.04899879e-03, -9.80566605e-04, -2.15528742e-03,
          -3.72913689e-03, -1.35550229e-03, 2.64819525e-03,
          3.84490052e-03, 1.83334947e-03, -1.36216835e-03,
          -1.87657669e-03, -2.28596991e-03, -2.97137955e-03,
          -2.60293065e-03, 1.58496003e-03, 2.80011306e-03,
          2.68244417e-03, -2.38862168e-03, -2.07956531e-03,
          -1.80696824e-03, -2.78209476e-03, -2.80963443e-03,
          -2.38681375e-03, 2.14601425e-03, 5.08918194e-03,
          5.74485771e-03, -1.89208891e-03, -1.93675584e-03,
          -2.87014060e-03, -3.69853992e-03, -3.97398695e-03,
          -3.01371142e-03, -6.68289722e-05, 3.76490410e-03,
          3.79088311e-03, -9.81500722e-04, -2.74970778e-03,
          -2.27170577e-03, -2.63466244e-03, -3.54244723e-03,
          -3.23167257e-03, 4.97397734e-04, 4.63432120e-03,
          4.49834159e-03, 1.63712655e-03, -1.27917959e-03,
          -8.59379012e-04, -2.95578549e-03, -4.40700864e-03,
          -4.13431227e-03, 9.01830557e-04, 6.86610723e-03,
          6.16052980e-03, 1.13433263e-04, -2.43790448e-03,
          -3.82981403e-03, -3.45900212e-03, -5.28469868e-03,
          -3.44066601e-03, -3.39784165e-04, 3.94228473e-03,
          3.52759054e-03, -4.63192933e-04, 5.70788514e-04,
          -3.62662296e-03, -4.23776731e-03, -4.81182663e-03,
          -3.87853035e-03, -1.07207359e-03, 1.68715732e-03,
          4.27618530e-03, 3.44070327e-03, -7.14949128e-05,
          -2.62131682e-03, -2.91637937e-03, -4.17343387e-03,
          -4.63553611e-03, -3.35569377e-03, 6.02292712e-04,
          1.95176643e-03, 2.47924263e-03, -6.32661046e-04,
          -3.24725150e-03, -3.43776960e-03, -5.10975765e-03,
          -2.29118112e-03, -1.41996390e-03, 1.21942861e-03,
          -1.05056260e-03, -2.51256255e-03, 2.83054775e-03,
          3.53236799e-03, -5.21273942e-05, -2.06221198e-03,
          -1.12202030e-03, -8.15104635e-04, 1.65728328e-04,
          -1.47776608e-03, 9.31396382e-04, 3.57261742e-03,
          4.63309186e-03, 3.75076430e-03, -6.45977070e-06,
          -2.45725270e-03, -2.62332032e-03, -1.88338419e-03,
          -2.97255954e-03, -2.74424511e-03, -7.15584261e-04,
          2.15567485e-03, -6.20245817e-04, -1.97871053e-03,
          1.54463618e-04, -3.22110672e-03, -3.41684907e-03,
          -4.47838614e-03, -3.51065397e-03, 1.05869398e-03,
          6.00714982e-03, 3.60490452e-03, 1.87822070e-03,
          -4.21522185e-04, -5.74843318e-04, -1.21623778e-03,
          -1.34746300e-03, 1.10888912e-03, 1.14334293e-03,
          3.80311045e-03, 9.07554873e-04, 4.37994131e-05,
          -9.81846475e-04, -1.35571545e-03, -2.32344680e-03,
          -1.55806227e-03, 1.39325531e-03, 4.08748677e-03,
          5.65612130e-03, 1.99823873e-03, -4.35796625e-04,
          2.77712388e-04, -2.34474754e-03, -2.95956014e-03,
          -3.21635767e-03, -1.57781946e-03, 1.53133401e-03,
          1.91416708e-03, 1.33525667e-04, 4.68061597e-04,
          -9.63690400e-04, -1.31597836e-03, -2.24273629e-03,
          -6.68339722e-04, 8.45555158e-04, 4.06982051e-03,
          2.83459900e-03, -2.15946548e-05, -1.95944333e-03,
          -6.47832407e-04, -8.32685851e-04, -3.59651656e-03,
          -2.60729669e-03, -8.36927735e-04, 3.77049972e-03,
          4.12148098e-03, 3.53236380e-03, -8.59743159e-04,
          4.40440315e-04, 1.03972165e-03, -2.41386442e-04,
          -3.57517798e-04, -1.12229038e-03, 2.33402662e-03,
          6.17110345e-04, 1.62330840e-03, -1.20542136e-04,
          -5.19089226e-04, 2.22089569e-04, -2.56666611e-03,
          -3.42814461e-03, -1.69465365e-03, 1.38212135e-03,
          8.80310545e-04, 1.39547605e-03, 5.98813116e-04, 2.05924478e-03,
          4.63296799e-03, 1.68308138e-03, -2.45078700e-03,
          -2.20818399e-03, -1.53207663e-03, -8.69740848e-04,
          -1.34257739e-03, 1.29156408e-03, 1.93159597e-03,
          -1.38071409e-04, 2.70935288e-03, 1.71290024e-03,
          -3.65706603e-03, -2.42613605e-03, -9.91412904e-04,
          -5.75932325e-04, 8.58356943e-04, -1.30311993e-03,
          -1.82292692e-03, 6.31726487e-03, 3.45799280e-03,
          -4.12144046e-03, -4.89626871e-03, -3.32836038e-03,
          -2.94481474e-03, -1.19407556e-03, 2.55368440e-03,
          5.28327702e-03, 8.71388614e-03, 1.10253494e-03,
          -3.44006508e-03, -4.75690188e-03, -3.61230364e-03,
          -3.02131684e-03, 5.14574116e-04, -4.09874041e-03,
          2.51808460e-03, 4.89825336e-03, 1.72633049e-03,
          -5.36936615e-03, -5.03790891e-03, -3.79551225e-03,
          -3.31630418e-03, -1.29162858e-03, -3.12565756e-03,
          -6.54906267e-04, 8.37191008e-03, 9.40961204e-03,
          2.26625614e-03, -3.36995558e-03, -4.19840030e-03,
          -3.63388378e-03, -3.09140026e-03, -3.01045482e-03,
          -1.54016702e-03, 7.75395310e-04, 3.43661499e-03,
          3.96945747e-03, -1.83425529e-03, -6.26233080e-03,
          -5.02957311e-03, -3.06921080e-03, -4.43358952e-03,
          2.70897290e-03, 5.49020991e-03, 3.51062207e-03,
          -2.69753789e-03, -3.71554843e-03, -3.67204496e-03,
          -3.39288358e-03, -3.13142827e-03, -1.73094694e-03,
          2.59082811e-03, 4.56116488e-03, 1.96010247e-03,
          -2.16100132e-03, -4.07490693e-03, -6.26663817e-03,
          -5.76659851e-03, -3.80545179e-03, -1.26512500e-03,
          -1.93758740e-03, -2.77093402e-03, -3.29427538e-03,
          -2.51539377e-03, -2.65891198e-03, -4.55933390e-03,
          -3.12825083e-03, -9.25196800e-04, -6.92477770e-05,
          -2.09279847e-03, -2.96391686e-03, -4.83703660e-03,
          -4.67756484e-03, -4.48152795e-03, -4.48012259e-03,
          -9.15657147e-04, 2.21967421e-04, -2.47484480e-04,
          2.73285364e-03, 3.98214348e-03, -1.29866088e-03,
          -3.64133040e-03, -4.03498067e-03, -4.91421623e-03,
          -3.86387343e-03, -9.57973825e-04, 3.74726672e-03,
          5.90355648e-03, 3.97864589e-03, -1.26499101e-04,
          -1.31725962e-03, -6.36903278e-04, 2.11563776e-03,
          5.86927775e-03, 6.29545003e-03, -2.28969101e-03,
          -4.00752435e-03, -4.11964580e-03, -3.97974160e-03,
          -4.21058433e-03, -2.55860249e-03, -2.53696484e-03,
          -6.17782236e-04, -6.43865846e-04, -3.44687863e-03,
          -5.34422463e-03, -5.80199156e-03, -4.19554254e-03,
          -5.07901656e-03, -2.63687642e-03, -2.71119457e-03,
          -2.10251193e-03, -6.96984411e-04, 3.38740577e-03,
          7.18889700e-04, -9.76852141e-04, -2.00480013e-03,
          -2.81746994e-04, 9.76266805e-04, 3.43848206e-03,
          7.69559573e-03, 6.87042251e-03, -2.04832037e-03,
          -3.61024053e-03, -3.60709056e-03, -1.63432991e-03,
          -6.43817708e-04, 4.23558988e-04, -3.22851527e-04,
          5.02648018e-03, 5.46751870e-03, -1.82895944e-03,
          -3.30888340e-03, -3.97231663e-03, -3.00148246e-03,
          -3.87723371e-03, -3.33035714e-03, -8.68677045e-04,
          -1.00483571e-03, -4.63327015e-04, -2.81324703e-03,
          -1.70134404e-03, 1.57598720e-03, 4.33796505e-03,
          -1.70765235e-03, -4.31506429e-03, -3.41915851e-03,
          -3.49114812e-03, -3.94458650e-03, -1.47094112e-03,
          -2.51875492e-03, -2.87389779e-03, -8.41816363e-04,
          -8.33568862e-04, 9.08636546e-04, 1.51086354e-03,
          6.93933573e-03, 4.52876370e-03, -2.11721472e-03,
          -4.64354147e-04, 5.35361934e-03, 7.35541340e-03,
          -2.33903149e-04, -2.37569818e-03, 2.42849506e-04,
          -2.22253031e-03, -4.69574193e-03, -2.65545165e-03,
          -2.31519880e-04, 3.32547189e-03, 2.81226216e-03,
          -1.25899678e-03, -3.76068731e-03, -4.00026282e-03,
          -4.00992064e-03, -3.47757665e-03, 3.91846042e-05,
          4.24806552e-04, 1.52723107e-03, 2.60325009e-03, 1.74897708e-04,
          -1.66397390e-03, -3.58316675e-03, -2.19295500e-03,
          -2.05253460e-03, -3.36785452e-03, -6.66812353e-04,
          4.14508814e-03, 5.11032296e-03, 1.78294518e-04,
          -3.57480766e-03, -3.72063834e-03, -4.03575646e-03,
          -4.51785792e-03, -2.65796459e-03, -9.34891577e-04,
          1.82770623e-03, 3.41833197e-03, 1.40537752e-03, 2.54430779e-04,
          -2.07610312e-03, -2.47081555e-03, -2.67275376e-03,
          -8.69759475e-04, -1.28651038e-03, -9.72202921e-04,
          1.65875512e-03, 2.39896981e-04, 8.15267849e-04,
          -3.34205775e-04, -1.16650725e-03, -1.60717592e-03,
          -1.48886722e-03, -1.69541826e-03, -1.50888949e-03,
          -9.72303795e-04, -1.99131191e-05, -1.12292869e-03,
          -8.83662549e-04, -9.88373067e-04, -9.63547733e-04,
          -1.96582172e-03, -1.91801728e-03, 3.32088326e-04,
          4.17023618e-03, 2.82222708e-03, 3.32444161e-03,
          -4.78181428e-05, -2.33694771e-03, -2.19800253e-03,
          -9.25797038e-04, -1.71883509e-03, -4.06731997e-04,
          2.01152754e-03, 4.19983221e-03, -8.04954616e-04,
          -1.98697159e-03, -2.84967222e-03, -2.01544771e-03,
          -3.17594619e-04, -2.79446132e-04, 2.82540044e-04,
          1.62264041e-03, 1.77700573e-03, 1.14204560e-03,
          -4.93331754e-04, -1.33812791e-04, -4.20350174e-04,
          -1.80654926e-04, -1.46988849e-03, -1.51104596e-03,
          -9.07787238e-04, 7.55070476e-04, 8.97867547e-04,
          -2.60319258e-03, -2.87660165e-03, -2.35622935e-03,
          2.77790066e-04, 1.39857747e-03, 8.29654338e-04, 3.21530178e-03,
          4.29478893e-03, -9.76966330e-05, -2.07012845e-03,
          -1.56664068e-03, -1.82951801e-03, -1.34063372e-03,
          -1.16806616e-04, 1.63308613e-03, 8.31880141e-04,
          4.79067494e-05, -2.55408767e-03, -3.18775466e-03,
          -2.53870664e-03, -2.52784253e-03, 9.16869845e-04,
          -1.57168112e-03, -1.34464120e-03, -1.50045089e-03,
          7.07583502e-04, 3.23880720e-03, -2.00157659e-03,
          -1.95807032e-03, -5.31425874e-04, 1.73480483e-03,
          -2.26997305e-03, -1.74831715e-03, -2.08512903e-03,
          2.96395709e-04, 3.09084775e-03, 5.95755642e-03, 2.04398390e-03,
          2.86436407e-03, -1.06526783e-03, -1.73109351e-03,
          6.71384565e-04, 2.89537129e-04, 9.72113805e-04,
          -1.08187122e-03, -1.17810187e-03, -1.96516211e-03,
          -1.27420353e-03, -2.60547997e-04, -2.88897939e-03,
          -9.75703180e-04, -4.55071742e-04, 2.47352151e-03,
          1.37088966e-04, -3.69574729e-04, 1.14987441e-03,
          9.50817950e-04, -1.47896062e-03, 8.35706363e-04,
          3.24760191e-03, 3.59624857e-03, 2.87988107e-04,
          -4.45104757e-04, 3.92711750e-04, -1.13430340e-03,
          -2.44618254e-03, -1.63618731e-03, -2.87338276e-04,
          2.98660691e-03, 3.91627010e-03, 1.24262660e-04,
          -1.13841717e-03, -1.29927543e-03, -1.66436099e-03,
          -2.19020969e-03, -1.53791462e-03, 4.28499421e-04,
          1.72599149e-03, 3.69656458e-03, 1.85003190e-03, 1.71331048e-03,
          -5.31636411e-04, -1.40228821e-03, -2.50446680e-03,
          -2.74321600e-03, 5.32719947e-04, 2.03450909e-03,
          5.67465147e-04, 8.25006107e-04, -8.98592116e-04,
          -1.88909168e-03, -1.86891831e-03, -3.35234054e-03,
          -1.65917468e-03, 8.43540241e-04, 4.03427565e-03,
          3.75585142e-03, -1.48447696e-03, -2.90672923e-03,
          -2.54719565e-03, -2.43587117e-03, -2.94518750e-03,
          -1.97539991e-03, 2.21132138e-03, 3.05075594e-03,
          4.46748966e-03, -1.15686300e-04, -1.95972319e-03,
          -1.51989202e-03, -2.47692643e-03, -3.09421890e-03,
          -2.38924753e-03, 2.00046715e-03, 3.58491438e-03,
          2.30395468e-03, -2.06995872e-04, -1.82574918e-03,
          -2.69131968e-03, -3.31810932e-03, -4.63713799e-03,
          -1.58568774e-03, 1.60888874e-03, 4.01255907e-03,
          3.74093768e-03, -1.41164346e-03, -1.66166143e-03,
          -2.32925988e-03, -3.11477785e-03, -4.01032204e-03,
          -7.43670214e-04, 1.42849714e-03, 2.30720267e-03,
          4.08022525e-03, 2.91137863e-03, 4.93190368e-04,
          -1.90226070e-03, -2.01827916e-03, -2.08326662e-03,
          -2.88961479e-03, -2.76979245e-03, -1.33784942e-03,
          1.05343068e-04, 2.63095414e-03, 1.09266955e-03,
          -1.71833392e-03, -1.92474353e-03, -2.53669336e-03,
          -2.04815180e-03, 1.95551474e-04, 3.30314948e-03,
          4.31859819e-03, 9.01446387e-04, 2.81790126e-05,
          -1.87011075e-03, -2.33379938e-03, -2.11106637e-03,
          -4.10823151e-03, -4.42455709e-03, -2.98582506e-03,
          -6.81411067e-04, -4.20009077e-04, -4.39226715e-04,
          -1.54139195e-03, -1.20559661e-03, -1.91889296e-03,
          2.32675768e-04, -6.97268231e-04, -6.72857161e-04,
          -1.33009511e-03, -1.53818968e-04, 1.42225719e-04,
          2.59838393e-03, 1.18237792e-03, 8.31633690e-04, 4.07148758e-03,
          -8.25557159e-04, -2.06240523e-03, -3.15353181e-03,
          -7.94254243e-04, 1.33576232e-03, 7.13932747e-03,
          8.36455170e-03, 6.32351032e-03, -1.32219249e-03,
          -1.56103843e-03, -1.36409106e-03, -1.85783522e-03,
          -3.41845269e-04, -8.21499329e-04, 7.16005452e-04,
          1.12934889e-04, -9.27393208e-04, -9.10581439e-04,
          1.13294611e-03, 6.36176148e-04, -9.86906234e-04,
          -2.15414504e-04, -1.44652510e-03, -4.91416606e-04,
          -2.37687171e-04, -1.90676423e-03, -6.69319998e-04,
          -2.57451646e-03, -3.45335156e-03, -2.81032803e-03,
          -1.04241574e-03, 3.10366903e-03, 2.35367334e-03,
          1.77538430e-03, 2.71922981e-05, -2.98255880e-04,
          -6.81577832e-04, -1.47718622e-03, 6.76195195e-04,
          2.94591649e-03, 5.68884937e-03, 5.75509295e-03, 5.75321913e-03,
          6.89722656e-04, -3.39487242e-03, -2.46723020e-03,
          -3.23539390e-03, -2.46533914e-03, -2.25306838e-03,
          -7.51735352e-04, -1.18783046e-03, -1.37096818e-03,
          -3.53196356e-03, 2.07408026e-04, -1.60688418e-03,
          -3.22459289e-03, -1.72938127e-03, -1.49814191e-03,
          1.27615407e-03, 3.28241172e-03, 4.76388074e-03, 2.11287523e-03,
          1.19079347e-03, 8.55612336e-04, -1.05465332e-03,
          -2.02459586e-03, -1.67916773e-03, -1.01956935e-03,
          1.22434204e-03, 3.43968719e-03, 3.65156587e-03, 3.11517878e-03,
          3.64260888e-03, 2.84900609e-03, -1.53836864e-03,
          -3.27010173e-03, -4.44512395e-03, -1.99440564e-03,
          -1.63610477e-03, 2.79267365e-03, -3.95399802e-05,
          -2.21622089e-04, -2.47927825e-03, -3.51559394e-03,
          -3.31750419e-03, -3.04215797e-03, 3.48054782e-05,
          4.47993958e-03, 2.75998050e-03, 1.65231153e-03, 1.65552832e-03,
          7.54950452e-04, -3.08962958e-03, -3.80061055e-03,
          -5.65566961e-03, -2.06473470e-03, -1.02978433e-03,
          1.52576994e-03, 2.51808506e-03, 4.13512811e-03, 8.86994880e-03,
          3.08173883e-04, -2.31034821e-03, -4.47602943e-03,
          -3.36349639e-03, -3.09457700e-03, 5.02635259e-04,
          -3.64922220e-03, 2.09115446e-03, 4.63787559e-03,
          -1.78394164e-03, -4.72611235e-03, -4.14076168e-03,
          -3.21918027e-03, -2.83147139e-03, -2.54606339e-03,
          2.58223130e-03, 4.23846627e-03, 3.27367405e-03,
          -1.67911989e-03, -2.34843767e-03, -4.37007612e-03,
          -2.73066107e-03, -3.03130387e-03, 1.03248411e-03,
          -1.63908268e-03, 1.21315208e-03, 5.56255633e-04,
          -1.54375820e-03, -2.56276061e-03, -4.49894788e-03,
          -4.47286619e-03, -3.55409691e-03, -2.10938207e-03,
          -2.24031770e-04, 4.96721221e-03, 6.46619312e-03,
          -4.01139492e-04, -3.46255698e-03, -2.68264161e-03,
          -2.22903932e-03, -1.58532325e-03, -2.62976671e-03,
          1.53924024e-03, 5.57097606e-03, 4.95113013e-03,
          -3.63506231e-04, -4.66226507e-03, -4.04764526e-03,
          -4.49833227e-03, -3.32249166e-03, -3.42288986e-03,
          1.86236331e-03, 2.76084850e-03, 2.32618506e-04,
          -1.13150447e-04, -1.74335705e-03, -2.71178642e-03,
          -3.89903202e-03, -2.57248478e-03, -1.75704306e-03,
          3.35146033e-04, 2.45520938e-03, 2.76102393e-04,
          -1.14804192e-03, -4.74819262e-03, -4.18322627e-03,
          -3.92444106e-03, -3.95083660e-03, -3.50592867e-03,
          -3.13674565e-03, -7.20442680e-04, -9.35155782e-04,
          -1.31051533e-03, -3.75514664e-03, -4.02365485e-03,
          -4.22410294e-03, -3.49253672e-03, -3.68812564e-03,
          3.60065860e-05, 2.40232190e-03, 1.16624415e-03, 1.97741087e-03,
          1.23779674e-03, 1.42782228e-03, 1.25603739e-03, 4.33751335e-03,
          2.82701338e-03, -3.71662620e-03, -2.41908361e-03,
          -2.57589994e-03, -1.40637765e-03, -3.00892722e-03,
          -2.69468431e-03, -3.40201962e-03, -4.35510743e-03,
          -4.12128633e-03, -2.40890961e-03, -6.13021897e-04,
          -1.43907813e-03, -8.85296264e-04, -2.56152591e-04,
          1.72277133e-03, 5.36993844e-03, 2.95359152e-03, 1.32847356e-03,
          -1.15710846e-03, -1.49850908e-03, -9.55140451e-04,
          -1.96733978e-04, -5.52427897e-04, 6.55656972e-04,
          1.31058786e-03, 4.36956342e-03, 3.13669839e-03,
          -4.42861766e-03, -4.51764185e-03, -1.88500178e-03,
          -4.36766335e-04, 5.46950068e-05, -1.36776408e-03,
          5.57342253e-04, 2.93186214e-03, -1.17357378e-03,
          -2.34632264e-03, -1.71949586e-03, -1.16080511e-03,
          -4.52892011e-04, -1.87668786e-03, 5.38033841e-04,
          3.85228521e-03, 4.93220938e-03, 1.92568533e-03,
          -4.89486288e-03, -5.28171752e-03, -2.63033970e-03,
          -5.33667800e-04, -8.52067489e-04, 9.82386875e-04,
          9.89137916e-04, 9.33898729e-04, -1.02674239e-03,
          -3.87480226e-03, -3.88340652e-03, -2.67600571e-03,
          -1.41854223e-03, -3.66553955e-04, 7.38065457e-04,
          1.82053656e-03, 3.89139634e-03, -2.62577482e-03,
          -4.20310255e-03, -4.03555529e-03, -7.68419355e-04,
          -6.25497720e-04, -3.84744164e-03, -1.32523698e-03,
          -2.52000085e-04, -1.50225603e-03, -6.56393683e-03,
          -2.67215306e-03, -2.89406185e-03, -1.94564986e-03,
          -6.69010566e-04, 2.75900617e-04, 4.47920151e-03,
          6.03283616e-03, 2.52169278e-03, -8.46961746e-04,
          -2.94498494e-03, -1.17065664e-03, -8.15280189e-04,
          -1.19661586e-03, -2.45377887e-03, -7.74687040e-04,
          2.50201626e-03, 4.02821507e-03, -4.34850343e-03,
          -3.92028550e-03, -3.29768611e-03, -2.05684089e-04,
          -9.15041310e-05, -7.21935881e-04, -2.29853578e-03,
          -1.31143699e-03, -1.90278864e-03, -4.85076243e-03,
          -4.34961123e-03, -3.40512884e-03, -2.27494980e-04,
          1.67294929e-03, 1.93148805e-03, 3.14745121e-03,
          -1.68655883e-03, -3.10947443e-03, -3.83550907e-03,
          -3.41319619e-03, -2.92128441e-03, -4.41294716e-04,
          -1.11891481e-03, 6.80846060e-05, -2.42781104e-03,
          3.33076320e-03, 7.20370188e-03, -4.08533495e-03,
          -4.72918479e-03, -2.82863248e-03, -1.47669250e-03,
          1.54308428e-03, 5.02896216e-03, 2.49335426e-03,
          -2.02555116e-03, -3.60433012e-03, -4.69167903e-03,
          -3.59870028e-03, -2.42607226e-03, 2.71980156e-04,
          4.77941148e-03, 3.91664263e-03, 4.66580968e-03,
          -1.36941427e-03, -3.84780974e-03, -2.94146873e-03,
          -2.83958740e-03, -2.32016668e-03, -9.20560677e-04,
          2.49540852e-03, 3.64776514e-03, -2.23630387e-03,
          -4.06720955e-03, -4.42624744e-03, -3.80136422e-03,
          -3.88970342e-03, -1.80570479e-03, -1.76417598e-04,
          4.78700781e-03, 5.50807919e-03, 3.17258271e-03,
          -2.86245369e-03, -5.39402803e-03, -3.49889323e-03,
          -3.91540537e-03, -2.44411966e-03, -1.25669921e-03,
          1.17908348e-03, 2.41670012e-03, -9.21990606e-04,
          -4.15871106e-03, -5.71684819e-03, -4.03686007e-03,
          -1.19411910e-03, 1.24084996e-03, 1.41277269e-03,
          4.26116819e-03, 4.81458846e-03, -1.98924704e-03,
          -2.85446714e-03, -1.84583734e-03, -2.58473959e-03,
          -3.05864681e-03, -6.94734801e-04, 3.02521256e-03,
          2.28427001e-03, -1.44566211e-03, -4.31961427e-03,
          -3.02390754e-03, -2.36242916e-03, -2.82255723e-03,
          -3.01072397e-03, -2.40860129e-04, 4.37918497e-04,
          4.22024261e-03, 5.33592561e-03, -5.29258221e-04,
          -1.84265268e-03, -2.53508170e-03, -2.19482114e-03,
          -4.98384377e-03, -3.26433708e-03, -1.13222573e-04,
          3.87949240e-03, 2.20583682e-03, -1.38046581e-03,
          -4.08659602e-04, -1.97732751e-03, -3.86510789e-03,
          -2.56729615e-03, -1.81507214e-03, 2.26553413e-03,
          3.36712226e-03, 2.43941671e-03, -8.66785704e-04,
          -2.70873983e-03, -2.83839740e-03, -2.08947901e-03,
          -9.58345772e-04, -2.98991869e-03, -9.28731810e-04,
          1.93638983e-03, 5.17811021e-03, 9.63880622e-04,
          -1.52303791e-03, -2.93480372e-03, 5.91567878e-05,
          -3.97773879e-03, -3.15934955e-03, -1.68756163e-03,
          4.79292357e-03, 6.03058795e-03, 1.74990552e-03, 1.67390623e-04,
          -2.11421424e-03, -3.35841044e-03, -1.21067697e-03,
          -3.19642876e-03, -2.97717541e-03, 2.08965805e-03,
          6.30933838e-03, 2.06094352e-03, -1.39089359e-03,
          -3.46101285e-03, -9.35222313e-04, 7.14009220e-05,
          -3.03802562e-06, 1.52357027e-03, 2.71343626e-03,
          2.88835098e-03, 2.72487849e-03, -1.48466718e-03,
          -1.78704702e-03, -1.02519931e-03, -2.07505724e-03,
          3.82117694e-04, 8.38035252e-04, -3.93726048e-04,
          2.94581754e-03, -2.99518397e-05, -2.97742477e-03,
          -1.89470069e-03, -2.34256173e-03, -2.08116183e-03,
          -6.46909233e-04, 3.29732127e-03, 2.39874725e-03,
          2.38464936e-03, 1.21995632e-03, -1.87334733e-03,
          -2.24537472e-03, -1.93048641e-03, -2.25279783e-03,
          -7.21899152e-04, -1.44054182e-03, -1.22779340e-03,
          1.18959229e-03, 9.01168736e-04, -3.06737260e-03,
          -2.35240278e-03, -1.97952869e-03, -2.31403182e-03,
          1.60195213e-03, 1.99525966e-03, 1.54663972e-03, 3.53962672e-03,
          2.93096731e-04, -3.14299064e-03, -2.76289834e-03,
          -4.12403187e-03, -3.05839698e-03, 6.37276040e-04,
          4.18573106e-03, 2.98398361e-03, 1.20820885e-03,
          -1.08597626e-03, -3.17547377e-03, -3.33482260e-03,
          -4.12043929e-03, -1.85052166e-03, 4.67932987e-05,
          -2.83903588e-04, 1.93759217e-03, 2.33058166e-03,
          1.81968219e-03, -2.61520571e-03, -3.42000322e-03,
          -3.13669583e-03, -3.22039798e-03, 6.81169855e-04,
          3.70341353e-03, 3.91969783e-03, 5.11418853e-04,
          -1.84107933e-03, -4.84540174e-03, -4.48132539e-03,
          -4.83143702e-03, -2.20770785e-03, 8.40708148e-04,
          4.21606889e-03, 3.88740562e-03, 7.22744560e-04,
          -1.02452491e-03, -2.07902002e-03, -2.78392597e-03,
          -2.63598678e-03, -2.16479949e-03, -1.42808398e-03,
          -1.52701439e-04, 2.07289332e-03, -2.98164407e-04,
          -1.42139220e-03, -1.33212737e-03, -2.50614993e-03,
          -2.00330955e-03, -1.84173346e-03, 1.88574602e-03,
          3.45419161e-03, 3.89898149e-03, -1.20039142e-04,
          -2.98800366e-03, -3.24398302e-03, -4.43279697e-03,
          -3.68010835e-03, -3.47611698e-04, 3.18866130e-03,
          2.59876112e-03, 3.58018070e-03, -1.92872388e-03,
          -3.02806008e-03, -2.16383743e-03, -4.29733843e-03,
          -2.82243639e-03, -1.10683707e-03, -1.20741199e-03,
          -6.44165557e-04, -6.94566465e-04, 2.70418328e-04,
          -1.37865345e-03, 2.88712090e-06, -1.73908600e-03,
          -1.38685934e-03, -6.56021468e-04, -1.31545262e-03,
          -1.00857602e-03, -1.67180598e-03, -1.28775008e-03,
          -3.23410239e-03, -2.84571480e-03, -2.74604908e-03,
          -7.39775016e-04, 3.98415327e-03, 3.59538849e-03,
          3.19030392e-03, 1.46376318e-03, -1.10385171e-03,
          -2.69175461e-03, -1.31214538e-03, -1.98420347e-03,
          2.37284854e-04, 1.03645055e-02, 4.45334380e-03, 2.26890761e-03,
          -3.55966447e-04, -1.18910091e-03, -2.91503523e-03,
          -2.85404106e-03, -1.16666465e-03, 3.07163480e-03,
          -1.89587276e-03, -9.52731993e-04, -3.97821095e-05,
          -1.64794707e-04, -2.50423420e-03, -2.32095527e-03,
          -3.77862295e-03, -2.82118889e-03, -2.44289869e-03,
          -7.36302245e-05, 1.89919537e-03, 2.08182796e-03,
          -4.39160685e-05, -2.76179588e-03, -1.61462743e-03,
          -1.92757254e-03, 1.54259277e-03, 1.31764170e-03,
          7.52416265e-04, 8.14169820e-04, 3.50280176e-03, 1.78668206e-03,
          -3.54043557e-03, -3.72976810e-03, -3.78704187e-03,
          -2.16176151e-03, -1.65333797e-03, -8.72649252e-04,
          4.44816053e-03, 4.98122256e-03, 4.42330074e-03,
          -1.93431368e-03, -3.88474460e-03, -4.16026870e-03,
          -9.11188545e-04, 3.90305941e-04, -1.74807082e-03,
          -4.60480136e-04, -9.33346571e-04, -2.32190429e-03,
          -4.05042805e-03, -2.83669704e-03, -1.15581008e-03,
          2.31230725e-03, 2.04646215e-03, -1.56408560e-03,
          3.22218402e-04, -1.05898485e-04, -2.71056686e-03,
          -4.40556183e-03, -4.83857840e-03, -1.15629367e-03,
          1.84971117e-03, 4.02347697e-03, -1.50318810e-04,
          2.07674078e-04, 2.77930987e-03, -5.87658607e-04,
          -4.32262989e-03, -3.84937739e-03, -2.10868940e-03,
          1.36983523e-03, 4.53836424e-03, 1.34625740e-03,
          -9.08965012e-04, -2.06040428e-03, -3.50523437e-03,
          -4.81522782e-03, -3.15621216e-03, 2.85426155e-03,
          4.44145547e-03, 4.33058245e-03, -1.27648236e-03,
          -6.62187522e-04, -6.33867690e-04, -1.58190879e-03,
          -2.93595949e-03, -4.02245438e-03, -2.19329679e-03,
          -5.34290739e-04, 5.28949825e-03, -1.70892628e-03,
          -2.96378881e-03, -2.98029534e-03, -2.05888622e-03,
          -3.06753395e-03, -4.03814344e-03, -4.62729344e-03,
          -1.67343672e-03, 2.69340631e-03, 4.64682351e-04,
          -2.22267467e-03, -2.58449395e-03, -2.05410249e-03,
          -4.00763610e-03, -1.09755725e-03, 4.40060766e-03,
          4.85843141e-03, 5.11406129e-03, -6.55825017e-04,
          -3.39277741e-03, -3.03718727e-03, -2.63290782e-03,
          -3.76612786e-03, -3.85792321e-03, 2.12609593e-04,
          3.33754788e-03, 4.40301234e-03, -7.30696847e-05,
          -1.91717548e-03, -1.90294092e-03, -2.88112392e-03,
          -4.23366157e-03, -3.61985690e-03, -3.55176069e-03,
          -2.82556517e-04, 3.18303728e-03, -1.02406216e-03,
          -1.95360184e-03, -1.54079020e-03, -3.93007230e-03,
          -5.21131791e-03, -4.53922292e-03, -3.71593609e-03,
          -2.52207974e-03, -4.51216998e-04, 1.55110238e-03,
          -1.42435892e-03, -8.34603794e-04, -3.24541517e-03,
          -3.89927020e-03, -3.09852115e-03, 1.39395939e-04,
          7.38980155e-03, 7.82538112e-03, 1.91152841e-03, 1.05692109e-03,
          5.86558657e-04, -4.04920569e-03, -3.90047743e-03,
          -4.04118653e-03, 7.03415193e-04, 6.52950490e-03,
          5.09672565e-03, -2.29514786e-03, -2.22545047e-03,
          -2.90712900e-03, -2.78460351e-03, -3.86020890e-03,
          -2.68260296e-03, -2.56799627e-03, -3.74327833e-03,
          -2.89677852e-03, -8.76206206e-04, 1.10322656e-03,
          -2.13077315e-03, -3.22149997e-03, -1.76352856e-03,
          -3.65877640e-04, -9.64997918e-04, -1.89666264e-03,
          -1.44032121e-03, -3.99761251e-04, 8.30323319e-04,
          -9.98437637e-04, -3.91008100e-03, -5.12010325e-03,
          -3.69414454e-03, -2.24995296e-04, 1.91326078e-03,
          1.14660815e-03, 2.80396035e-03, 4.16818634e-03, 2.52566813e-03,
          2.65318714e-03, 1.96648366e-03, 2.41968461e-04, 2.11545266e-03,
          3.45617707e-04, 5.22143790e-04, -7.07942017e-05,
          1.25478406e-03, -9.67056665e-04, -2.16268282e-03,
          -2.93937745e-03, 3.08314105e-04, 2.13408188e-04,
          -1.43150776e-03, -1.58654351e-03, -2.32359511e-03,
          -2.54324102e-03, -2.14330037e-03, -1.12013367e-03,
          -1.33686804e-03, 1.68185995e-03, 1.00702215e-04,
          -1.35873235e-03, -2.32989807e-03, 1.08567183e-03,
          2.14828691e-03, -1.70953805e-04, 1.33242027e-03,
          1.67322357e-03, -1.37650626e-04, 8.67619528e-04,
          -1.84890500e-03, -1.62188301e-03, -1.07254263e-03,
          -3.07686016e-04, 6.32346841e-04, 2.08917772e-03,
          9.43511142e-04, 3.85645049e-04, -2.54048384e-04,
          -1.78940699e-03, -2.35294667e-03, -2.66861101e-03,
          -1.55963260e-03, -4.54914989e-04, -3.16764199e-04,
          -1.20846019e-03, 2.06840737e-03, 2.10880535e-03,
          -1.01728167e-03, -2.72864033e-03, -2.81167566e-03,
          2.91846110e-04, 6.52455841e-04, -8.24431714e-04,
          -1.01879938e-03, 4.60462179e-04, 1.89028762e-03,
          1.13995152e-03, -4.67352476e-03, -1.74834451e-03,
          -1.43535528e-03, 2.36513792e-03, 1.40470045e-03,
          -1.87049853e-03, 2.13664002e-03, 1.36967516e-03,
          -1.41229003e-03, -1.69751281e-03, -3.02070100e-03,
          -1.51391781e-03, 1.08707044e-03, -1.37601094e-03,
          -7.82982039e-04, 2.44277180e-03, 2.95742019e-03,
          -1.81633618e-03, -3.79650644e-03, -2.94874539e-03,
          -1.92055665e-03, 2.01502495e-04, 4.36828595e-05,
          -5.35326253e-04, -3.10984300e-03, 6.46044966e-04,
          2.12241639e-03, -3.74641526e-03, -3.95671465e-03,
          -3.47736944e-03, -1.36882497e-03, 2.95253773e-03,
          1.70189061e-03, -2.00251327e-03, -3.73837072e-03,
          -4.26918734e-03, -4.04937332e-03, -3.28126410e-03,
          -2.81021860e-03, -1.62826933e-03, -1.06246851e-04,
          -6.86804342e-05, 3.19936103e-03, 2.39193812e-03,
          5.77450090e-04, -2.98983278e-03, -4.04973188e-03,
          -4.69093490e-03, -2.16933014e-03, 1.92355202e-03,
          1.76916760e-03, -4.01402940e-04, -2.26478238e-04,
          -1.67829799e-03, -3.63969244e-03, -2.97922082e-03,
          -2.31392728e-03, 1.37979770e-03, 5.12661040e-03,
          6.01366675e-03, 1.97957829e-03, -3.57749127e-03,
          -4.90076281e-03, -3.10640829e-03, -3.97972437e-03,
          -3.66217317e-03, -3.59118241e-03, -1.51259464e-03,
          1.75818859e-03, -8.95237259e-04, -3.41137382e-03,
          -4.60679829e-03, -3.26141156e-03, -3.28380591e-03,
          -4.14528931e-03, -9.53570532e-04, 3.30044213e-03,
          6.85669435e-03, 6.61977427e-03, -2.69989338e-04,
          -2.93393410e-03, -3.41709028e-03, -3.84760113e-03,
          -4.21184627e-03, -5.33747207e-03, -5.67401666e-03,
          1.87606877e-03, 1.00561847e-04, -2.14934233e-03,
          -3.50000313e-03, -3.46135977e-03, -2.87637627e-03,
          -1.60350872e-03, -2.98263552e-03, -1.47872604e-04,
          3.88912507e-03, 1.96795887e-03, -4.23510268e-04,
          -3.04245856e-03, -1.30403857e-03, -4.44768229e-03,
          -1.89291732e-03, -3.01653962e-03, -1.60918105e-03,
          1.69301464e-03, 1.64287165e-03, 8.10704019e-04,
          -2.67609931e-03, -2.49038334e-03, -2.36939755e-03,
          -6.42202212e-04, -2.96363095e-03, -2.46761460e-03,
          2.39289342e-03, 4.14217357e-03, 2.19368539e-03,
          -1.08813192e-03, -8.03839648e-04, -3.10131349e-03,
          2.09761132e-03, 9.29454458e-04, -2.49626860e-03,
          7.26003898e-04, 1.18740171e-03, 1.13403925e-03,
          -3.32871615e-03, -1.72559323e-03, -3.83205432e-03,
          -2.65758368e-03, -3.08521860e-03, -1.40353176e-03,
          8.59885360e-04, 1.31887384e-03, 4.17855859e-04,
          -1.90969242e-03, -2.92872591e-03, -2.59052846e-03,
          -2.72203144e-03, -3.18601262e-03, -2.58580293e-03,
          -6.77350501e-04, 8.01257731e-04, -1.94631837e-04,
          -6.32640440e-04, -1.76506059e-03, -2.74857180e-03,
          5.87307790e-04, 1.32299354e-03, -2.11396557e-03,
          4.10526642e-04, -4.77607246e-04, 1.30486826e-03,
          -1.45060988e-03, -2.11409782e-03, -7.43918878e-04,
          2.02706680e-04, 7.54062145e-04, -1.82179105e-03,
          5.03932417e-04, -3.98845994e-04, 2.96923425e-03,
          4.19960776e-03, 6.43919513e-04, -3.37075605e-03,
          -1.39287941e-03, 3.39031266e-03, 4.17517265e-03,
          3.12961987e-03, 1.02631748e-03, -1.50830066e-03,
          -2.11303961e-03, -2.36722408e-03, -2.23728782e-03,
          -1.41524046e-03, -1.15473359e-03, -1.18867715e-03,
          -6.57850935e-04, 1.36646477e-03, -1.25531945e-03,
          -2.00838642e-03, -2.34792847e-03, -2.15073721e-03,
          -1.52058096e-03, 1.36728588e-04, 5.88984415e-03,
          3.90902674e-03, 8.33238882e-04, -1.79316686e-03,
          -1.95768010e-03, -1.08412642e-03, -1.42217369e-03,
          -2.29000393e-03, -1.72611757e-03, -3.93131748e-04,
          -2.03560665e-03, 1.26658333e-03, -2.42671859e-03,
          -1.14319706e-03, -1.23987009e-03, -1.73131283e-03,
          -1.22211315e-03, -4.54070891e-04, 4.61900461e-04,
          6.23832166e-04, 2.05076043e-03, 8.56805636e-05,
          -2.78960611e-03, -2.50659813e-03, -2.38710153e-03,
          -1.10209046e-03, 2.97589507e-03, 3.70599655e-03,
          2.68619100e-04, -2.80330144e-03, -3.77384061e-03,
          -4.09184722e-03, -2.86429236e-03, -2.14689737e-03,
          -2.26775091e-03, -2.14086263e-03, -5.06419165e-05,
          6.60779420e-04, 3.28208786e-03, 9.93488939e-04,
          -5.44043069e-05, -9.98060917e-04, -2.63497932e-03,
          -2.35976977e-03, 5.63823036e-04, 1.39603205e-03,
          9.34818672e-05, -7.17288465e-04, -9.30100505e-04,
          -1.70070003e-03, -2.17825919e-03, -1.12688472e-03,
          -9.09946757e-05, 3.18777445e-03, 4.68977029e-03,
          1.27281866e-03, -3.30556836e-03, -2.77412473e-03,
          -3.07869026e-03, -2.02369993e-03, -1.64921221e-03,
          2.63011752e-04, 1.69640931e-04, 2.43740296e-03, 2.16250919e-04,
          -3.24525102e-03, -1.64530147e-03, -2.66699563e-03,
          -2.10977322e-03, -1.62055704e-03, -9.20872146e-04,
          9.43636187e-05, 2.45500647e-04, -8.94749770e-04,
          -1.28109753e-03, -1.75044499e-03, -2.28935876e-03,
          -1.41740358e-03, -1.36506092e-03, 1.22425790e-05,
          2.83072633e-03, 2.38987594e-03, 3.00735678e-03,
          -2.93288706e-03, -3.41020804e-03, -3.77622689e-03,
          -1.98288076e-03, -1.00151997e-03, -9.59347351e-04,
          7.70088169e-04, 4.48347157e-04, -4.29432606e-03,
          -3.34476749e-03, -1.89346238e-03, -2.11837911e-03,
          -1.90501660e-03, 2.57020164e-03, 9.89387161e-04,
          3.94064438e-04, -1.37983565e-03, -3.74789094e-03,
          -3.28210206e-03, -2.32462701e-03, -1.91415264e-03,
          -1.90039421e-03, -1.21863093e-03, -2.75744533e-04,
          5.39125409e-03, 3.56214726e-03, -7.61217321e-04,
          -2.38450477e-03, -2.77753267e-03, -2.98906351e-03,
          -1.88290305e-03, 1.54351909e-03, 2.50933482e-03,
          5.26113389e-03, 4.08554962e-03, 2.42518145e-03,
          -5.80401102e-04, -1.71402947e-03, -3.04806465e-03,
          -1.96692860e-03, 1.20009971e-03, 8.68807489e-04,
          1.85908854e-03, -5.46020921e-04, -3.32536083e-03,
          -2.89203296e-03, -2.58910353e-03, -1.38529390e-03,
          -1.87920022e-03, -1.01933489e-03, -7.43320270e-04,
          4.07445384e-03, 1.89902482e-03, -3.75280227e-03,
          -4.40790085e-03, -2.97850557e-03, -1.22496812e-03,
          -9.90431756e-04, 2.26937421e-03, 2.89748912e-03,
          3.30973463e-03, 3.18445102e-03, 2.41735764e-03,
          -2.10455642e-03, -1.44717842e-03, -1.57616311e-03,
          -2.03865184e-03, 2.03385972e-03, 2.30689766e-03,
          3.59642599e-03, 1.85367290e-03, -9.82580939e-04,
          -3.66466981e-03, -1.53156277e-03, 2.49348115e-04,
          8.86243826e-04, 6.24098000e-04, -1.36998144e-03,
          -6.95714087e-04, -2.48847366e-03, -4.80210641e-03,
          -3.40791908e-03, -1.22917118e-03, 7.03958562e-04,
          2.07315362e-03, 3.09940369e-05, -2.65016546e-03,
          -3.50217009e-03, -3.16498592e-03, -3.14524607e-03,
          -1.43090569e-04, 3.90580087e-03, 3.72347655e-03,
          2.26937188e-03, 2.57512857e-03, 3.04156868e-03, 1.00421568e-03,
          4.26343613e-04, -7.25727819e-04, -8.73998855e-04,
          1.19478915e-04, 1.16467231e-03, 2.09036376e-03,
          -3.07832415e-05, -2.17632274e-03, -1.34879281e-03,
          -7.08876003e-04, 2.96175852e-03, 2.09797104e-03,
          1.01747829e-03, 1.29939592e-03, 4.10166249e-04,
          -1.62621588e-03, -2.93276855e-03, -1.98992388e-03,
          -1.46943773e-03, -1.38581311e-03, 1.66125072e-03,
          7.18792528e-03, 3.27161443e-03, 1.78567192e-03,
          -2.78247916e-03, -3.13255540e-03, -2.24034092e-03,
          -2.84303655e-03, -2.45307526e-03, -1.25068484e-03,
          4.86271316e-03, 1.87805772e-03, 1.44966517e-03, 4.80692717e-04,
          -2.34069279e-03, -1.32650905e-03, -1.45370699e-03,
          1.89353863e-03, 3.18728678e-04, 3.12712835e-03, 1.33594358e-03,
          -1.60637850e-04, -5.52551763e-04, -2.22672289e-03,
          -2.52044294e-03, -3.52344988e-03, -1.51216716e-03,
          -1.45282515e-03, 1.80849398e-03, -6.70217152e-04,
          -9.86852800e-04, -1.71193678e-03, -2.07402627e-03,
          -2.09834706e-03, -3.74531467e-03, -3.54528241e-03,
          -1.28113758e-03, 7.28397048e-04, 4.59402101e-03,
          2.97993422e-03, -1.22491200e-03, -8.22714355e-04,
          -1.25686033e-03, -4.00084537e-03, -1.95209880e-03,
          -1.22187997e-03, 6.58652466e-03, 5.34668239e-03,
          1.82107685e-03, -8.40592955e-04, -2.04763352e-03,
          -3.38850496e-03, -4.59645316e-03, -2.59110820e-03,
          -2.75756553e-04, 1.42548583e-03, 1.12727063e-03,
          -4.66835394e-04, -3.93898285e-04, -3.25949397e-04,
          -2.50675739e-03, -4.84027993e-03, -2.21246597e-03,
          -1.47366384e-03, 4.97825537e-03, 3.57566751e-03,
          -2.20354541e-05, -1.39063364e-03, -5.38032094e-04,
          -9.63915663e-04, -3.71125876e-03, -4.62867739e-03,
          -2.15313095e-03, 5.02905808e-03, 3.82521050e-03,
          -5.15884138e-04, 8.78613850e-04, 3.03054298e-03,
          1.04223413e-03, -3.33677715e-04, -1.03273243e-03,
          -1.40003569e-04, 2.80349469e-03, 1.89083361e-03,
          1.82441308e-03, -1.22102047e-03, -1.66450709e-03,
          -1.90877286e-03, -2.95838085e-03, -4.14239662e-03,
          -1.43256306e-03, 3.07531445e-03, 2.30107992e-03,
          -9.71825328e-04, 9.44970408e-04, 3.06649890e-04,
          -2.07191962e-03, -3.12366430e-03, -4.71401121e-03,
          -1.91243715e-03, 1.84011261e-03, 1.89138448e-03,
          9.79337841e-04, 3.17362865e-04, 2.46233819e-03, 1.65013620e-03,
          8.22861795e-04, -3.75099298e-05, 9.19259852e-04,
          1.69505796e-03, 9.89357475e-04, 1.50730484e-03,
          -1.50868215e-03, 1.31965196e-03, 1.82102236e-03,
          3.45183443e-03, -1.02074957e-03, -1.28649059e-03,
          -9.89106949e-04, -2.09341082e-03, -5.76391292e-04,
          -3.30360286e-04, 3.30027862e-04, 8.48472526e-04,
          -8.28738266e-04, -4.36379435e-03, -3.66959977e-03,
          -1.52672036e-03, -3.24870962e-05, 1.36608665e-03,
          1.99567890e-04, 3.96033829e-05, 6.37595949e-04,
          -2.86712428e-04, -4.92101163e-03, -2.28199805e-03,
          -1.56252668e-03, -4.92146413e-04, 2.89998134e-03,
          -1.09842629e-03, -7.43903045e-04, 4.37171711e-03,
          3.41717480e-03, -2.37821299e-03, 3.60813458e-04,
          -4.75303423e-05, -1.45710038e-03, -1.08620781e-03,
          -2.16783071e-03, -2.43760180e-03, 1.67355151e-03,
          1.32273883e-04, -3.54984746e-04, 2.67863320e-03,
          1.86452572e-03, -6.90118002e-04, -2.20577582e-03,
          7.53216504e-04, 3.60392150e-04, 1.01460225e-03,
          -1.40507735e-04, -4.83266218e-03, -1.40349392e-03,
          6.53414638e-04, 1.02528161e-03, 2.89952499e-03,
          -1.70342636e-03, -2.61390069e-03, -9.43160208e-04,
          -8.63427646e-04, -5.23173483e-04, 2.09018821e-03,
          2.08508293e-03, 2.91967462e-03, -2.42287919e-04,
          -3.36318975e-03, -3.94494552e-03, -1.58037350e-03,
          4.23580117e-04, 1.25555642e-04, 2.88442848e-03, 6.82073471e-04,
          -1.29283220e-03, -3.47977527e-03, -4.63289162e-03,
          -3.88556905e-03, -2.01413617e-03, 2.87687290e-03,
          2.48338957e-03, 5.98180981e-04, -1.39846525e-03,
          -2.37603346e-03, -4.52710642e-03, -2.89403787e-03,
          -4.63041477e-03, -1.03149039e-03, 3.11019155e-03,
          4.87448182e-03, 1.34160148e-03, -2.27364162e-05,
          -1.21777155e-03, -3.00174928e-03, -5.38025377e-03,
          -4.28298861e-03, 2.40536647e-05, 5.00109512e-03,
          3.43633792e-03, 7.31517270e-04, -3.09185288e-03,
          -4.07496607e-03, -5.37804840e-03, -3.41266068e-03,
          -1.90795364e-03, 4.04710765e-04, 4.80271643e-03,
          6.40050974e-03, 5.45802386e-03, 5.72983699e-04,
          -2.57386244e-03, -3.60589358e-03, -3.48245143e-03,
          -3.38517013e-03, -4.18926403e-03, -4.91260132e-03,
          1.02395576e-03, -4.73788154e-04, -7.37214519e-04,
          -2.53738137e-03, -3.03826341e-03, -3.67619353e-03,
          -2.02156650e-03, 1.81245105e-03, 7.41604390e-03,
          5.46857808e-03, 2.42165546e-03, -8.36817606e-04,
          -2.87018018e-03, -4.01385082e-03, -4.03526518e-03,
          -4.02857782e-03, -4.87661129e-03, -9.00559768e-04,
          7.53176646e-05, -2.18138774e-03, -1.66166620e-03,
          -2.72000139e-03, -3.67744523e-03, -1.16283447e-03,
          -1.10160979e-03, -2.50745821e-03, -3.13321943e-03,
          6.49336958e-04, 2.67480616e-03, 2.69474741e-03, 1.22359575e-04,
          -6.27018395e-04, -1.96488155e-03, -2.09694100e-03,
          -1.75385328e-03, -1.62549200e-04, 5.10220975e-03,
          1.36634801e-03, 6.14657911e-05, -2.17788131e-03,
          -1.96423312e-03, -9.42489365e-04, -2.43211817e-03,
          -2.70898128e-03, -2.06700130e-03, 7.80006580e-04,
          2.94837588e-03, 1.33129582e-03, 6.66800770e-04,
          -1.12040096e-03, -1.61060016e-03, -4.31539305e-03,
          -2.53889291e-03, 2.19438970e-03, 5.77584561e-03,
          2.39842595e-03, -1.97197008e-03, -1.32462196e-03,
          -1.71294820e-03, -3.07473377e-03, -3.53307510e-03,
          -1.66308542e-03, 3.33151656e-05, 1.90242112e-03,
          4.67771228e-04, -5.49234624e-04, -1.83938979e-03,
          -2.61819595e-03, -1.61384372e-03, -2.51976284e-03,
          -4.85846540e-04, -1.17959664e-03, 9.50932736e-04,
          -1.60839016e-04, 1.05406053e-03, 4.89301863e-04,
          -1.55459659e-03, -2.77718413e-03, -3.36254062e-03,
          -1.93940868e-04, 4.13934700e-03, 3.86151485e-03,
          1.76105415e-03, -1.46263302e-03, -2.03840062e-03,
          -3.60219670e-03, 7.75959750e-04, -1.90068153e-03,
          3.49500129e-04, 5.83879824e-04, 1.07704161e-03, 8.79271713e-04,
          2.42083310e-03, 1.75334350e-03, -4.86614765e-04,
          -1.72056176e-03, -2.15006829e-03, -7.26444705e-04,
          6.12252485e-03, 3.99148697e-03, 2.43846024e-03,
          -1.10662100e-03, -9.32960480e-04, -5.94397890e-04,
          -8.80891574e-04, -2.56604189e-03, -3.74917826e-03,
          -1.64308678e-03, -2.22791266e-03, 3.28056951e-04,
          -1.93557621e-03, 3.81361868e-04, -5.92216056e-05,
          -2.69609550e-03, -3.02887638e-03, -3.78403836e-03,
          -1.32456538e-03, 3.85167426e-03, 5.69582731e-03,
          3.20210541e-03, 4.92672669e-04, -1.05865474e-03,
          -1.08671654e-03, -1.32298330e-03, -4.17749817e-03,
          -3.20503931e-03, -3.08831315e-03, 1.46199809e-03,
          7.08581822e-04, 4.78254573e-04, -5.19036083e-04,
          -1.71729014e-03, -2.21996638e-03, -3.16481874e-03,
          -5.77664818e-04, -6.13233497e-05, 1.92050380e-03,
          1.55871804e-03, 1.04098278e-03, 6.72660099e-05,
          -2.68843467e-03, -3.55387945e-03, -2.26955116e-03,
          -5.03956457e-04, -7.25555350e-04, 2.13791360e-03,
          2.63151876e-03, 9.68990033e-04, -1.30977423e-03,
          -1.56799576e-03, -1.88151037e-03, -3.45438952e-03,
          -1.09918870e-03, -2.42569158e-03, 3.86056461e-04,
          1.36572763e-03, 1.48980645e-03, -1.15324256e-04,
          -2.83202319e-03, -4.42572078e-03, -2.94781895e-03,
          -1.62569410e-03, -2.98595545e-03, 2.00120453e-03,
          3.66453663e-03, 3.47509631e-03, 1.39613650e-04,
          -2.38587172e-03, -3.10449838e-03, -2.98608909e-03,
          -1.15758774e-03, -2.33155442e-03, -8.44939612e-04,
          -2.09371516e-04, -1.36697362e-03, -1.27002678e-03,
          -1.86730211e-03, -2.09129881e-03, -1.20064302e-04,
          2.03750608e-03, -6.87054300e-04, -1.89324992e-03,
          -2.99188006e-03, -2.88954307e-03, -8.93411285e-04,
          -1.36384345e-03, -4.00594203e-03, -3.23800370e-03,
          -4.10296256e-04, -1.76202273e-03, 9.89231048e-04,
          3.32194660e-03, 3.08559299e-03, 1.64900429e-03,
          -2.87610269e-03, -4.66874288e-03, -5.31850441e-04,
          6.07350376e-03, 3.98473162e-03, -1.80005725e-03,
          -1.37506926e-04, -9.14826349e-04, -3.05437105e-04,
          -1.96377328e-03, -1.83591107e-03, 1.27063249e-03,
          3.78457713e-03, -2.22619204e-03, -2.95743416e-03,
          -2.73461198e-03, -2.67730141e-03, -2.06732564e-03,
          -1.09063520e-03, -1.33620005e-03, 1.59155822e-03,
          5.26030036e-03, 2.06169789e-03, -2.63734325e-03,
          -2.51157413e-04, -2.43412564e-03, -2.43683439e-03,
          -3.12217115e-03, -3.51240626e-03, -3.67841421e-05,
          6.18665153e-03, 2.44177482e-03, -3.28797917e-03,
          -3.72568821e-03, -3.22044617e-03, -2.87238136e-03,
          -2.14459444e-03, -4.10121353e-03, -2.96636514e-04,
          2.05391133e-03, 1.60828140e-03, -2.52442621e-03,
