%YAML:1.0
---
opencv_ml_svm:
   format: 3
   svmType: EPS_SVR
   kernel:
      type: LINEAR
   C: 1.0000000000000000e-02
   p: 1.0000000000000001e-01
   term_criteria: { epsilon:1.0000000000000000e-03, iterations:1000 }
   var_count: 8100
   sv_total: 1
   support_vectors:
      - [ -8.42939189e-04, 8.42183537e-04, 1.93116709e-03,
          1.68091501e-03, -1.01174201e-05, -1.25591282e-03,
          -1.71057694e-03, -1.77976198e-03, -1.92966394e-03,
          -5.73400932e-04, 3.20417079e-04, 3.89438821e-04,
          1.05586078e-03, 9.27072309e-04, 2.69068514e-05,
          -5.21516486e-04, -7.18399882e-04, -1.25788653e-03,
          -7.79190275e-04, 4.55315894e-04, 2.07070517e-03,
          1.98045606e-03, 3.91187350e-04, -5.52971964e-04,
          -5.97248552e-04, -5.41368267e-04, 6.92358517e-05,
          -6.87443069e-04, 6.65880274e-04, 9.62022052e-04,
          1.16519851e-03, 6.66877022e-04, -7.78891845e-04,
          -1.35605631e-03, -1.53101340e-03, -1.51341537e-03,
          -6.10947085e-04, -1.27727468e-03, -1.79466803e-03,
          -7.37437440e-05, 1.31457066e-03, 1.46734470e-03,
          6.22482912e-04, 4.45850485e-04, -5.44871669e-04,
          -3.68238980e-04, -6.97434181e-04, -1.84816972e-03,
          1.22361627e-04, 1.59670308e-03, 2.12818547e-03, 6.93682887e-05,
          1.41764234e-04, -8.80116539e-04, -1.02183211e-03,
          -1.11392001e-04, -4.32535278e-04, 6.97306299e-04,
          1.63224840e-03, 5.82896406e-04, -7.20501179e-04,
          -1.30378699e-03, -2.34868121e-03, -1.25861960e-03,
          -9.65635816e-04, -9.90698580e-04, 7.60709168e-04,
          2.70889653e-03, 1.90330576e-03, 2.95532984e-04,
          -2.22039307e-04, -2.12048739e-03, 7.27712977e-05,
          2.73259153e-04, 4.09770641e-04, 1.30092842e-04, 4.12014429e-04,
          1.03682710e-03, -1.58419053e-03, -1.98981958e-03,
          -1.75299786e-03, 8.90034193e-04, 2.06214911e-03,
          1.15639949e-03, -8.00676935e-05, -6.83316539e-05,
          -5.22295071e-04, -2.20602727e-03, -2.81603541e-03,
          -1.23589661e-03, -1.47413858e-03, -1.54432503e-03,
          -1.12905458e-03, 1.12441987e-04, 1.67487015e-03,
          2.44240137e-03, 4.73473512e-04, -5.99111772e-05,
          -4.10073670e-04, -3.45731998e-04, -2.26906865e-04,
          -9.39864200e-04, -9.43729465e-05, -3.80197394e-04,
          2.83374713e-04, -1.02076295e-03, -1.14984973e-03,
          4.43522615e-04, 2.71844026e-03, 2.84271128e-03, 1.07149663e-03,
          -8.40870431e-04, -3.60794482e-04, -1.12406490e-03,
          -1.61075173e-03, -1.84321858e-03, -7.98001711e-04,
          1.36660691e-03, 2.25782744e-03, -6.20167120e-04,
          -1.44486851e-03, -9.05480061e-04, -5.82418870e-04,
          -7.81123817e-04, -1.06680661e-03, -1.44951243e-03,
          -2.86617404e-04, 5.12184692e-04, -5.12650644e-04,
          -3.17013648e-04, -1.06523570e-03, 2.32890146e-04,
          -5.84345777e-04, -1.65749190e-03, -1.62624376e-04,
          -1.59171410e-03, -5.79247077e-04, 7.56492591e-05,
          -3.03997076e-04, -9.40448372e-04, 2.13328880e-04,
          -6.79856807e-04, -1.73266127e-03, -1.90631766e-03,
          1.63924543e-03, 1.50806305e-03, -9.10989416e-04,
          -1.68922532e-03, -1.23899430e-03, -4.37043229e-04,
          -2.52452097e-04, -6.55153475e-04, -7.86496676e-04,
          1.16658641e-03, 3.84809071e-04, -1.33540377e-03,
          -1.82935537e-03, -1.57202547e-03, -9.44921048e-04,
          -1.00354571e-03, -1.52934820e-03, -1.19395067e-04,
          -6.69748057e-04, 2.99222098e-04, 1.14931772e-03,
          6.86258645e-05, -2.52724567e-04, 4.71477309e-04,
          1.36280069e-04, -7.97315210e-04, -9.12235875e-04,
          -1.02368405e-03, -8.33003898e-04, -2.00610491e-04,
          -1.09513639e-03, -8.67794442e-04, -7.12117035e-05,
          5.31514583e-04, -3.00172745e-04, -3.11304757e-04,
          3.44451913e-03, 2.14783289e-03, 7.25030608e-04,
          -2.74397433e-04, -5.54823258e-04, -2.01408542e-03,
          -2.45667505e-03, -1.75460184e-03, 1.96353695e-03,
          3.05043487e-03, 1.00825832e-03, 1.24862869e-04,
          -8.04521143e-04, -2.59749964e-03, -3.02616321e-03,
          -3.80175840e-03, -2.64328043e-03, 1.98787334e-03,
          1.04290375e-04, -3.43791267e-04, 5.21086564e-04,
          4.82769356e-05, 1.32651176e-05, 9.94910297e-05, 5.28047327e-04,
          5.02105744e-04, 6.64414023e-04, -1.04484483e-04,
          -7.34518864e-04, -4.91748680e-04, -5.68528601e-04,
          -1.92479463e-03, -9.17020312e-04, -1.17577717e-03,
          -9.15052660e-04, 3.12058866e-04, 3.64586641e-03,
          1.08111196e-03, 9.61593978e-05, -3.31670919e-04,
          -1.98696484e-03, -3.02012311e-03, -4.01290879e-03,
          -1.65304972e-03, 1.96675630e-03, 4.57241898e-03,
          1.72764261e-03, 2.28227364e-04, -3.33953270e-04,
          -1.68895302e-03, -4.00022231e-03, -3.94704612e-03,
          -1.96269038e-03, 2.56194966e-03, 9.07049543e-05,
          3.60267804e-05, 2.67270283e-04, 2.22361414e-04,
          -9.12680232e-04, -6.19058090e-04, -1.29700487e-03,
          -6.83865976e-04, -5.17054323e-05, 1.38373952e-03,
          1.54928816e-03, 2.08776933e-03, 6.68093911e-04,
          -4.83933807e-04, -2.54703802e-03, -3.66310636e-03,
          -2.20726477e-03, -5.90149837e-04, 4.90341010e-03,
          1.88855513e-03, 9.01648164e-05, -6.57222234e-04,
          -1.32306165e-03, -2.72941473e-03, -3.13465460e-03,
          -5.90660376e-04, 3.46089643e-03, 4.44857404e-03,
          9.27381217e-04, -1.15771324e-03, -1.97486230e-03,
          -3.77396145e-03, -3.12575279e-03, -3.01546487e-03,
          -6.46552769e-04, 3.31702363e-03, 2.21387157e-03,
          2.00833264e-03, 1.51279010e-03, 1.73021603e-04,
          -8.74529185e-04, -2.23915814e-03, -3.37543432e-03,
          -1.52566680e-03, 5.85243222e-04, 1.65179244e-03,
          1.03484758e-03, -2.83281173e-04, -1.15922047e-03,
          -1.78001169e-03, -2.65025767e-03, -3.31756100e-03,
          -1.83831167e-03, 3.88433342e-04, 3.06970347e-03,
          -5.18115179e-04, -1.17291545e-03, -1.19643367e-03,
          -2.06930283e-03, -1.60819734e-03, -2.15386436e-03,
          1.80150324e-03, 4.23238054e-03, 3.40628671e-04,
          -1.38826482e-03, -1.32864073e-03, -1.57158077e-03,
          -3.01295123e-03, -2.03030836e-03, -1.01093517e-03,
          2.87089753e-03, 3.05144908e-03, 7.08102132e-04,
          -4.55618312e-04, -5.88378811e-04, -9.94664268e-04,
          -1.16681808e-03, -1.10817759e-03, -1.75858254e-03,
          -1.47293074e-04, 1.09437562e-03, -5.92474418e-04,
          -1.03379716e-03, -1.42442482e-03, -1.30047603e-03,
          -2.19435454e-03, -1.47531147e-03, 1.60651034e-04,
          9.17087949e-04, 1.33943558e-03, -5.88617171e-04,
          -1.63460546e-03, -1.55155966e-03, -1.51626579e-03,
          -2.63519515e-03, -2.07154406e-03, -1.49808664e-04,
          2.08448456e-03, 2.64614262e-03, 1.17274921e-03,
          -2.13217922e-04, -7.88543315e-04, -1.58651883e-03,
          -3.07387090e-03, -7.31169130e-04, 1.71153131e-03,
          3.41294962e-03, 3.83249507e-03, -9.85643361e-04,
          -1.45198568e-03, -1.58424198e-03, -1.36445963e-03,
          -1.99344335e-03, -1.55194919e-03, 1.95427638e-05,
          2.77430925e-04, 4.12845548e-04, -7.80170158e-05,
          -8.51153512e-04, -6.54913427e-04, -2.38095294e-03,
          -2.48586177e-03, -1.33383946e-04, 2.15047784e-03,
          2.44247238e-03, 1.54030195e-03, 1.78967544e-03, 6.67922315e-04,
          -4.89392951e-05, -1.52971584e-03, -3.14782048e-03,
          -8.50135286e-04, 2.99690961e-04, 1.89728080e-03,
          3.48606822e-03, 2.04700651e-03, 5.97047387e-04,
          -2.87964300e-04, -2.42874143e-03, -2.96991062e-03,
          -1.31391815e-03, 4.12797730e-04, 1.80364551e-03,
          3.43152508e-03, 1.14812115e-04, -1.77547427e-05,
          1.16468844e-04, -2.44551082e-03, -2.91987299e-03,
          -4.08769061e-04, 6.63844636e-04, 2.00532307e-03,
          1.89723540e-03, 6.24841079e-04, 2.06502955e-04,
          -2.18743062e-05, -1.79881020e-03, -3.36719840e-03,
          -1.38233171e-03, -3.64070438e-04, 1.63976871e-03,
          2.34865234e-03, 1.29606691e-03, -4.88051301e-04,
          -9.93914786e-04, -2.60755420e-03, -2.29640352e-03,
          -8.97827034e-04, 4.58716269e-04, 1.63362967e-03,
          2.47936114e-03, 1.18367549e-03, -6.66988199e-04,
          -1.91502462e-04, -9.40123340e-04, -1.21267186e-03,
          -1.34691643e-03, 9.78168217e-04, 3.39418044e-03,
          3.33676301e-03, -1.64009762e-04, -5.49699878e-04,
          -1.08092965e-03, -2.21988768e-03, -2.90560140e-03,
          -1.36859412e-03, -4.99393442e-04, 1.02811249e-03,
          1.03902165e-03, -3.37223843e-04, -9.75633797e-04,
          -1.73207663e-03, -2.13911035e-03, -2.28693103e-03,
          -1.81356096e-03, 5.99052000e-04, 2.27008085e-03,
          1.09350390e-03, -5.12362982e-04, -7.16162845e-04,
          -9.35074291e-04, -1.63420639e-03, -1.98104908e-03,
          -1.64918031e-03, 1.33794569e-03, 3.64678120e-03,
          2.14343215e-03, 2.07761448e-04, 5.70599113e-05,
          -7.85295444e-04, -2.58359872e-03, -1.86482351e-03,
          -1.41831709e-03, 2.58536963e-03, 3.44071840e-03,
          1.94097799e-03, -5.72593301e-04, -1.37857033e-03,
          -1.91267813e-03, -2.21885252e-03, -2.20345473e-03,
          -1.68318406e-03, -6.68462089e-05, 1.53725524e-03,
          4.43518162e-04, -6.24812616e-04, -2.02348130e-03,
          -2.46490724e-03, -2.30092299e-03, -1.85516744e-03,
          -1.82856398e-03, 1.34012173e-03, 3.23830987e-03,
          9.32570023e-04, -2.24440315e-04, -2.62240501e-04,
          -8.33884056e-04, -1.51189289e-03, -1.94233051e-03,
          -1.45886617e-03, 1.16555835e-03, 1.95207063e-03,
          7.45642814e-04, 9.72789247e-04, 2.60879780e-04,
          -5.13232197e-04, 9.86857995e-05, -1.03110645e-03,
          -1.44101074e-03, 1.27872929e-03, 1.16132002e-03,
          1.23482547e-03, -7.32243469e-04, -1.70060620e-03,
          -1.56819052e-03, -1.44959392e-03, -1.47144031e-03,
          -1.33778632e-03, 1.36394752e-03, 2.23349337e-03,
          4.00872465e-04, 1.74013010e-04, -1.16474996e-03,
          -1.51559804e-03, -1.29332079e-03, -1.76017534e-03,
          -7.99161440e-04, 1.88635685e-03, 2.77501484e-03,
          1.92363502e-03, 4.99988208e-04, -2.65591807e-04,
          -7.73428183e-04, -2.09827427e-04, -1.96328806e-03,
          -1.45239767e-03, 8.98635481e-04, 1.16476917e-03,
          9.17777012e-04, 1.29446009e-04, -2.03856209e-04,
          -5.89079922e-04, -9.85119492e-04, -1.31024036e-03,
          -8.29583150e-04, 1.14186027e-03, 2.59615504e-03,
          1.85626408e-03, 4.50926105e-04, -1.40826369e-03,
          -2.12235912e-03, -1.42180454e-03, -2.33067595e-03,
          -1.60285109e-03, 9.90015571e-04, 2.97881756e-03,
          1.85469049e-03, 1.57512107e-03, -6.24503067e-04,
          -1.71546289e-03, -1.57186994e-03, -2.06476287e-03,
          -1.23080937e-03, 1.48907211e-03, 3.13555915e-03,
          2.28056055e-03, -3.77326156e-04, 1.28028984e-03,
          1.62845012e-03, 1.26225315e-03, -2.01092607e-05,
          -9.05663415e-04, -7.72441505e-04, -4.32330853e-04,
          2.12022656e-04, -1.40777708e-03, 1.85701265e-05,
          7.06370280e-04, 1.39149430e-03, 3.61078448e-04,
          -6.18190970e-04, -1.07358478e-03, -1.59130769e-03,
          -1.63333467e-03, -3.21277243e-04, 1.28191500e-03,
          1.06197526e-03, 8.62503482e-04, 2.12950545e-04,
          -4.41923999e-04, -4.57551243e-04, -6.68977387e-04,
          -4.08895692e-04, 2.04350916e-04, -4.60754090e-05,
          2.68636009e-04, 7.96305132e-04, -6.76019772e-05,
          -2.62144691e-04, -3.25820001e-04, -3.32341180e-04,
          -2.58344255e-04, -1.49413664e-03, 9.62118138e-05,
          4.77976719e-04, 1.41022052e-03, 1.62112352e-03, 9.16288933e-04,
          -7.05344020e-04, -1.72581279e-03, -2.70821992e-03,
          -1.76908087e-03, -5.48661163e-04, -1.45642087e-04,
          7.22154335e-04, 2.22410681e-03, 4.67077509e-04,
          -1.27936027e-03, -1.46208343e-03, -2.01675831e-03,
          3.60009348e-04, 2.22258641e-05, 6.58330100e-04, 8.46116629e-04,
          6.32207841e-04, 1.99626258e-04, 1.56229391e-04,
          -3.47356290e-05, 8.85974732e-05, -6.35986333e-04,
          -1.04464544e-03, -3.60109843e-04, 1.60603540e-03,
          1.65196275e-03, 1.33344065e-03, -1.58933151e-04,
          -7.62107724e-04, -7.11361179e-04, -8.70083109e-04,
          -6.34328520e-04, -5.68777265e-04, -2.43335999e-05,
          1.30219909e-03, 8.52501951e-04, -1.17555738e-03,
          -2.88992829e-04, -6.28729118e-04, 1.82822594e-04,
          -5.35513507e-04, -1.09194196e-03, 3.46258836e-04,
          3.09564668e-04, 1.99159142e-03, -7.02050806e-04,
          2.89993593e-04, 9.45784326e-04, -7.87181722e-04,
          -6.47832814e-04, -1.87447906e-04, 1.57764903e-03,
          1.47959357e-03, 5.18796907e-04, -2.34437641e-03,
          -1.31987897e-03, -1.76169735e-03, -8.82871798e-04,
          -2.55671097e-04, 4.61889780e-04, 2.08436628e-03,
          1.90498645e-03, 3.58346413e-04, -1.60386215e-03,
          -2.41990224e-03, -1.79208012e-03, -2.64498580e-04,
          -6.75951742e-05, -9.22466934e-05, 6.24419365e-04,
          4.64915967e-04, 1.94037391e-03, 3.01609602e-04,
          -8.32768739e-04, 2.02548530e-04, -1.13724929e-03,
          4.67647304e-04, 1.10173575e-03, 9.78048542e-04, 6.14106248e-04,
          2.56883126e-04, -1.46415550e-03, -2.82300357e-03,
          -2.30609742e-03, -5.10260172e-04, 9.01014602e-04,
          1.67254393e-03, 3.09812394e-03, 2.29082489e-03, 5.77590312e-04,
          -1.36434427e-03, -2.71119457e-03, -1.86066318e-03,
          -1.92362163e-03, 1.29102601e-03, 2.64612422e-03,
          3.30794300e-03, 2.43306719e-03, -4.36513772e-04,
          -3.36109451e-03, -3.71710164e-03, -3.66841094e-03,
          -9.56552394e-05, 1.96656561e-03, 2.95853009e-03,
          2.87117623e-03, 1.89243606e-03, 2.00647730e-04,
          -1.20270648e-03, -2.01253174e-03, -1.49894296e-03,
          -6.46963832e-04, -4.55753470e-04, 4.33549503e-05,
          3.80479236e-04, -1.98466587e-04, -3.89791239e-04,
          5.13724663e-05, -4.96594002e-04, -2.04986296e-04,
          -1.80609606e-03, 1.57978840e-03, 3.12615931e-03,
          3.71277519e-03, 3.02269938e-03, -4.64013923e-04,
          -2.86882953e-03, -3.94863216e-03, -3.80930142e-03,
          -1.91732089e-03, -5.36955195e-04, 5.35056577e-04,
          9.05382505e-04, -5.85100264e-04, -1.73174462e-03,
          -1.63805438e-03, -2.88657541e-03, -2.61595123e-03,
          -1.53754052e-04, -7.27780221e-04, -4.76369052e-04,
          -3.96408024e-04, -4.78679838e-04, 2.11527557e-04,
          5.50847210e-04, 3.83942388e-04, 6.72137598e-04,
          -8.08677432e-05, -1.29731488e-03, -9.85193416e-04,
          -7.03394529e-04, -1.10606244e-03, 9.88785527e-04,
          8.69060241e-05, -7.32170301e-04, 3.52690404e-04,
          -1.25886966e-03, -4.39915639e-05, 1.19883532e-03,
          4.06724372e-04, 8.26168525e-06, 6.50626491e-04,
          -4.17994859e-04, -1.25246949e-03, -1.34006317e-03,
          -1.60040089e-03, -1.09721243e-03, 9.11746407e-04,
          3.76371958e-04, 1.61784654e-03, 3.79826431e-03, 1.68311736e-03,
          -1.11047470e-03, -2.27029552e-03, -3.03197507e-04,
          -5.59302920e-04, -1.60492636e-04, 1.85903438e-04,
          8.98368249e-04, 1.80222711e-03, -5.63615409e-04,
          -1.64459972e-03, -5.81201166e-04, -3.81268590e-04,
          3.37684149e-04, 1.15358375e-03, 8.54027749e-04, 1.04789657e-03,
          -1.08722632e-03, -2.99637532e-03, -2.82497588e-03,
          -1.48574775e-03, -2.32901983e-03, -9.99650802e-04,
          -1.75824651e-04, 6.26685040e-04, 4.14871145e-03,
          4.72387904e-03, 2.16906657e-03, -2.34393845e-03,
          -3.56583833e-03, -3.70247406e-03, -1.33797911e-03,
          -3.33172720e-05, 1.69637555e-03, 3.93570447e-03,
          3.47651122e-03, -1.11573969e-03, -3.51489172e-03,
          -4.19561053e-03, 1.46999955e-03, 1.82863034e-03,
          2.28193938e-03, 1.56829949e-03, 8.27994372e-04,
          -1.39485090e-03, -3.48600559e-03, -1.47471961e-03,
          1.23265386e-03, 1.56177976e-03, 8.14698113e-04, 3.34318720e-05,
          -4.50003863e-04, -8.67390190e-04, -2.14431109e-03,
          -2.55661528e-03, -8.31711513e-04, 2.42448482e-03,
          -1.60445960e-03, 2.24320160e-04, 1.11052429e-03,
          2.37290747e-03, 3.96446465e-03, 1.25362666e-03,
          -9.26586334e-04, -1.14876474e-03, -1.52288855e-03,
          -1.07680704e-03, 4.56363574e-04, 6.75395713e-05,
          9.90109256e-05, 4.60050534e-04, -1.10154820e-03,
          -1.94227882e-03, -5.22988732e-04, -6.00203581e-04,
          1.16835372e-03, 3.29864201e-06, -4.91429877e-04,
          -1.22775102e-03, -1.39814010e-03, -3.42971412e-04,
          -9.59854107e-04, 4.53345623e-04, 2.08967901e-03,
          1.23949476e-05, -1.17411057e-03, -1.05557113e-03,
          -1.91662286e-03, -2.04626611e-03, -4.29688051e-04,
          1.28221780e-03, 1.20912306e-03, 1.48324587e-03, 1.77554510e-04,
          5.01438743e-04, -5.89647098e-04, -1.38821884e-03,
          -1.29809417e-03, -6.89875669e-05, -3.12440941e-04,
          7.60452123e-04, 1.21218595e-03, -6.91774883e-04,
          -1.32103148e-03, -1.66550500e-03, -2.15964206e-03,
          -1.53350271e-03, 5.75071375e-04, 5.23442402e-04,
          2.49794032e-03, 1.10669911e-03, -2.11824547e-03,
          -1.81612000e-03, -7.89138663e-04, -1.30485522e-03,
          -1.83629920e-03, -5.25357842e-04, 1.22532796e-03,
          1.35189388e-03, -1.01783045e-03, -2.12099333e-03,
          -1.01073319e-03, -4.49269573e-04, -2.05814419e-03,
          -1.89723005e-03, 4.50170075e-04, 2.96797534e-03,
          3.88610968e-03, -1.32848814e-04, -3.34112439e-03,
          -2.12074583e-03, -8.95738078e-04, -9.99944052e-04,
          -7.62655633e-04, 9.77937481e-04, 1.13739027e-03,
          2.12898361e-03, -1.19372830e-03, -3.55578633e-03,
          -1.67996273e-03, -3.84744315e-04, -5.72701450e-04,
          -2.71586119e-04, 1.81788974e-03, 3.17778392e-03,
          3.38443392e-03, -5.35278057e-04, -1.89557008e-03,
          -8.88040930e-04, -3.59017344e-04, -2.57189479e-03,
          -2.10087886e-03, -2.22765317e-04, 2.31676199e-03,
          3.87486815e-03, 3.39903840e-04, -1.53279118e-03,
          -4.04527935e-04, -9.57962329e-05, -1.57219486e-03,
          -2.14941963e-03, 2.21848109e-06, 1.22615870e-03,
          2.98212469e-03, 1.71067868e-03, -3.12688644e-03,
          -1.70730706e-03, -4.64898592e-04, -3.82953236e-04,
          -7.44379009e-04, 1.32429402e-03, 2.54249759e-03,
          2.86332937e-03, -3.59313330e-04, -1.45003409e-03,
          -1.54685171e-03, -3.67188215e-04, -2.07634439e-05,
          1.33955895e-04, 1.22885301e-03, 2.06617010e-03, 2.48960801e-03,
          4.27017512e-04, -1.30085985e-03, -5.22976334e-04,
          -6.86203770e-04, -1.64154381e-03, -1.63134316e-03,
          -3.15819256e-04, 2.35539163e-04, 2.06529023e-03,
          1.29812059e-03, -1.01800961e-03, -4.05795814e-04,
          -1.04689808e-03, -1.59912289e-03, -1.57299940e-03,
          -4.31435474e-04, 1.01201213e-03, 3.06740566e-03,
          1.30455964e-03, -1.90288736e-03, -2.24582362e-03,
          -1.00404432e-03, -3.45294393e-04, -2.01041621e-04,
          5.13036619e-04, 1.77533098e-03, 2.35796790e-03, 1.54543523e-04,
          -2.01338553e-03, -2.35061115e-03, -2.15788232e-03,
          -8.77520593e-04, -3.58496472e-04, 2.12703002e-04,
          2.53836135e-03, 4.06570360e-03, 1.15115487e-03,
          -6.81511359e-04, -1.36906165e-03, -1.69127912e-03,
          -1.34769944e-03, -1.17622036e-03, -1.73035267e-04,
          1.54519046e-03, 2.38262047e-03, 1.10085635e-03,
          -1.02649967e-03, -2.20569852e-03, -2.05930206e-03,
          -9.74140188e-04, -4.43408935e-04, 8.41193483e-04,
          2.05089920e-03, 2.95374379e-03, 1.15977437e-03,
          -2.22808262e-03, -2.39137583e-03, -2.14969576e-03,
          -1.02371280e-03, -4.27266845e-04, 9.53018680e-05,
          1.38097990e-03, 2.75022164e-03, 5.81663975e-04,
          -2.44675530e-03, -2.32098298e-03, -2.03162245e-03,
          -6.60625927e-04, -5.03568626e-05, 1.02182885e-03,
          2.91769672e-03, 1.39750389e-03, -4.90045233e-04,
          -1.57071673e-03, -1.90860627e-03, -1.66694645e-03,
          -8.25561932e-04, -8.56986269e-04, -1.32489249e-05,
          2.35163583e-03, 2.70626764e-03, 3.16551101e-04,
          -6.74548501e-04, -1.72296993e-03, -1.47645012e-03,
          -9.42443148e-04, -1.31446286e-03, 1.39627536e-03,
          3.26787867e-03, 4.04426735e-03, 2.13794853e-03,
          -1.97022432e-03, -2.06781761e-03, -1.89894391e-03,
          -5.53251186e-04, -9.61841666e-04, -1.46164835e-04,
          1.23797695e-03, 4.36313218e-04, -1.18115824e-03,
          -1.67166081e-03, -1.35566725e-03, -1.18235720e-03,
          -5.98861312e-04, -1.28679094e-03, 7.31380889e-04,
          2.36921734e-03, 1.06637692e-03, -6.62203063e-04,
          -4.87041747e-04, -1.65396440e-03, -1.87295524e-03,
          -1.66386983e-03, -2.47775763e-03, -5.53931517e-04,
          2.41342583e-03, 2.94846273e-03, 1.23839709e-03, 9.41450242e-04,
          -7.11248664e-04, -1.74065074e-03, -1.44358608e-03,
          -1.85833278e-03, 1.69574880e-04, 2.04803259e-03,
          3.05806869e-03, 1.68265915e-03, -1.55879406e-03,
          -1.20459648e-03, -1.48472399e-03, -1.21390237e-03,
          -2.04615039e-03, -1.22729572e-04, 1.35457667e-03,
          -3.85370950e-04, -1.16393412e-03, -1.07210898e-03,
          -7.66973535e-04, -1.23012776e-03, -1.10027462e-03,
          -9.49593668e-04, 8.46613373e-04, 1.98355434e-03,
          6.08935428e-04, -3.57659650e-04, -1.82816840e-03,
          5.87888411e-04, 6.08837290e-04, 7.35315552e-04, 5.22841292e-04,
          5.19775262e-04, 2.65185867e-04, -2.11263410e-04,
          -6.04148838e-04, 3.34686280e-04, 2.03438860e-04,
          -6.01223437e-05, 9.94631700e-05, 3.41190724e-04,
          8.75199912e-05, -1.20855344e-04, 2.81541463e-04,
          -1.39056137e-04, -2.60824035e-03, -5.89841657e-05,
          8.88080336e-04, 4.35008376e-04, 7.70719082e-04, 7.85077864e-04,
          6.26570545e-04, -1.87174621e-04, -1.20579987e-03,
          -1.53630192e-03, -3.76376760e-04, 2.68799980e-04,
          1.13721390e-03, 1.44754071e-03, 6.40271115e-04,
          -6.74975163e-05, 2.10037651e-05, -1.22342422e-03,
          9.53698618e-05, -7.40711228e-04, -1.08449422e-04,
          2.11188133e-04, 3.21923726e-04, -6.68245120e-05,
          -2.42609851e-04, 2.04043870e-04, -8.73040335e-05,
          -1.16787641e-03, -2.42628250e-03, -6.89667009e-04,
          1.19851425e-03, 1.76080526e-03, 1.61667226e-03, 9.80762052e-05,
          -1.13226677e-04, -6.17710757e-04, -1.92492723e-03,
          -1.42896082e-03, 2.86625989e-04, 1.59077300e-03,
          1.44941488e-03, 3.57681827e-04, -2.08635814e-04,
          -3.00974898e-05, -1.22246752e-03, -2.90134875e-03,
          -2.52944138e-03, 5.85135771e-04, 1.84616272e-03,
          1.67469808e-03, 1.14630582e-03, 3.81533726e-04, 3.28737835e-04,
          -1.30836049e-03, -1.81359309e-03, -2.10719625e-03,
          -2.62186113e-05, 1.95823121e-03, 1.38260564e-03,
          6.48656685e-04, -7.32700108e-04, -6.43769163e-04,
          -1.29005057e-03, -2.32778955e-03, -1.42805243e-03,
          1.07487978e-03, 2.58279941e-03, 1.54415774e-03,
          -1.17841577e-04, -2.46092747e-03, -2.37010513e-03,
          -2.35043466e-03, -2.75623752e-03, -2.37449980e-03,
          1.45236170e-03, 2.72876373e-03, 9.95919574e-04, 4.61661439e-05,
          -2.70900084e-04, -2.27474429e-05, -1.25623913e-03,
          -2.76636146e-03, -2.81073037e-03, 5.65515540e-04,
          1.90439355e-03, 9.51248512e-04, -4.35913767e-04,
          -7.24750163e-04, -5.36949432e-04, -1.43977394e-03,
          -8.06169061e-04, -3.23517597e-05, 2.14782427e-03,
          3.74036329e-03, 2.72856932e-03, -7.70214829e-05,
          -2.13829195e-03, -2.49166088e-03, -1.71708793e-03,
          -1.82458875e-03, -7.77422683e-04, 1.34570978e-03,
          3.55984946e-03, 2.71604932e-03, -9.96843446e-04,
          -3.37156258e-03, -3.60884448e-03, -3.48254107e-03,
          -1.18030037e-03, -1.63276377e-03, -3.84244195e-04,
          2.70479149e-03, 2.88431090e-03, 4.76096611e-04,
          -6.95361057e-04, -7.46069360e-04, -9.36285709e-04,
          -2.03570747e-03, -2.61915848e-03, -1.88344298e-03,
          1.35255838e-03, 2.37466651e-03, -2.73701211e-04,
          -2.59693363e-03, -2.55585532e-03, -2.57527153e-03,
          -2.01596878e-03, -4.51115076e-04, 2.18490534e-03,
          3.54881468e-03, 2.98006809e-03, -2.43368369e-04,
          -1.85356906e-03, -2.51049222e-03, -2.78848130e-03,
          -1.91776012e-03, -3.83950508e-04, 1.63324072e-03,
          1.84785726e-03, 9.02334170e-04, -7.20048032e-04,
          -1.43436575e-03, -1.78156747e-03, -2.47811596e-03,
          -2.39587366e-03, -1.59427291e-03, 9.25312816e-06,
          3.41741880e-03, 2.58416310e-03, 3.24382672e-05,
          -2.27224198e-03, -2.52786605e-03, -2.32951413e-03,
          -1.90091180e-03, -6.24233857e-04, 1.59661809e-03,
          2.79514212e-03, 2.74925027e-03, 3.21121770e-04,
          -1.88188173e-03, -2.30923854e-03, -3.02087818e-03,
          -1.74664310e-03, -7.23089965e-04, 1.22418418e-03,
          1.47686456e-03, 9.14714590e-04, 6.82820464e-05,
          -5.47989039e-04, -1.28722598e-03, -2.32936977e-03,
          -2.54008663e-03, -8.80705076e-04, 1.18067116e-03,
          1.48739573e-03, 2.03735754e-03, 2.82732327e-03, 1.47131097e-03,
          -1.30959041e-03, -3.70054413e-03, -2.22192099e-03,
          -1.20956893e-03, 1.95061765e-03, 3.66521999e-03,
          3.82965850e-03, 6.73914154e-04, -5.07264456e-04,
          -1.64435373e-03, -2.71359063e-03, -2.65873689e-03,
          -1.19014189e-03, 2.04001833e-03, 4.17060498e-03,
          3.90840741e-03, 2.51969649e-03, 2.92248151e-04,
          -1.33187696e-03, -3.47231445e-03, -2.33965646e-03,
          -5.55818668e-04, 8.87613496e-05, 6.92484085e-04,
          2.78858794e-03, 4.24741209e-03, 2.35127076e-03,
          -1.53232412e-03, -3.66262416e-03, -3.18694022e-03,
          -1.17461535e-03, -4.41235781e-04, 3.88345710e-04,
          2.36937357e-03, 3.29124439e-03, 6.16670295e-04,
          -2.90747825e-03, -3.90166510e-03, -1.98234455e-03,
          -1.20545737e-03, -1.64239154e-05, 2.89689400e-03,
          3.78889916e-03, 3.82653670e-03, 1.37502863e-03,
          -1.57288997e-03, -3.43809952e-03, -3.62859131e-03,
          -2.12561991e-03, -1.71289360e-03, 1.60219541e-04,
          3.14545049e-03, 3.86507413e-03, 8.93926830e-04,
          -3.00025987e-03, -3.82968667e-03, -3.06441053e-03,
          -6.43922540e-04, 5.32880076e-05, 1.08004618e-03,
          3.74504342e-03, 3.22337868e-03, 1.67124008e-03,
          -1.23411033e-03, -3.38096381e-03, -1.97516102e-03,
          -5.61730354e-04, -4.31946566e-04, -9.14043176e-06,
          7.46496255e-04, 3.26157111e-04, -2.64906295e-04,
          -1.49121904e-03, -2.13939953e-03, -2.98372330e-03,
          -1.74670469e-03, -1.23466586e-03, 8.58944200e-04,
          4.41919453e-03, 5.57139190e-03, 2.69267801e-03,
          -1.11972203e-03, -3.06324870e-03, -1.74919004e-03,
          -2.21913890e-03, -1.72405224e-03, -5.76182152e-04,
          -4.10777939e-05, 1.07416441e-03, 1.28692470e-03,
          -3.51665047e-04, -1.91358395e-03, -3.43746360e-05,
          3.21203261e-04, -9.67953005e-04, -1.56374788e-03,
          -5.35770028e-04, 4.51388187e-04, 6.99935423e-04,
          1.36531293e-04, 1.62471100e-04, -3.20309249e-04,
          -8.07496894e-04, -1.65376125e-03, -1.75073836e-03,
          -1.03291404e-03, 2.22435425e-04, 1.21242192e-03,
          7.21967197e-04, -1.40091561e-05, 6.47261273e-04,
          -3.91389593e-04, -6.61755272e-04, -2.38616741e-03,
          -2.21974147e-03, 8.77945742e-04, 2.48083379e-03,
          1.86525192e-03, 4.02246602e-04, -6.37796475e-04,
          -2.35471394e-04, 1.27566338e-04, -1.66805310e-03,
          -6.32130308e-04, 6.98220247e-05, 1.50586641e-03,
          8.36238760e-05, -7.80022296e-04, -2.36974843e-03,
          -1.80758722e-03, -8.37833446e-04, -1.33267255e-04,
          6.02013897e-04, 1.23421801e-03, 1.35368982e-03, 1.91971194e-04,
          -1.37288077e-03, -2.64945719e-03, -1.19105133e-03,
          -1.10649751e-04, 5.15446591e-04, 1.48544565e-03,
          2.25942652e-03, 2.08556419e-03, 1.04622997e-03,
          -1.55923853e-03, -2.43222993e-03, -1.21104438e-03,
          1.41640659e-04, 1.23100192e-03, -1.77913695e-04,
          5.31758065e-04, 5.40761044e-04, -1.18529832e-03,
          -2.35946896e-03, -2.45052204e-03, -3.79056088e-04,
          1.33839843e-03, 1.87263102e-03, 1.67242868e-03,
          -3.07228074e-05, -7.69973441e-04, -1.57763658e-03,
          -2.76063941e-03, -1.96215487e-03, -4.30106651e-04,
          1.67920080e-04, 6.14921591e-05, 4.76438610e-04, 7.24105455e-04,
          1.08710374e-03, 7.14381982e-04, -1.52339658e-03,
          -9.89701366e-04, 5.75864578e-06, 6.25781948e-04,
          -2.96190614e-04, 2.80262379e-04, 8.67740833e-04,
          1.54572725e-03, 1.52960338e-03, -6.15772035e-04,
          -1.85772090e-03, 1.16848154e-03, 2.08506593e-03,
          1.16162712e-03, 4.58402850e-04, -1.03854330e-03,
          -1.34947093e-03, -2.17588851e-03, -2.99942959e-03,
          -1.46888942e-03, 6.45290536e-04, 1.89079426e-03,
          1.48938721e-04, 4.31900262e-04, -4.09065076e-04,
          -9.09854833e-04, -1.36819307e-03, -2.35914043e-03,
          -1.43444864e-03, -1.13761448e-03, 5.31963281e-07,
          -6.13565266e-04, -9.75281655e-05, 6.21036685e-04,
          1.62395765e-03, 1.71685370e-03, 6.12903023e-05,
          -2.00342387e-03, -2.37783347e-03, -1.31554005e-03,
          -6.06749265e-04, 1.27754174e-04, 7.91278377e-04,
          2.56523979e-03, 3.55538260e-03, 3.40885163e-04,
          -1.13015878e-03, -4.64024954e-04, 1.21373276e-03,
          -5.14828076e-04, 2.76582927e-04, 2.29596175e-04,
          5.54995146e-04, 3.80940677e-04, -1.18825701e-03,
          -1.10924547e-03, -2.00279336e-03, -4.21092263e-04,
          -5.36515960e-04, 3.59771424e-04, 9.09541268e-04,
          1.94029394e-03, 2.21483223e-03, 1.03499828e-04,
          -2.52374564e-03, -2.39536026e-03, -2.14662356e-03,
          -1.01514929e-03, -2.87932518e-04, 4.85306082e-04,
          2.41150288e-03, 3.18230246e-03, -6.46948465e-05,
          -2.30196933e-03, -2.32610176e-03, -2.15573050e-03,
          -8.48638650e-04, 4.57012102e-05, 9.47606808e-04,
          4.04817332e-03, 2.72678304e-03, -2.82450143e-04,
          -1.63924508e-03, -2.51695467e-03, -9.68715991e-04,
          -8.91395903e-04, -3.76421172e-04, 1.00830267e-03,
          2.19387584e-03, 1.91330083e-03, -3.69211892e-04,
          -2.24688975e-03, -2.72313086e-03, -1.27095846e-03,
          -9.15218727e-04, 7.35042049e-05, 1.66376692e-03,
          3.55584477e-03, 2.10052100e-03, -4.46996855e-04,
          -2.03737570e-03, -2.21217307e-03, -1.55160087e-03,
          -6.93558482e-04, -2.30093734e-04, 9.56118631e-04,
          2.94062844e-03, 1.22882682e-03, -9.08570364e-04,
          -1.60587346e-03, -1.62822043e-03, -1.10534846e-03,
          -7.12030916e-04, 1.78586080e-04, 1.71295181e-03,
          2.94878264e-03, 1.44301460e-03, -9.86692961e-04,
          -3.16404342e-03, -2.95145018e-03, -1.32365059e-03,
          -8.29870289e-04, -4.08078457e-04, 1.29455514e-03,
          3.44467536e-03, 8.81413696e-04, -1.91061699e-03,
          -2.92707933e-03, -1.77860598e-03, -8.27466371e-04,
          -7.96166307e-04, -4.69816587e-04, 1.46168529e-03,
          2.84152804e-03, 1.07051479e-03, -1.39809714e-03,
          -1.38451229e-03, -9.95761016e-04, -1.08781410e-03,
          -7.74279004e-04, -2.50192505e-04, 7.10146560e-04,
          2.06482597e-03, 4.27489314e-04, -1.15995563e-03,
          -1.24061015e-03, -8.80395237e-04, -8.57540290e-04,
          -6.16335077e-04, -3.26721551e-04, 1.91950693e-03,
          2.31144461e-03, 1.22864323e-03, -1.19439512e-03,
          -2.59376317e-03, -1.25341816e-03, -8.26542499e-04,
          -6.32136595e-04, -5.59920096e-04, 5.42487178e-05,
          1.35976309e-03, -8.82170716e-05, -1.87139260e-03,
          -2.22316594e-03, -1.13730424e-03, -6.00050495e-04,
          -4.26458399e-04, -4.97666770e-04, 1.56096439e-03,
          2.01949920e-03, 6.77834498e-04, -2.06980342e-03,
          -6.58176141e-04, 1.60894578e-03, 2.46936362e-03,
          1.70944422e-03, 6.52980816e-04, 4.24289668e-04,
          -1.53842644e-04, -5.11353312e-04, -5.62844216e-04,
          -3.98764503e-04, 1.04172667e-03, 1.95762585e-03,
          1.88958237e-03, 1.21953059e-03, 3.99808981e-04,
          -5.59039938e-04, -5.01337927e-04, -9.14581527e-04,
          -2.09156773e-03, 2.02764454e-03, 3.08587891e-03,
          3.08934716e-03, 2.00233189e-03, 7.55750167e-04,
          -3.39446333e-03, -2.08062073e-03, -1.96828274e-03,
          -2.36763689e-03, 1.46339473e-03, 3.12934793e-03,
          2.78960215e-03, 1.56055356e-03, 2.09387392e-04,
          -2.31879507e-03, -1.84431637e-03, -2.62511638e-03,
          -1.25092804e-03, 3.43308639e-04, 1.36883289e-03,
          1.94362225e-03, 8.67935072e-04, -1.06447987e-05,
          -2.20174188e-04, -5.93307661e-04, -1.30142691e-03,
          -1.57845265e-03, -5.56387386e-05, 1.97006436e-03,
          2.38809502e-03, 9.21542232e-04, 2.48989265e-04, 5.81218279e-04,
          3.27923364e-04, -5.50455647e-04, -2.71043531e-03,
          1.35972304e-03, 2.55640759e-03, 2.05218745e-03,
          -7.84660588e-05, -5.07713819e-04, -1.01579085e-03,
          -1.49759650e-03, -2.67780689e-03, -2.64907256e-03,
          1.20206852e-03, 2.97033810e-03, 2.07342161e-03,
          -6.20212057e-04, -6.32658834e-04, 8.61052904e-05,
          -4.41349024e-04, -2.22737575e-03, -1.92045723e-03,
          -8.77181941e-04, 2.16390123e-03, 2.96650897e-03,
          5.49692952e-04, -3.33204749e-04, -3.24888038e-04,
          -1.63045988e-04, -1.10550271e-03, -2.14456790e-03,
          -2.93343491e-03, 2.41693459e-04, 2.20058346e-03,
          1.81184744e-03, -1.52099325e-04, -6.02510758e-04,
          -4.83183510e-04, -1.38146942e-03, -1.98288821e-03,
          -4.22372017e-04, 2.01928802e-03, 1.58672966e-03,
          -6.25697430e-04, -1.02253549e-03, -7.95350235e-04,
          -9.11853160e-04, -1.91311468e-03, -1.76341063e-03,
          -2.67143804e-03, 8.02004302e-04, 1.10838865e-03,
          1.15993584e-03, 3.71339003e-04, -1.07724220e-03,
          -1.49831339e-03, -2.13672128e-03, -1.50534057e-03,
          -2.56533688e-03, -1.09476608e-03, 2.51441007e-03,
          3.10474006e-03, 3.37449368e-04, -4.04605875e-04,
          -4.76821384e-04, -8.32954422e-04, -2.07146117e-03,
          -3.12248361e-03, -2.19619414e-03, 7.99760048e-04,
          2.26389803e-03, 9.31644390e-05, -1.20641349e-03,
          -1.67674606e-03, -1.42142875e-03, -1.78985274e-03,
          -2.37430120e-03, -3.82988947e-04, 2.21407972e-03,
          3.30226962e-03, 1.93415477e-03, -5.14890358e-04,
          -1.49182347e-03, -1.64615340e-03, -3.14188749e-03,
          -3.81003809e-03, -1.85580307e-03, 3.47651163e-04,
          2.82184733e-03, 1.47823337e-03, -5.03369316e-04,
          -1.73225580e-03, -2.08882079e-03, -1.72529253e-03,
          -2.23113433e-03, -1.00813003e-03, 1.65152608e-03,
          2.19087163e-03, 3.52322910e-04, -1.36364647e-03,
          -2.25901767e-03, -1.50321808e-03, -2.41122674e-03,
          -2.56078900e-03, -1.10900248e-04, 2.40668841e-03,
          2.96348776e-03, 2.04785450e-04, -1.67613535e-03,
          -2.37313821e-03, -2.54912046e-03, -2.22125323e-03,
          -3.22161312e-03, -1.26462523e-03, 9.78061813e-04,
          2.90102279e-03, 1.95181090e-03, -3.52778676e-04,
          -1.25921995e-03, -1.37309008e-03, -1.37118553e-03,
          -2.49299640e-03, -1.09311566e-03, 3.02276085e-03,
          3.20246792e-03, 1.00003241e-03, -3.93040187e-04,
          -6.29856426e-04, -3.31683084e-04, -2.47856835e-03,
          -2.45039258e-03, 9.30295137e-05, 2.94302776e-03,
          2.65208329e-03, -2.41938978e-04, -6.58109959e-04,
          -6.54451142e-04, -1.63351896e-03, -3.05219623e-03,
          -2.22872640e-03, -3.88401706e-04, 3.01473774e-03,
          2.61789607e-03, 3.28355294e-04, -5.34737366e-04,
          -1.06993143e-03, -2.12118728e-03, -8.45676055e-04,
          -2.10734410e-03, -1.24623789e-03, 3.09954793e-03,
          3.35266418e-03, 4.76241374e-04, 3.35526507e-04, 6.42289000e-04,
          2.44069510e-04, -2.38254876e-03, -3.78153520e-03,
          -2.62091868e-03, 4.07015643e-04, 1.07248768e-03,
          2.25973316e-03, 1.31242035e-03, 9.42260667e-04,
          -1.12587724e-04, -1.78526680e-03, -1.96265569e-03,
          -1.21268723e-03, 2.12708372e-03, 3.48576042e-03,
          2.41980213e-03, 6.59835874e-04, -5.20554022e-04,
          -1.51775847e-03, -2.32374412e-03, -3.21797235e-03,
          -2.46163202e-03, -3.53369629e-04, 3.11399740e-03,
          2.61794543e-03, 8.47948741e-06, -1.00092788e-03,
          -2.36690533e-03, -1.74691423e-03, -3.32874525e-03,
          -2.69989623e-03, 7.09996617e-04, 1.74115808e-03,
          3.45886615e-03, 1.92746520e-03, 6.62662438e-04,
          -6.53648342e-04, -1.65021082e-03, -3.21712904e-03,
          -3.27137532e-03, -1.44270947e-03, 1.89233804e-03,
          1.08724157e-03, -1.52088905e-04, -7.62578740e-04,
          -1.82165368e-03, -2.54875654e-03, -3.33352201e-03,
          -3.10206413e-03, 8.23515365e-05, 4.96773701e-03,
          4.64879442e-03, 1.20522175e-03, -1.05777690e-04,
          -2.44463794e-03, -1.36523240e-03, -2.18185317e-03,
          -2.25162040e-03, -5.16360975e-04, -3.00925109e-04,
          1.02561642e-03, 1.24042609e-03, 5.19564550e-04,
          -1.00403919e-03, -9.30698065e-04, -3.42190056e-03,
          -3.35639901e-03, -7.90101534e-04, 3.41753569e-03,
          3.90099245e-03, 1.07395335e-03, 2.21821523e-04,
          -5.48010110e-04, -2.18467088e-04, -1.84250204e-03,
          -1.64926122e-03, -5.31922502e-04, -4.33059002e-04,
          1.00052694e-03, 1.21865759e-03, 3.53241776e-04,
          -3.43179330e-04, 2.27740224e-04, -9.61054393e-05,
          1.36996910e-04, -8.98192695e-04, -2.98869004e-03,
          1.16820342e-03, 1.63078238e-03, 1.17790583e-03,
          -2.27049910e-04, 1.69269057e-04, 5.57333988e-04,
          1.44013611e-03, 1.51936809e-04, -2.19001481e-03,
          1.34893980e-05, 4.08043968e-04, 1.35326598e-04,
          -8.66747141e-05, 4.81685973e-04, 1.03898311e-03,
          1.39714219e-03, 1.69357192e-03, -1.26533862e-03,
          1.69360463e-03, 1.26187701e-03, 3.93049413e-04,
          -1.37995870e-04, 1.20404724e-03, 1.19459629e-03,
          2.99780001e-03, 3.59504414e-03, -8.70508724e-04,
          1.02549908e-03, -1.17320204e-04, -9.41225080e-05,
          9.82364756e-04, -1.19963044e-03, -5.85079892e-04,
          1.13405345e-03, 1.27090386e-03, -2.04868917e-03,
          -3.39784252e-04, -2.34138075e-04, -8.62265937e-04,
          -8.96062527e-04, -1.21734501e-03, 3.75077041e-04,
          1.89883390e-03, 2.23238626e-03, 3.47454625e-04,
          -1.94483437e-03, -2.61894031e-03, -2.36684456e-03,
          -1.69004558e-03, 9.06272558e-04, 7.96237262e-04,
          2.10211100e-03, 1.97108812e-03, -8.64809263e-04,
          -2.10018959e-04, -1.10122818e-03, -8.00792361e-04,
          8.85006972e-04, -1.79812443e-04, 2.04519858e-03,
          3.02832224e-03, 2.44527543e-03, 7.27523991e-04,
          -2.94655270e-04, -3.08268960e-03, -1.82108500e-03,
          -6.74812472e-04, -1.33723277e-03, 1.43141416e-03,
          1.58522162e-03, 1.61478075e-03, -4.24411177e-04,
          -1.72155653e-03, -1.84264989e-03, -2.04400322e-03,
          -1.56692322e-03, -1.61721441e-03, 9.52537986e-04,
          1.34178263e-03, 3.96940828e-04, -1.03802944e-04,
          -5.77840547e-04, -1.33669795e-03, -1.41923316e-03,
          -1.64362881e-03, -5.18342364e-04, 1.58760906e-03,
          1.58961874e-03, 7.56980327e-04, -5.99376857e-04,
          -1.12430833e-03, -2.39352067e-03, -1.25189382e-03,
          -8.49227828e-04, -1.15768611e-03, 2.18667803e-04,
          3.33118332e-05, 8.72450008e-04, 8.03990522e-04,
          -7.12483481e-04, -8.81765212e-04, -5.96098951e-04,
          -1.20289950e-03, -2.03151396e-03, -1.09766156e-03,
          -2.03248797e-04, -9.38818965e-04, -6.00743282e-04,
          -6.24447654e-04, -4.30701126e-04, -9.35513526e-04,
          -1.78917241e-03, -9.62309539e-04, -1.36194134e-03,
          -5.70060802e-04, -6.68093271e-04, -5.54789440e-05,
          7.49537139e-05, 4.45337530e-04, 6.40926708e-04, 6.62649472e-05,
          -1.64675002e-03, -1.13326823e-03, -5.45383606e-04,
          9.88959568e-04, 1.90782116e-03, 2.60097331e-05,
          -5.12085040e-04, -9.88938613e-04, -1.63442781e-03,
          -6.86818676e-04, -3.63230472e-04, 1.57735520e-03,
          3.39063723e-03, 3.65265179e-03, 1.96101400e-03, 1.37155701e-03,
          6.57584285e-04, 7.63938624e-06, -1.78990827e-03,
          -1.38211111e-03, -5.72619843e-04, -7.76655332e-04,
          -9.56296863e-04, 3.70111666e-04, 6.19513157e-04,
          8.23638635e-04, -7.32473971e-04, -2.61793588e-03,
          -2.29108054e-03, -7.03182770e-04, -8.61031353e-04,
          -4.58649069e-04, 6.43997686e-04, 1.65142689e-03,
          -4.12396876e-05, -1.51664647e-03, -4.36725968e-04,
          1.53809073e-04, 1.79131096e-03, 2.55639153e-03, 2.40899343e-03,
          1.70529273e-03, 2.05748342e-03, 8.53956793e-04, 7.48379098e-05,
          -1.11068529e-03, -5.92493743e-04, 3.79065517e-04,
          4.96153953e-04, 2.30096703e-04, 9.31816932e-04, 1.68835255e-03,
          -4.79581155e-04, -1.39288569e-03, -1.99715584e-03,
          -1.97514263e-03, -4.72176383e-04, -4.78937785e-04,
          1.88781240e-04, 1.36548677e-03, 2.87314458e-03, 8.97665392e-04,
          -7.26216997e-04, -2.40098825e-03, -1.42834557e-03,
          -5.82433073e-04, -6.50060771e-04, -2.34012216e-04,
          1.38577272e-03, 3.17982654e-03, 1.71325763e-03,
          -6.11309370e-04, -1.41608436e-03, -7.83849217e-04,
          -1.97573623e-04, -1.04484192e-04, -3.46889195e-04,
          5.16019296e-04, 1.62592134e-03, 1.02913741e-03,
          -4.40487522e-04, -1.49174687e-03, -1.38851441e-03,
          -1.12541683e-03, -1.05984055e-03, -8.10365542e-04,
          4.22237790e-04, 1.56524137e-03, 1.08427939e-03,
          -2.85681512e-04, -1.45351642e-03, -7.68845261e-04,
          -3.87824926e-04, -4.57277318e-04, -2.32822043e-04,
          5.97822422e-04, 1.42098218e-03, 1.24328246e-04,
          -1.83110160e-03, -1.16622983e-03, -7.65495643e-04,
          -3.93964059e-04, -4.04843682e-04, 4.39421528e-05,
          2.09130882e-03, 2.37678178e-03, 9.48910310e-04,
          -1.31808873e-03, -1.26561755e-03, -1.12885307e-03,
          -7.91725179e-04, -7.47069833e-04, -6.16650854e-04,
          -7.06181299e-06, 1.95166984e-04, -2.98011146e-04,
          -1.34004920e-03, -9.35682503e-04, -6.67577784e-04,
          -6.19848142e-04, -7.84802542e-04, -4.80319344e-04,
          3.72080627e-04, 1.44318491e-03, 1.30573590e-03,
          -1.04766490e-03, -2.42008595e-03, 2.09541712e-03,
          3.04143084e-03, 3.31624923e-03, 1.88969716e-03, 1.04521029e-03,
          -3.00508132e-03, -1.51341443e-03, -2.22206837e-03,
          -2.23891623e-03, 1.86390022e-03, 2.99776578e-03,
          2.49046320e-03, 1.65059150e-03, 9.91667504e-04,
          -2.90812855e-03, -2.00167717e-03, -2.62361183e-03,
          -4.49134124e-04, 3.58934840e-03, 3.33009753e-03,
          3.55470343e-03, 2.17042305e-03, 1.25491258e-03,
          -8.54224956e-04, -2.80813780e-04, -1.96021539e-03,
          -1.90232124e-03, 3.05878185e-03, 3.41524300e-03,
          2.80384929e-03, 1.55997730e-03, 1.59049523e-03,
          -2.40558316e-03, -9.71168978e-04, -2.63749226e-03,
          -2.32337252e-03, 2.03563296e-03, 3.16389860e-03,
          1.99187733e-03, 1.33957376e-03, 1.22290035e-03,
          -1.93043402e-03, -1.33510726e-03, -2.81761494e-03,
          -1.39248942e-03, 2.36772629e-03, 3.85860656e-03,
          3.16665019e-03, 1.63418555e-03, 1.23927696e-03,
          -9.47151450e-04, -8.91117146e-04, -2.68615060e-03,
          -1.93758204e-03, 2.48736609e-03, 3.00778006e-03,
          2.14957003e-03, 1.78829243e-03, 2.18442851e-03,
          -2.03541713e-03, -1.40485342e-03, -2.68685864e-03,
          -2.11109780e-03, 2.56921770e-03, 3.85973556e-03,
          3.62874637e-03, 2.12837686e-03, 1.69320963e-03,
          -2.56551546e-03, -2.54889345e-03, -2.98903743e-03,
          -1.02052593e-03, 9.70078981e-04, 3.48350988e-03,
          3.04336357e-03, 9.22957668e-04, 4.20601791e-05,
          -8.66813760e-04, -9.12717136e-04, -1.60471490e-03,
          -4.26975224e-04, -1.41682176e-04, 2.09670956e-03,
          2.54965993e-03, 2.29927595e-03, 1.87531358e-03,
          -2.23589959e-04, -5.97594888e-04, -8.88119917e-04,
          -2.92249094e-03, 1.14372000e-03, 3.70721961e-03,
          3.43946181e-03, 1.14813403e-04, -7.50789361e-04,
          -3.81237851e-03, -3.19691957e-03, -3.51303886e-03,
          -2.25895271e-03, 2.89268035e-04, 1.46273174e-03,
          2.51469994e-03, 1.91887247e-03, 1.25738932e-03,
          -2.26659980e-03, -2.15736264e-03, -2.21862737e-03,
          -8.99452833e-04, -8.69815995e-04, -1.45135389e-04,
          2.24490254e-03, 3.65642551e-03, 3.75566003e-03,
          -8.85836271e-05, -1.13552227e-03, -1.34077074e-03,
          -1.46843947e-03, -1.82407454e-03, -1.75878091e-03,
          -1.14342394e-04, 3.63176665e-03, 2.68426514e-03,
          1.80941686e-04, -9.89886816e-04, -1.42543763e-03,
          -2.47854996e-03, -3.93234252e-04, -7.04878883e-04,
          1.66481652e-03, 3.35259992e-03, 3.17716575e-03,
          -1.32501696e-03, -2.31488026e-03, -2.66910880e-03,
          -1.98404118e-03, -8.12588027e-04, -1.30642543e-03,
          -5.38844797e-05, 3.51671246e-03, 1.84644514e-03,
          -1.57617335e-03, -2.46144086e-03, -3.14845494e-03,
          -1.06698449e-03, -2.10699695e-03, -1.77613751e-03,
          1.79167066e-04, 2.59927404e-03, 1.92007597e-03, 2.88125157e-04,
          -5.88770723e-04, -9.62579215e-04, -9.34852778e-06,
          -1.69626391e-03, -1.36942952e-03, 3.06674954e-03,
          3.41053144e-03, 2.44407472e-03, 6.54196076e-04,
          -4.11757901e-05, 1.56172420e-04, -1.15515408e-03,
          -1.31218671e-03, -2.23723007e-03, -8.56726430e-04,
          1.57777814e-03, 1.06241880e-03, -8.70609190e-04,
          -1.90214848e-03, -2.52952776e-03, -1.08541292e-03,
          -3.28619126e-03, -3.69008142e-03, 3.15099926e-04,
          3.16781225e-03, 2.59742420e-03, 2.27929116e-03, 1.69460778e-03,
          -3.57208803e-04, -1.72122629e-04, -1.69559917e-03,
          -1.89619348e-03, 2.11556768e-03, 3.48852482e-03,
          1.88776630e-03, 4.69636347e-04, 1.68457977e-04, 4.67363803e-04,
          -4.59415925e-04, -3.16180428e-03, -1.98206003e-03,
          5.63641661e-04, 1.71385112e-03, 1.72814471e-03, 1.44784499e-04,
          -2.55037303e-04, 6.52709059e-05, -4.58752183e-04,
          -2.97387270e-03, -3.17760254e-03, 1.10725065e-04,
          3.12594185e-03, 2.69532669e-03, 2.00361852e-03, 9.65801708e-04,
          -1.70365583e-05, -2.81576446e-04, -1.70118560e-03,
          -7.22086756e-04, 6.40929095e-04, 1.63536239e-03,
          1.67368003e-03, 1.44174835e-03, -3.54585500e-04,
          -7.84573320e-04, -4.61619522e-04, -1.82923744e-03,
          -1.09330250e-03, 1.23367133e-03, 1.08405983e-03,
          2.27273325e-03, 1.08773478e-04, -9.67718661e-04,
          -5.28618169e-04, -1.30370504e-03, -2.71246675e-03,
          -2.55173235e-03, -8.78286519e-05, 5.71510813e-04,
          -3.15089739e-04, -3.60444683e-04, -1.14514434e-03,
          -8.73211073e-04, -5.23792805e-05, -5.34516585e-04,
          1.66068121e-03, 2.08775187e-03, 1.83896848e-03, 3.68082226e-04,
          1.89384664e-04, -1.27795327e-03, -1.05151394e-03,
          -1.27025810e-03, -1.30150409e-03, 2.66251183e-04,
          1.79294299e-03, -7.32718327e-04, -1.57582830e-03,
          -7.14619353e-04, -7.87263969e-04, -9.80914803e-04,
          -4.05444822e-04, -1.50756596e-03, -1.21388212e-03,
          3.56015429e-04, 2.50716857e-03, 2.51418067e-04, 2.81116518e-04,
          -1.68595754e-04, -2.68847652e-04, 2.10247235e-04,
          2.17622946e-04, -3.16163758e-04, -6.47187000e-04,
          -1.48981251e-03, -6.29052374e-05, 1.11904368e-03,
          -5.41050758e-05, -4.61481904e-05, 1.18881537e-04,
          5.23858937e-04, 1.91448885e-03, 1.62248802e-03,
          -1.84155651e-04, -2.08665105e-03, -6.42956729e-05,
          1.65462159e-04, 3.05840862e-04, 1.36347910e-04,
          -4.43707586e-06, -2.53135076e-04, -9.45246604e-04,
          -1.72397669e-03, 3.33373289e-04, 1.51788001e-03,
          9.19023354e-04, 1.02456333e-03, -1.83406737e-04,
          2.64890579e-04, 5.58578002e-04, 5.12931612e-04,
          -2.56531988e-03, 1.06472371e-03, 1.19041302e-03,
          -2.09445585e-04, -3.11420532e-04, 1.65682912e-04,
          2.94901605e-04, 1.19136064e-03, 2.09826161e-03,
          -2.28500040e-03, 2.45489558e-04, -1.44495032e-04,
          -3.04864487e-04, 2.36579930e-04, 3.47698282e-04,
          7.42308912e-04, 2.25307464e-04, -7.23468722e-04,
          -2.10049096e-03, 1.74262025e-03, 1.81615318e-03,
          6.34090567e-04, 2.88996933e-04, 4.44024336e-03, 3.98366712e-03,
          1.30382483e-03, 1.23147736e-04, -2.56673782e-03,
          1.32404006e-04, 1.29521638e-03, 1.33025984e-03, 2.74820672e-03,
          2.05717413e-04, 4.17232950e-04, 4.50979307e-04, 1.06294849e-03,
          -8.14538333e-04, -4.36172209e-04, -1.24870241e-03,
          -1.11797464e-03, 1.01112433e-04, -5.97953040e-05,
          1.79306860e-03, 1.75897474e-03, -2.90042575e-04,
          -4.70705243e-04, -1.68567989e-03, -3.31641221e-03,
          -2.69820448e-03, -9.37791599e-04, 4.24128445e-03,
          2.44988734e-03, -3.91997251e-04, -1.68731308e-03,
          -1.63737964e-03, -8.20676447e-04, 6.87031541e-04,
          1.98425329e-03, 3.96154029e-03, 2.05668109e-03, 1.29200076e-03,
          1.11744543e-04, -1.75443129e-03, -2.35842145e-03,
          -1.73069176e-03, -1.76152773e-03, 6.28415204e-04,
          1.79028558e-03, 9.22394393e-05, 1.26962410e-03, 6.87962340e-04,
          -4.54001020e-05, -1.25000166e-04, -1.66545960e-03,
          -2.67984881e-03, -2.25200504e-03, -8.19026900e-04,
          -4.04894119e-04, 9.95182781e-05, -1.35057679e-04,
          2.17010197e-03, 2.67478265e-03, -3.87671549e-04,
          -1.08197040e-03, -1.00129377e-03, -1.55258260e-03,
          8.88557348e-04, 4.67903330e-04, 4.69066908e-05,
          -3.07127979e-04, -5.36975102e-04, -2.00127671e-03,
          -2.29586218e-03, -1.21415860e-03, -3.29747963e-05,
          2.06977653e-04, 8.15729203e-04, 1.81627332e-03, 2.97309179e-03,
          3.07468907e-03, -1.66087731e-04, -1.45987561e-03,
          -1.52665994e-03, -1.42583507e-03, -2.01308122e-03,
          -1.66223641e-03, -1.58391520e-03, -7.10140084e-05,
          9.17911588e-04, -3.40836938e-04, -8.58084881e-04,
          -1.91464089e-03, -2.95342016e-03, -2.05779145e-03,
          -1.44974887e-03, 2.44987255e-04, 3.08522279e-03,
          3.80702643e-03, 2.08967295e-03, 1.08540629e-03,
          -8.44628434e-04, -1.92987721e-03, -1.96751719e-03,
          -8.74073652e-04, -5.60902190e-05, 6.41324208e-04,
          1.41465478e-03, 2.12027531e-04, -1.25437416e-03,
          -2.42276187e-03, -3.01960297e-03, -2.07287236e-03,
          -2.28528355e-04, 6.52427407e-05, 2.99047423e-03,
          3.69857647e-03, 3.53934127e-03, 1.07690541e-03,
          -2.26436742e-03, -3.24124307e-03, -1.72027154e-03,
          -1.25890027e-03, 2.04150143e-04, 1.87385362e-03,
          2.51857098e-03, 2.17213668e-03, 1.56754884e-03,
          -9.05475579e-04, -1.72974193e-03, -2.11647851e-03,
          -1.89915334e-03, -1.01162528e-03, -3.12680757e-04,
          4.99610724e-05, 9.52347531e-04, 6.68089488e-04,
          -1.08677009e-03, -2.01309496e-03, -1.68321445e-03,
          -4.05733095e-04, 1.65315985e-04, 2.13621487e-03,
          2.97753443e-03, 3.22576636e-03, 8.49464326e-04,
          -2.37359665e-03, -2.51422706e-03, -2.20155646e-03,
          -2.30433489e-03, -1.54460478e-03, -8.50248398e-05,
          1.07195426e-03, 1.00350101e-03, -3.22189851e-04,
          -1.19075307e-03, -2.22389610e-03, -1.28584728e-03,
          -6.57274562e-04, -8.05810734e-04, 3.45040171e-05,
          -5.29781799e-04, 1.21638877e-03, 1.88519107e-03,
          1.06829533e-03, -4.80506191e-04, -1.20364537e-03,
          -1.56230060e-03, -2.18790909e-03, -1.76760647e-03,
          -1.78741000e-03, 2.35685802e-04, 1.11425563e-03,
          8.58220446e-04, -2.17671928e-04, -1.68172887e-03,
          -1.46645098e-03, -1.15727959e-03, 2.78609077e-04,
          1.58828543e-03, 2.59420415e-03, 2.74433126e-03, 2.20281561e-03,
          -1.40996941e-04, -1.54764170e-03, -2.11958145e-03,
          -1.97359896e-03, -2.28179456e-03, -1.12790987e-03,
          6.48654997e-04, 8.73562065e-04, 1.28469081e-03,
          -2.91415890e-05, -9.91537236e-04, -1.23496004e-03,
          -1.39202131e-03, -1.28695811e-03, -1.23045966e-03,
          -2.11822262e-04, 5.34120016e-04, 9.17666708e-04,
          -5.07944380e-04, -1.10787991e-03, -9.64227191e-04,
          -8.33329395e-04, -1.11103756e-03, -8.44176800e-04,
          6.03616063e-04, 3.07826092e-03, 2.50456529e-03,
          -2.91606644e-04, -1.45671004e-03, -1.67363370e-03,
          -1.39976258e-03, -1.74908922e-03, -9.77642252e-04,
          2.92173791e-04, 4.02263016e-04, 4.35670692e-04,
          -4.88428865e-04, -1.18212029e-03, -1.48727850e-03,
          -7.59621500e-04, -1.15230179e-03, -5.60739078e-04,
          1.72131066e-03, 2.61711096e-03, 6.75228599e-04,
          -7.50166771e-04, 2.68837011e-05, 2.50266329e-03,
          3.00322287e-03, 3.26026976e-03, 1.72070053e-03, 3.31711373e-04,
          -1.97738083e-03, -1.54235269e-04, -6.39177044e-04,
          -4.61566902e-04, 1.98078156e-03, 2.43216543e-03,
          2.86682509e-03, 1.66115491e-03, 1.67749892e-03, 7.69906110e-05,
          3.27616552e-04, -1.30106811e-03, -9.27202986e-04,
          1.30173191e-03, 2.86905188e-03, 3.12438305e-03,
          -2.84344913e-03, -4.67316294e-03, -5.81847318e-03,
          -3.53131769e-03, -6.92239322e-04, -2.35864973e-05,
          9.61454411e-04, 1.51268009e-03, 3.29809356e-03, 2.89158034e-03,
          2.55069183e-03, 7.78748828e-04, 4.77612659e-04,
          -1.90958730e-04, -2.15952797e-03, 1.41936960e-03,
          1.38120819e-03, 2.15731328e-03, 1.84374582e-03, 2.04992597e-03,
          -1.15365710e-03, -1.01667386e-03, -3.66869895e-03,
          -4.34677768e-03, 1.64673955e-03, 2.98746442e-03,
          3.25746136e-03, 5.42399765e-04, 6.15881509e-05,
          -4.73982003e-03, -4.68311133e-03, -4.96311858e-03,
          3.27804795e-04, 6.78900338e-04, 1.18781684e-03, 3.33701377e-03,
          3.26622999e-03, 2.79262546e-03, 1.62750389e-03, 8.78510589e-04,
          3.34495679e-04, 6.03460183e-04, 1.19726430e-03, 2.68962211e-03,
          3.18298303e-03, 1.84568542e-03, 4.23633697e-04, 1.17162534e-04,
          3.44779895e-04, 3.92056012e-04, -2.45963293e-03,
          1.15567120e-03, 4.00603190e-03, 3.99348186e-03, 4.42107616e-04,
          -1.31322537e-03, -3.52407061e-03, -1.96480402e-03,
          -2.96115899e-03, -2.05442449e-03, 8.59866792e-04,
          2.22983933e-03, 3.21282935e-03, 4.57315124e-04, 6.61910919e-04,
          -2.76513025e-03, -2.48053856e-03, -2.31352216e-03,
          3.81051883e-04, 9.79225384e-04, 3.17981956e-03, 4.04067291e-03,
          2.76596937e-03, -1.01025414e-03, -8.16539628e-04,
          6.08089431e-05, 1.46521430e-04, 8.09592602e-04, 9.57514276e-04,
          1.76440296e-03, 3.22693051e-03, 4.00014105e-04,
          -1.09108514e-03, -1.41078222e-03, -8.87436559e-04,
          2.38571505e-04, -1.04361435e-03, 1.79862033e-03,
          9.69999179e-04, 1.27738190e-03, 2.95152538e-03, 2.51309760e-03,
          -6.23952888e-04, -1.35819858e-03, -1.75693305e-03,
          -1.62688736e-03, 8.74468999e-04, 1.17155498e-04,
          9.69434797e-04, 3.34138167e-03, 2.02002237e-03,
          -1.12695154e-03, -1.26928429e-03, -2.04987754e-03,
          1.51376135e-03, 1.63059554e-03, 1.08703971e-03,
          -1.06256244e-04, 5.02074370e-04, 6.03360706e-04,
          -7.15366041e-04, -6.53112875e-05, 4.53188404e-04,
          9.47240696e-05, 1.22813031e-03, -3.88194239e-05,
          -6.76050608e-04, 4.54338762e-04, 9.15757613e-04,
          -1.84130576e-03, -3.47183464e-04, -5.45357121e-04,
          -5.81128697e-04, -2.82044406e-04, -1.00641057e-03,
          -1.59771676e-04, 2.08601286e-03, 1.81901758e-03,
          -3.71935603e-05, -8.87038943e-04, -1.63318194e-03,
          -6.99929718e-04, -2.14250456e-03, -2.89060315e-03,
          -5.52086916e-04, 2.13788520e-03, 3.29500018e-03,
          3.73752485e-03, 1.88013166e-03, 6.20932260e-05, 1.82744727e-04,
          2.09085876e-04, -4.05032304e-04, -2.26794713e-04,
          7.89993152e-04, 2.09587766e-03, -5.60650893e-04,
          -4.98852343e-04, -4.93484433e-04, -4.87845624e-04,
          -1.33282843e-03, -2.06343899e-03, -6.89141976e-04,
          3.44361732e-04, 3.11063952e-03, 2.84777069e-03,
          -1.17021176e-04, -8.53434613e-04, 3.88158282e-04,
          -1.61601848e-03, -2.70285620e-03, -6.86849584e-04,
          1.60111941e-03, 2.84444261e-03, 3.31280380e-03, 2.22661975e-03,
          8.60985485e-04, 1.89254910e-03, 1.69181058e-05,
          -5.77332219e-04, -1.93743253e-04, 5.05049014e-04,
          2.47554760e-03, 3.01947282e-03, 1.28160126e-03, 9.48975794e-04,
          -5.48749995e-05, -1.57567090e-03, -3.07648769e-03,
          -1.66793040e-03, -5.49554010e-04, 1.56088779e-03,
          1.66969048e-03, 2.43057613e-04, 2.05464894e-04, 1.80387381e-03,
          -1.78979733e-03, -2.23361352e-03, -2.57541146e-03,
          -1.91852963e-03, 4.90087725e-04, 1.00958464e-03,
          6.42583880e-04, 1.60299463e-03, 1.48119300e-03, 8.26602278e-04,
          1.19014538e-03, 7.86190329e-04, -3.08080052e-04,
          6.89175868e-05, 1.05907698e-03, -6.07812661e-04,
          -3.02123226e-04, 5.68939606e-04, 7.40615418e-04,
          1.45660038e-03, 1.08673773e-03, -1.36821694e-03,
          -2.75723124e-03, -1.40721875e-03, -6.38523605e-04,
          -3.88981745e-04, 2.89913779e-03, 2.98875151e-04,
          -9.31380200e-04, -2.10292218e-03, -1.61723362e-03,
          -8.27138312e-04, -2.73746584e-04, -3.28457594e-04,
          1.14821445e-03, 1.78248819e-03, 1.13883393e-03, 4.68498416e-04,
          -7.18367664e-05, -3.29607457e-04, -2.38997070e-03,
          -2.15529487e-03, -1.11385190e-03, -1.10169196e-04,
          1.68325391e-03, 7.05367827e-04, 3.49282229e-04,
          -1.04703731e-03, -2.34257081e-03, -3.00803827e-03,
          -6.97568059e-04, 2.64079805e-04, 1.15949218e-03,
          7.18152325e-04, 4.04686543e-05, -5.62267320e-04,
          -1.74145610e-03, -2.28885631e-03, 9.96617964e-05,
          9.71106871e-04, 1.51220162e-03, 2.13478506e-03, 1.85573823e-03,
          1.40160776e-03, 7.63738237e-04, -7.14127964e-04,
          -3.46568762e-04, -2.32436694e-03, -2.09049601e-03,
          -1.26221124e-03, 5.16330998e-04, 1.43175968e-03,
          3.26846470e-03, 2.61536939e-03, -1.66461174e-03,
          -2.52242456e-03, -2.54121958e-04, 4.50218504e-05,
          -1.18182907e-04, 9.46645334e-04, 7.05646002e-04,
          1.35400752e-03, -1.44303467e-05, -1.14842691e-03,
          -4.41243779e-03, 5.07743061e-05, 2.15016698e-04,
          2.80819339e-04, 4.96922352e-04, 3.86567554e-03, 2.66663102e-03,
          4.78461123e-04, -1.38014869e-03, -4.30632895e-03,
          -5.77246246e-04, 4.72303625e-04, 8.53769016e-04,
          2.07705260e-03, 8.11171078e-04, 2.60600611e-03, 1.86083431e-03,
          -2.26979901e-04, -4.76127164e-03, -2.35532119e-04,
          -9.44931744e-05, 4.85394630e-05, 3.47735244e-04,
          3.36423819e-03, 2.71433126e-03, 2.79140100e-03, 1.15588761e-03,
          -1.36963360e-03, 9.76928975e-04, 1.56459305e-03,
          1.14453421e-03, 2.43688351e-03, 2.33878265e-03,
          -1.55230373e-04, -1.40682724e-03, -2.16561975e-03,
          -2.61057401e-03, -1.17475970e-03, 5.81481843e-04,
          1.59763312e-03, 2.37275288e-03, 4.55322122e-04,
          -1.27081422e-03, -1.75748416e-03, -2.46097543e-03,
          -2.67589488e-03, -1.65118254e-03, -3.37532729e-05,
          9.82039608e-04, 1.18350924e-03, 2.49281176e-03, 5.82563342e-04,
          1.33541285e-03, -1.20619743e-03, 4.25551436e-04,
          1.97215122e-03, 2.77371611e-03, 2.24819221e-03, 2.88721966e-03,
          5.82281791e-04, -9.89306020e-04, -1.31657033e-03,
          -3.10280966e-03, -6.34410593e-04, 1.29316491e-03,
          1.84984657e-03, 1.70805398e-03, 1.68339186e-03, 3.63733387e-04,
          -4.08913009e-04, -3.69197049e-04, -1.26629416e-03,
          -2.43645255e-03, -9.82266851e-04, -2.25090873e-04,
          4.14782582e-04, 7.60845374e-04, -1.88251506e-04,
          4.07603395e-04, 1.61432708e-03, 1.22076424e-03,
          -8.57015402e-05, -9.13080876e-04, -1.34297612e-03,
          -1.74159301e-03, -1.37807010e-03, 8.08970712e-04,
          5.19253546e-04, -3.56755540e-04, -1.11629546e-03,
          -6.00916857e-04, 1.92652515e-03, 1.34990748e-03,
          1.49762479e-03, 1.08446635e-03, 2.72099365e-04, 1.56547851e-03,
          1.66713900e-03, 1.37060252e-03, 7.85934215e-04, 2.68852687e-04,
          -7.31814944e-04, -1.03433640e-03, 7.99045229e-05,
          -1.74708024e-03, -8.75723432e-04, 1.32719633e-05,
          7.66616547e-04, 1.28700607e-03, 1.29778346e-04,
          -1.09894597e-03, -3.00961244e-03, -2.93763913e-03,
          -1.88983046e-03, -5.33409300e-04, -4.68874787e-05,
          2.83729960e-03, 4.19260748e-03, 3.76500399e-03, 5.22794027e-04,
          -2.99608987e-03, -3.59653123e-03, -1.64788798e-03,
          -9.89206601e-04, -4.93934262e-04, 1.01373589e-03,
          2.14203075e-03, 4.25778475e-04, -1.51335332e-03,
          -2.25917762e-03, -2.12095166e-03, -1.73451728e-03,
          -1.54666603e-03, -2.54959450e-04, 3.74220172e-03,
          4.12402581e-03, 3.14173289e-03, -1.85564000e-04,
          -2.59234547e-03, -3.55593371e-03, -1.05809001e-03,
          -1.96801979e-04, 2.42556795e-04, 2.41231453e-03,
          3.77323572e-03, 3.07340524e-03, -1.39280703e-04,
          -2.58957013e-03, -2.79414747e-03, -1.38962956e-03,
          -9.83567559e-04, -7.46871985e-04, 9.96878720e-04,
          1.93564442e-03, -8.49302087e-05, -1.30015484e-03,
          -1.34715799e-03, -2.04840885e-03, -1.46462198e-03,
          -1.01028185e-03, 5.33740058e-06, 3.11866915e-03,
          3.73973581e-03, 2.49202293e-03, -3.05340887e-04,
          -1.85383507e-03, -3.51494900e-03, -1.70519727e-03,
          -8.49611417e-04, -4.48328006e-04, 1.51419837e-03,
          2.71971407e-03, 9.31460178e-04, -1.14872924e-03,
          -2.22137012e-03, -3.17512848e-03, -9.93642374e-04,
          -1.22843066e-03, -9.52796894e-04, -9.59465615e-05,
          6.90583198e-04, 4.86917648e-04, 1.29701803e-04, 1.11879490e-03,
          -5.49029850e-04, -8.29877856e-04, -1.57390418e-03,
          -1.15494162e-03, -1.30189827e-03, -9.16472171e-04,
          2.32571929e-05, 2.91807701e-05, 8.49654432e-04,
          -1.70005340e-04, -1.12467655e-03, -3.64473235e-04,
          -1.48819609e-05, 7.18587544e-04, 1.88076939e-03,
          1.91767304e-03, 5.03724848e-04, -2.72081990e-04,
          -1.13720330e-03, -6.33807853e-04, -9.21750674e-04,
          -6.46400440e-04, -5.53413702e-04, 2.40558278e-04,
          2.18609581e-03, 6.75728661e-04, -9.90639310e-05,
          -7.57887901e-04, -7.30004569e-04, -1.31536578e-03,
          -6.97957294e-04, -9.81500372e-04, -3.41328967e-04,
          4.49703977e-04, 1.95744375e-04, 1.39937431e-04,
          -4.06516221e-04, -3.34863231e-04, -1.49132370e-03,
          -2.03816264e-04, -6.35764911e-04, -6.18925435e-04,
          8.47146439e-04, 1.02664891e-03, 2.53467646e-04, 8.34110415e-06,
          -1.14725414e-03, -1.41840870e-03, -1.18556409e-03,
          -5.45915915e-04, 7.30306725e-04, 3.60887591e-03,
          2.57124379e-03, 2.75784641e-05, -1.68654718e-03,
          -1.89961668e-03, -1.50817563e-03, -2.47076154e-04,
          8.77212209e-04, 8.08390032e-04, 1.43198145e-03, 3.36293102e-04,
          -8.99851962e-04, -1.85643206e-03, 6.77202013e-04,
          1.23938394e-03, 2.39078747e-03, 3.39679699e-03, 3.58298712e-04,
          -2.16005230e-03, -4.34776861e-03, -1.36743335e-03,
          1.01299013e-03, 4.08772408e-04, 9.54210700e-04, 1.68545730e-03,
          3.56495637e-03, 3.21076578e-03, 2.56907381e-03,
          -4.72115261e-07, 1.03065926e-04, 3.70603841e-04,
          1.15559227e-03, 1.28633750e-03, 2.36183754e-03, 3.15136113e-03,
          -1.21624034e-03, -2.68187211e-03, -4.27369401e-03,
          -1.96037116e-03, 1.34507765e-03, 7.65710371e-04,
          1.32072205e-03, 2.51928600e-03, 3.52768507e-03, 1.55934645e-03,
          -1.22912621e-04, -3.56394006e-03, -5.98015555e-04,
          3.65248707e-04, -5.31361962e-04, -4.41736156e-05,
          4.35797294e-04, 3.17833852e-03, 2.09702691e-03, 1.70562614e-03,
          1.51652755e-04, -1.62797936e-04, -5.12274739e-04,
          -5.34675164e-05, 9.24145206e-06, 8.68997013e-04,
          2.69601517e-03, -4.52090346e-04, -1.15847541e-03,
          -1.41885062e-03, -2.98511586e-04, -1.15268005e-04,
          -1.85228232e-03, -5.76833147e-04, 1.06315594e-03,
          3.75984795e-03, -4.68990504e-04, -1.21634547e-03,
          -5.98417595e-03, -2.13505956e-03, -2.09777988e-03,
          -1.59752264e-03, -1.34633307e-03, 1.66533879e-04,
          2.63159606e-03, 8.74383317e-04, -2.13335516e-04,
          -8.15463252e-04, -6.09055744e-04, -1.25203771e-03,
          2.09222941e-04, 5.67722425e-04, 2.62967311e-03, 4.11870657e-03,
          1.89229904e-03, -2.06794450e-03, -2.25889240e-03,
          -4.35888272e-04, 8.25231400e-05, 1.20825018e-03,
          9.01244173e-04, 1.20167132e-03, 3.04103154e-03,
          -1.28164550e-03, -4.90258122e-03, -4.32315143e-03,
          -1.90886937e-03, 1.09558855e-03, -7.28880928e-04,
          -5.06828190e-04, 1.24549912e-03, 3.77417542e-03,
          2.51168036e-03, -4.61557793e-04, -9.23066167e-04,
          -2.66659044e-04, -3.22348089e-04, -6.60105085e-04,
          -4.41604876e-04, -1.13626913e-04, 2.48844759e-03,
          -4.38538205e-04, -3.18405172e-03, -3.33095645e-03,
          -7.47797138e-04, 2.40879635e-05, 2.46862159e-03,
          1.50425697e-03, 7.53693632e-04, 7.55843530e-07,
          -1.07908598e-03, -1.67022448e-03, -1.76083727e-03,
          8.46340088e-04, 2.39199121e-03, 1.25061197e-03, 6.39828271e-04,
          1.18351301e-04, -3.94365663e-04, -1.51785032e-03,
          -7.49237486e-04, -5.35834813e-04, -5.50612516e-04,
          1.13575312e-03, 2.61291454e-04, 1.96469395e-04,
          -1.55060086e-04, 1.13771799e-04, -6.78981771e-04,
          -8.88158451e-04, -1.47524069e-03, -7.60130351e-05,
          1.29452767e-03, -2.74233724e-04, -5.84016845e-04,
          -1.10741658e-03, -6.54985022e-04, -1.66839326e-03,
          -4.14083654e-04, 2.38153109e-04, 1.22905022e-03,
          5.67605544e-04, 1.96262728e-04, 7.50968175e-05,
          -3.71857932e-05, -1.77708003e-04, -3.82738333e-04,
          1.29218586e-03, 8.87692033e-04, -1.00639171e-03,
          3.56483477e-04, -9.14437755e-04, -1.61947426e-03,
          -1.13969017e-03, -6.40937884e-04, -6.24935376e-04,
          1.95491547e-03, 1.73949834e-03, -1.23940501e-03,
          4.64801815e-05, 5.98439001e-05, -5.59765438e-04,
          -6.33545686e-04, -5.32751088e-04, -9.44988104e-04,
          6.09723502e-04, 1.24851905e-03, 2.17479304e-03, 1.56388574e-04,
          1.63369649e-03, -1.87005382e-03, -3.00339283e-03,
          -2.32098927e-03, -3.00266291e-03, -4.57939575e-04,
          1.21008710e-03, 2.34918296e-03, 2.45748903e-03, 6.70338806e-04,
          -1.33290398e-03, -2.71291658e-03, -1.06540904e-03,
          -9.50797228e-04, 2.16364162e-03, 2.58579990e-03,
          1.38102239e-03, 2.31151935e-03, 2.78962799e-03,
          -1.95170799e-03, -2.94952048e-03, -2.40403553e-03,
          -1.63773529e-03, 1.45791890e-03, 1.22996652e-03,
          1.40398252e-03, 3.24658770e-03, 3.33908736e-03,
          -1.25993253e-03, -2.58626998e-03, -1.98600441e-03,
          -2.57587200e-03, -2.33363215e-04, -1.03929211e-04,
          1.13688631e-03, 2.58759968e-03, 3.64841335e-03,
          -5.76573424e-04, -2.62012263e-03, -1.97051372e-03,
          -2.56029493e-03, -2.33244009e-05, -5.64521120e-04,
          -4.78521601e-04, 2.60272832e-03, 3.07468697e-03,
          -1.39307915e-04, -2.12338031e-03, -2.03361176e-03,
          -5.64372225e-04, 3.41134815e-04, -6.08643400e-04,
          -6.16332516e-04, 1.56871241e-03, 4.92110266e-04,
          1.24667294e-03, 1.13956886e-03, 1.20911282e-03, 9.58434015e-04,
          -1.61507900e-03, -2.00502039e-03, -1.45255052e-03,
          -5.55764127e-04, 2.89902417e-03, 2.12209672e-03,
          -8.04019510e-04, -7.43860146e-05, -7.72284984e-04,
          -2.52276775e-04, -1.54613121e-03, -1.96114322e-03,
          1.47211063e-03, 2.63955980e-03, 2.19742209e-03, 9.12185642e-04,
          5.10597252e-04, -9.66918087e-05, -2.00701784e-03,
          -2.10328540e-03, -5.51515783e-04, 1.02573610e-03,
          4.15996547e-05, 1.19892787e-03, 1.23869476e-03, 4.40745280e-05,
          -1.99813934e-04, -2.26112246e-03, -2.71100900e-03,
          -2.07723025e-03, -4.61477641e-04, 6.09372684e-04,
          2.94291321e-03, 2.42027175e-03, -1.41313707e-03,
          -3.54140601e-03, -1.35800615e-03, -1.24265475e-03,
          -1.01816899e-03, -4.08894266e-04, 2.88101705e-03,
          2.42297840e-03, 8.19283479e-04, -4.93433850e-04,
          -8.75241123e-04, -2.56085210e-03, -2.67779757e-03,
          -7.00365810e-04, 1.24191423e-03, 2.62153358e-03,
          3.00823105e-03, 1.62124273e-03, -1.16126123e-03,
          -2.90865242e-03, -7.74482673e-04, -1.41567353e-03,
          -3.85935215e-04, -7.72631465e-05, -2.30133053e-04,
          5.94575075e-04, 5.09140606e-04, -7.22972851e-04,
          -4.48143110e-03, -2.80058186e-04, -2.40460009e-04,
          -1.51886416e-04, -1.94738517e-04, 2.65082897e-04,
          9.12327261e-04, 2.08822126e-03, 1.84190413e-03,
          -3.26656387e-04, 2.68926681e-03, 2.07148236e-03,
          2.87829171e-04, 6.02563669e-04, -2.41660723e-06,
          6.53073250e-04, 1.73691064e-04, -2.86825350e-04,
          -3.72690801e-03, 3.45589302e-04, 3.66166292e-04,
          1.61567790e-04, -1.08187684e-04, -6.51194947e-04,
          -3.38635116e-04, 6.17590616e-04, 1.11512595e-03,
          7.38426243e-05, 3.65348021e-03, 4.14540665e-03, 1.65516371e-03,
          4.38333926e-04, 2.00377821e-04, -4.84234741e-04,
          2.32550781e-04, -4.54244640e-04, 5.78074832e-04,
          2.75869109e-03, 2.28475919e-03, 4.62387427e-04, 6.15955563e-04,
          -8.96698402e-05, -1.15038326e-03, -2.15553213e-03,
          -3.15578864e-03, -9.75630701e-06, 2.05840077e-03,
          1.09725597e-03, 2.12614876e-04, 9.56817312e-05,
          -6.64349645e-04, -1.57277391e-03, -5.66276176e-05,
          3.59781407e-04, 3.92480346e-04, 2.34509283e-03, 3.43236839e-03,
          1.52217492e-03, 1.83793731e-04, -5.77004161e-04,
          -1.74362189e-03, -1.85361307e-03, -1.38635782e-03,
          1.02113350e-04, 1.58726273e-03, 1.95394992e-03, 1.19904231e-03,
          -2.49498058e-04, 2.12509240e-05, -3.19667015e-04,
          -1.74707803e-03, -1.71649165e-03, 5.70517848e-04,
          2.44092965e-03, 6.40753715e-04, 1.10969573e-04,
          -9.67852029e-05, -8.46922863e-04, 2.50537327e-04,
          -3.55653756e-04, 3.36250931e-04, 1.08985777e-03,
          2.87103059e-04, -1.02749234e-03, -1.24351622e-03,
          -9.82486526e-04, -4.16906871e-04, -1.25880353e-03,
          -1.41083216e-03, -1.17430452e-03, 8.05433490e-04,
          3.19656148e-03, 3.43634840e-03, 1.21820124e-03,
          -5.34374441e-04, -1.13436137e-03, -8.49411881e-04,
          -1.16218078e-04, 7.91552302e-04, 1.45196973e-03,
          1.99818332e-03, 3.87796375e-04, -2.60755653e-04,
          -1.06420403e-03, -1.21474394e-03, -1.06678053e-03,
          -7.51356652e-04, 8.16621061e-04, 2.47245794e-03,
          6.74189243e-04, -1.61714980e-03, -1.99293345e-03,
          -1.50424999e-03, -1.35661312e-03, -2.51546083e-03,
          -1.00742897e-03, 3.79185774e-03, 4.18732921e-03,
          2.59259692e-03, -4.71982348e-04, -1.80194329e-03,
          -2.36539636e-03, -1.97287486e-03, -2.08296464e-03,
          -6.84208411e-04, 1.34427682e-03, 2.71572964e-03,
          1.74360489e-03, -5.34682069e-04, -1.02159148e-03,
          -1.58220204e-03, -1.86368672e-03, -2.39687017e-03,
          -1.19735266e-03, 4.07865038e-03, 4.25556023e-03,
          4.09079902e-03, -4.74080007e-04, -1.70168257e-03,
          -2.58424063e-03, -1.00753771e-03, -1.42838492e-03,
          -2.86340393e-04, 2.67667300e-03, 3.49514885e-03,
          2.80565349e-03, 2.28285862e-04, -1.32565119e-03,
          -2.25294894e-03, -1.38174603e-03, -9.25434870e-04,
          -4.03365964e-04, 4.19075397e-04, 2.64992355e-03,
          2.69350014e-03, -2.60084926e-04, -2.73924088e-03,
          -2.16073636e-03, -1.44497002e-03, -2.47405446e-03,
          -8.01827817e-04, 2.72008171e-03, 3.90787050e-03,
          3.41316452e-03, -5.98490995e-04, -1.49017037e-03,
          -2.09269952e-03, -1.35035603e-03, -2.53913761e-03,
          -1.44583068e-03, 5.79806045e-04, 3.11859045e-03,
          2.90859328e-03, -2.57436419e-04, -1.55123870e-03,
          -1.83285412e-03, -1.19729037e-03, -2.35335756e-04,
          -1.97159185e-04, 5.36853389e-04, 2.60749832e-03,
          2.97924620e-03, -4.28281710e-05, -1.98698416e-03,
          -1.57690514e-03, -1.32569077e-03, -4.67853388e-04,
          -8.91913660e-04, -3.95246141e-04, 1.52045488e-03,
          2.06362968e-03, -6.81384176e-04, -1.81504735e-03,
          -1.91700109e-03, -1.36364426e-03, -1.65994198e-03,
          -7.84889853e-04, 1.92427682e-03, 3.85447149e-03,
          3.60589102e-03, 3.79823650e-05, -1.38056464e-03,
          -1.78612815e-03, -1.67239469e-03, -1.44811405e-03,
          -8.91353760e-04, 1.67578144e-03, 3.14555503e-03,
          2.48703104e-03, -5.05101983e-04, -1.64243905e-03,
          -1.82791578e-03, -2.27336306e-03, -7.34562636e-04,
          -1.14343269e-03, 7.09412825e-06, 1.79322658e-03,
          2.84819654e-03, 6.01024309e-04, -1.01629831e-03,
          -2.12487439e-03, -2.39086803e-03, -1.13049615e-03,
          -3.37584206e-04, 6.75284187e-04, 9.03861364e-04,
          3.29106435e-04, -5.84515801e-04, -1.09785330e-03,
          -1.70077628e-03, -2.15418381e-03, -7.87124969e-04,
          -1.09279156e-03, 1.52466702e-03, 3.06870299e-03,
          2.93163327e-03, -1.72191983e-04, -1.11586857e-03,
          -2.45161355e-03, -2.07316899e-03, -1.30951195e-03,
          -5.75560902e-04, 1.10098475e-03, 3.13131488e-03,
          1.38370495e-03, -3.05780879e-04, -1.05392130e-03,
          -2.22452427e-03, 8.25896102e-04, 1.05786219e-03,
          2.00239965e-03, 2.63254764e-03, 9.85646388e-04,
          -2.04147841e-03, -3.47475708e-03, -5.59407286e-04,
          9.10623930e-04, 6.69313536e-04, 1.21124042e-03, 2.61254888e-03,
          3.56426602e-03, 1.52634364e-03, -1.49910420e-03,
          -3.15333065e-03, -6.12691685e-04, 3.76603653e-04,
          1.19588757e-03, 1.51866430e-03, 2.43971776e-03, 3.12300306e-03,
          1.82127696e-03, -1.74278778e-03, -3.46817961e-03,
          -1.08473396e-04, 4.62094642e-04, 1.00298156e-03,
          2.35419604e-03, 2.82525038e-03, 3.83973680e-03, 8.82504799e-04,
          -2.05648411e-03, -3.73664941e-03, -1.42972975e-03,
          2.30588688e-04, -1.81473428e-04, 3.57255107e-04,
          1.96238025e-03, 4.35442058e-03, 1.83103257e-03,
          -1.35568157e-03, -4.65859612e-03, -9.10241972e-04,
          -3.11585638e-04, -6.43300300e-04, -2.80590815e-04,
          1.31573738e-03, 4.22896817e-03, 3.97296762e-03, 4.30231012e-04,
          -4.27417472e-05, -1.72642947e-04, -4.16567520e-04,
          -3.99070646e-04, 8.29575176e-04, 2.06735637e-03,
          4.03255690e-03, -1.56044541e-03, -4.01040446e-03,
          -5.65536553e-03, -4.19127801e-03, -7.58307346e-04,
          -1.54699932e-03, -5.36153675e-04, 7.34057860e-04,
          4.23283689e-03, 3.17682489e-03, 6.17704645e-04,
          -1.21605408e-03, -6.90597575e-04, -9.12769698e-04,
          -1.79209444e-03, -1.69800746e-03, -1.89784347e-04,
          3.77029576e-03, 3.25325946e-03, 1.98367798e-05,
          -6.04194065e-04, -6.32520765e-04, -8.01169779e-04,
          -1.97346997e-03, -1.17126363e-03, -3.43187072e-04,
          1.97485019e-03, 3.07791663e-04, -1.45220570e-03,
          -2.33683316e-03, -1.78624480e-03, -1.14203314e-03,
          -2.96032033e-03, -2.29032361e-03, -2.12907806e-04,
          3.99410725e-03, 3.51938978e-03, 1.58234863e-04,
          -5.30193269e-04, -8.18312052e-04, -1.90567772e-03,
          -3.05638090e-03, -1.56881323e-03, -6.17223850e-05,
          1.74388126e-03, 8.49833596e-04, -1.48081526e-04,
          -1.27679948e-03, -1.44170295e-03, -2.72485008e-03,
          -6.42922008e-04, 5.55881881e-04, 8.83546483e-04,
          1.32988859e-03, 1.66221487e-03, 1.28770457e-03,
          -1.03014645e-05, -8.20037967e-04, 4.28487285e-04,
          -7.12948560e-04, -3.94398201e-04, -3.04263871e-04,
          3.73326620e-05, 4.52252716e-04, 8.82514752e-04,
          -2.57606647e-04, 8.69934913e-04, -7.67405727e-04,
          -1.60620734e-03, 9.78431082e-04, 2.93947780e-03,
          2.75660236e-03, 1.93821953e-03, 8.92585085e-04, 3.96029442e-04,
          -1.75777575e-04, -1.33756222e-03, -6.07245020e-04,
          4.38878429e-04, 2.80502252e-03, 1.10172946e-03,
          -5.48832875e-04, -1.85210971e-04, -4.83263808e-04,
          -7.46879959e-04, -1.37948815e-03, 4.69042337e-04,
          -3.84468076e-05, -1.37496478e-04, -2.07455261e-04,
          -7.33442066e-05, 3.06956703e-04, 4.50153777e-04,
          7.91119644e-04, 3.75880540e-04, 3.24807595e-03,
          -6.91748282e-04, -3.19932378e-03, -2.09853775e-03,
          -2.77621229e-03, -6.08486298e-04, -6.96847337e-06,
          1.99851813e-03, 3.20390332e-03, 1.58178632e-03, 1.91661238e-03,
          1.62226590e-03, -2.07185643e-04, -1.01287675e-03,
          -2.64033704e-04, -8.74998150e-05, -1.02960767e-04,
          3.18661478e-04, 4.11411142e-03, 1.20716984e-03,
          -2.54058256e-03, -3.34508205e-03, -3.81213007e-03,
          -1.15233252e-03, -9.60556790e-05, 8.65682086e-05,
          2.96441582e-03, 2.93092406e-03, -1.91413518e-03,
          -2.96832970e-03, -2.25303392e-03, -2.99411244e-03,
          -7.93831015e-04, -7.31920416e-04, 2.75579543e-04,
          2.66979891e-03, 3.11976089e-03, -1.25687488e-03,
          -2.73064990e-03, -1.31183525e-03, -2.22952105e-03,
          -3.54122341e-04, -7.19909789e-04, -6.20606472e-04,
          2.37630261e-03, 3.55330203e-03, -1.10921578e-03,
          -3.56655126e-03, -2.76979781e-03, -3.22310603e-03,
          -9.26906127e-04, -2.26517077e-04, 4.05249972e-04,
          3.32799461e-03, 2.34594732e-03, -7.79362279e-04,
          -1.46255956e-03, -4.62576951e-04, -1.12209248e-03,
          -1.99134476e-04, 1.09362827e-06, 1.62246276e-03,
          3.29680485e-03, 2.91263545e-03, 2.05201970e-04,
          -4.48976934e-04, -6.72423572e-04, -1.45189732e-03,
          -9.81981750e-04, -1.75907207e-03, -2.39061890e-03,
          1.15870277e-03, 3.07111721e-03, 1.04657921e-03, 7.86492819e-05,
          -5.82620793e-04, -1.87523756e-03, -3.11105908e-03,
          -2.95995525e-03, -1.61019247e-03, 1.53141445e-03,
          1.32079981e-03, -1.11031299e-03, -5.09177335e-04,
          -3.50272923e-04, -8.15100153e-04, -7.51911721e-04,
          -7.91732688e-04, 5.76714985e-04, 2.46924558e-03,
          2.87515484e-03, -5.10712794e-04, -6.34023629e-04,
          -8.05789721e-04, -2.58207205e-03, -3.33453878e-03,
          -2.17733625e-03, 6.97508920e-04, 3.06190527e-03,
          2.88247294e-03, 1.74371910e-03, 2.15316453e-04,
          -6.02663786e-04, -1.98115921e-03, -3.16360523e-03,
          -2.94159842e-03, -1.31826883e-03, 1.43113313e-03,
          2.04791152e-03, 2.27446831e-03, 5.98969636e-05,
          -9.13159165e-04, -2.92598759e-03, -6.04115892e-04,
          -7.25276477e-04, -3.74873489e-04, -1.37709998e-04,
          2.50909920e-03, 1.43882207e-04, -4.74090572e-04,
          -5.83342335e-04, -3.27032921e-03, -3.76079232e-03,
          -2.27545900e-03, 1.78759103e-03, 2.89645419e-03,
          8.71998374e-04, 3.54073214e-04, -2.56340951e-04,
          -9.93657392e-04, -3.52050550e-03, -1.50747830e-03,
          3.56097480e-05, 2.75607128e-03, 2.89705256e-03, 1.25408324e-03,
          1.21674524e-03, 1.04144026e-04, -4.17871634e-04,
          -3.79851763e-03, 6.25002605e-04, 1.01717876e-03,
          5.77233266e-04, 4.05701547e-04, 7.34684407e-04,
          -2.85725779e-04, -2.58327691e-05, 3.26750684e-04,
          -9.91589273e-04, 2.94600893e-03, 3.90948821e-03,
          2.99514155e-03, 1.12380926e-03, 9.84015292e-04, 3.32118507e-04,
          1.43045763e-04, -1.08520803e-03, -5.11790114e-03,
          -2.32193721e-04, 9.88588668e-04, 1.64675748e-03,
          2.25713872e-03, 1.20677683e-03, 5.71679499e-04, 1.20110950e-03,
          2.71054800e-04, -1.95257005e-03, 3.04914080e-04,
          8.23487935e-04, 1.18194753e-03, 1.67374895e-03,
          -1.55215457e-04, -1.48884498e-03, -8.13408187e-05,
          -4.37259063e-04, -4.01462494e-05, 2.29579816e-03,
          3.47649935e-03, 2.65118899e-03, 3.17544036e-04,
          -5.22724877e-04, -1.61582371e-03, -1.19018054e-03,
          -8.35016137e-04, 1.53831992e-04, 1.76320225e-03,
          2.43236101e-03, 1.41007931e-03, -5.34780556e-04,
          -5.14525927e-05, -2.24307834e-04, 8.43760790e-04,
          1.62537544e-04, -1.17799616e-03, 3.24308348e-05,
          -1.48204184e-04, -3.03347566e-04, -1.34216761e-03,
          -5.64296206e-04, -8.58870160e-04, 1.14371255e-03,
          1.45124434e-03, 6.92519185e-04, 1.28265913e-03,
          -5.45283023e-04, -2.07416201e-03, -2.06983206e-03,
          -8.77584680e-04, -1.84854760e-03, -1.16860808e-03,
          -3.38681421e-05, 9.74159688e-04, 2.37810612e-03,
          2.37305393e-03, -3.09390860e-04, -1.25373725e-03,
          -1.13345555e-03, -1.12382299e-03, -2.57284642e-04,
          5.41307032e-04, 1.10914814e-03, 1.98583887e-03, 7.52538152e-04,
          -2.76290317e-04, -1.62406510e-03, -1.09487155e-03,
          -9.22079562e-05, 1.51993707e-03, 2.41986779e-03,
          1.34737929e-03, 1.92952366e-03, 3.44473432e-04,
          -1.35977054e-03, -2.52466812e-03, -1.85283867e-03,
          5.70382050e-04, 8.36078485e-04, 1.49375154e-03, 1.58203521e-03,
          1.53399270e-03, 1.34745752e-03, 5.43435337e-04,
          -2.07721489e-03, -2.35353224e-03, -1.17476354e-03,
          6.42932646e-05, 1.23753177e-03, 2.23391037e-03, 1.98965310e-03,
          8.87708302e-05, -7.23738747e-04, -2.65512103e-03,
          -2.66362866e-03, -1.66749663e-03, -9.57908996e-05,
          3.30985314e-03, 4.26093908e-03, 3.98634886e-03,
          -1.04066951e-03, -2.37042923e-03, -3.20225465e-03,
          -2.45721824e-03, 2.50296398e-05, 9.07918962e-04,
          3.04793124e-03, 2.42495607e-03, 1.23634760e-03, 5.25136245e-04,
          2.59367807e-04, -2.44820514e-03, -2.72107171e-03,
          -1.93857343e-03, 1.05500058e-03, 4.49046819e-03,
          4.43619164e-03, 3.71183362e-03, -1.52287894e-05,
          -5.82250941e-04, -2.85445363e-03, -1.23170787e-03,
          -1.63408287e-03, 4.48441242e-05, 2.88370973e-03,
          4.13326733e-03, 3.44667677e-03, -8.39962566e-04,
          -1.63984043e-03, -1.08795718e-03, -1.52407971e-03,
          -2.17148196e-03, -1.03956927e-03, 2.03097193e-03,
          3.55388410e-03, 2.39288760e-03, -7.85357319e-04,
          -1.40219601e-03, -1.62845501e-03, -2.35460885e-03,
          -2.06324295e-03, 2.03607473e-04, 3.75743327e-03,
          3.99709819e-03, 2.93249916e-03, -1.39648357e-04,
          -5.08481869e-04, -9.15441371e-04, -2.39867275e-03,
          -1.91224390e-03, -3.91614041e-04, 2.75785057e-03,
          3.53520247e-03, 1.40613946e-03, -1.49823620e-03,
          -2.30477820e-03, -2.13677459e-03, -1.42459327e-03,
          -2.18628719e-03, -9.74971685e-04, 1.71398965e-03,
          4.02206695e-03, 2.08754744e-03, -3.87462409e-04,
          -1.11307669e-03, -1.69895717e-03, -1.57050148e-03,
          -1.74928585e-03, -8.37879954e-04, 2.56276294e-03,
          3.85323120e-03, 1.88419549e-03, -7.66629935e-04,
          -1.34456530e-03, -1.62323751e-03, -1.73443370e-03,
          -1.46291452e-03, -3.03738809e-04, 2.77925003e-03,
          3.92017327e-03, 9.91817447e-04, -1.40466110e-03,
          -2.20567454e-03, -2.52299104e-03, -1.08962064e-03,
          -3.20984196e-04, 1.05883100e-03, 3.58058070e-03,
          3.71661130e-03, 1.26484828e-03, -1.53150840e-03,
          -1.83629931e-03, -1.88836164e-03, -2.33242661e-03,
          -1.18629588e-03, -7.13682908e-04, 2.65648100e-03,
          3.20585421e-03, 1.31763925e-03, -1.52037933e-03,
          -2.05456326e-03, -2.33114208e-03, -2.49961205e-03,
          -8.34046106e-04, -8.16171814e-04, 9.20100138e-04,
          3.53112048e-03, 4.59421281e-04, -9.46665066e-04,
          -2.15519383e-03, -2.57780659e-03, -1.39224599e-03,
          -6.42887782e-04, 1.09489833e-03, 3.96216800e-03,
          3.62939481e-03, 2.88891519e-04, -1.99755956e-03,
          -2.37966282e-03, -2.51131202e-03, -1.23954052e-03,
          -2.76426232e-04, 2.88071715e-05, 1.78011192e-03,
          3.27080931e-03, 3.17040067e-05, -1.65892125e-03,
          -2.62899883e-03, -2.24621012e-03, 8.24665593e-04,
          1.63462048e-03, 2.03399756e-03, 2.73049856e-03, 1.49600534e-03,
          -1.70361192e-03, -3.32446070e-03, -7.41788535e-04,
          -1.85489684e-04, 9.20612481e-04, 2.09378521e-03,
          2.59227632e-03, 3.35013098e-03, 4.54147899e-04,
          -3.11783934e-03, -4.40874416e-03, -1.95831200e-03,
          1.85810888e-04, -3.37032339e-04, 1.35519891e-03,
          2.68952642e-03, 3.32485465e-03, 7.81214272e-04,
          -9.11246170e-04, -2.10149866e-03, -1.62002002e-03,
          -1.22723938e-03, -2.01806935e-04, 1.30870123e-03,
          2.11592484e-03, 3.68019450e-03, 1.51133840e-03,
          -3.34016304e-03, -4.25210549e-03, -1.34882214e-03,
          -3.35625300e-05, -5.55175247e-05, 7.37207243e-04,
          1.35906111e-03, 4.11816267e-03, 1.43687834e-03,
          -3.09056998e-03, -4.54953918e-03, -2.30874517e-03,
          -2.84869631e-04, -1.02811097e-03, -3.27511516e-04,
          7.48772523e-04, 4.61492222e-03, 3.61650786e-03,
          -2.57804146e-04, -2.09313422e-03, -7.58385053e-04,
          -6.00836822e-04, -3.31552583e-04, 1.58305644e-04,
          8.90787167e-04, 4.16999077e-03, 1.71017065e-03,
          -3.79552413e-03, -4.62288503e-03, -2.32375041e-03,
          -1.80424497e-04, -1.39879819e-03, -4.44398203e-04,
          6.26079272e-04, 3.96292796e-03, 2.51217233e-03,
          -2.67762248e-03, -4.65661380e-03, -2.00353074e-03,
          -9.07696434e-04, -2.66707828e-03, -1.46848336e-03,
          1.34304154e-03, 4.73394291e-03, 4.45122644e-03, 5.24575124e-04,
          -3.55258118e-04, -6.12977543e-04, -1.59923732e-03,
          -2.49812426e-03, -7.54930661e-04, 9.05782683e-04,
          2.67585739e-03, 1.89620350e-03, 2.68950738e-04,
          -3.84948478e-04, -6.49969501e-04, -1.93659647e-03,
          -3.05501185e-03, -2.03549932e-03, 8.56374332e-04,
          4.33239108e-03, 2.22104043e-03, -1.20570569e-03,
          -4.49127611e-03, -2.86215753e-03, -3.14158294e-03,
          -2.32184143e-03, -5.55953942e-04, 1.44777226e-03,
          2.60603242e-03, 1.29489717e-03, 5.25140058e-05,
          -4.05952655e-04, -9.37052770e-04, -2.61089858e-03,
          -1.66935683e-03, 4.14370152e-04, 1.99055369e-03,
          1.88949273e-03, 7.00950390e-04, 9.46551227e-05,
          -2.65004928e-04, -5.29360783e-04, -1.47301704e-03,
          -1.13905570e-03, 2.56175754e-05, 2.09458242e-03,
          1.31517404e-03, -1.59622263e-03, -1.01056660e-03,
          -9.65235580e-04, -7.64012046e-04, -1.39666419e-03,
          -9.50819114e-04, 1.84465735e-03, 2.98014283e-03,
          2.18850654e-03, 2.04791257e-04, -3.68703622e-04,
          -4.23472753e-04, -4.98155598e-04, -1.61202066e-03,
          -3.74417636e-04, 6.07375172e-04, 8.28405435e-04,
          5.09001955e-04, -2.80677225e-03, -1.60469546e-03,
          -1.06057595e-03, -5.27509488e-04, -1.63999002e-03,
          3.14273551e-04, 1.79245439e-03, 1.45772425e-03, 3.19501472e-04,
          -1.29492220e-03, -3.11463838e-04, -2.23149211e-04,
          -1.18368640e-04, -1.50651365e-04, 3.35327024e-03,
          1.95135514e-03, -6.49175199e-04, -2.29673949e-03,
          -3.34028434e-03, -6.63700921e-04, -1.75519046e-04,
          7.13918853e-05, 1.72589987e-03, -6.39243459e-04,
          1.03628275e-03, 4.05465198e-06, 9.58319637e-04,
          -1.46466971e-03, -6.01921129e-05, -1.57836592e-04,
          -7.90708800e-05, -3.29694420e-04, 1.98483831e-05,
          1.10942207e-03, -2.95015256e-04, -3.41014878e-04,
          -2.45871255e-03, -6.84087354e-05, -8.60313376e-05,
          9.52536720e-05, -9.42612533e-05, 2.02429411e-03,
          -5.67526673e-04, -3.11601302e-03, -3.28156445e-03,
          -4.00478812e-03, -1.03747530e-03, -2.54713028e-04,
          1.94277789e-04, 2.62618181e-03, 1.51236437e-03, 5.75892802e-04,
          2.89726042e-04, 4.84802847e-04, -4.12718538e-04,
          1.48616076e-04, 3.80916230e-04, 1.18263892e-03, 1.85552181e-03,
          1.75867553e-05, 4.14099661e-04, -1.52401708e-03,
          7.86384117e-05, -2.11767177e-03, 1.73460910e-04,
          2.07813369e-04, 1.62583456e-04, -2.32463251e-04,
          1.67216046e-03, 1.13841612e-03, 2.51339655e-03, 2.58069392e-03,
          2.03612307e-03, 2.38894694e-03, 1.92852435e-03, 1.79552403e-03,
          9.77232587e-04, 9.37792414e-04, -3.50549701e-04,
          -4.14531241e-04, -1.38717194e-04, -1.12956821e-03,
          -4.57395596e-04, 6.08784321e-05, 1.04361167e-03,
          2.14403798e-03, 1.23551197e-03, -7.57584930e-04,
          -1.15336594e-03, -9.41371662e-04, -4.35668603e-03,
          -3.87594360e-03, -1.28433760e-03, 9.24265420e-04,
          2.57548084e-03, 1.32844783e-03, 1.00949204e-04, 1.41307290e-04,
          5.87147893e-04, 6.62458246e-04, 2.02524033e-03, 2.07313173e-03,
          1.82714371e-03, 1.43737567e-03, 1.38475362e-03, 2.64548522e-04,
          -1.03555131e-03, -2.21822551e-03, -4.13785828e-03,
          -3.41322785e-03, -5.04941563e-04, 1.31620211e-03,
          2.71853711e-03, 1.17554783e-03, -2.44989555e-04,
          -6.95228926e-04, -8.67596420e-04, -3.86754447e-03,
          -4.50800499e-03, -1.32503884e-03, 3.24567012e-03,
          4.01584804e-03, 2.25137454e-04, -1.64195691e-04,
          -4.10983659e-04, -1.07018370e-03, -4.47255373e-03,
          -2.50986475e-03, -5.07295772e-04, 4.00605984e-03,
          3.76035692e-03, 9.72285634e-04, 2.54690676e-04,
          -8.79550818e-04, -1.88774348e-03, -3.86912725e-03,
          -3.80001287e-03, -1.32109609e-03, 1.98093429e-03,
          3.71128856e-03, 6.81621954e-04, 5.73436148e-04,
          -4.52282198e-04, -1.01541029e-03, -3.83490627e-03,
          -2.03911285e-03, -9.23960761e-04, 2.93258089e-03,
          3.17504094e-03, 7.62886601e-04, 1.82471951e-04, 1.94638837e-04,
          -8.54676240e-04, -5.88065293e-03, -8.17187130e-04,
          4.56453941e-04, 2.70346878e-03, 2.59478344e-03, 1.58455118e-03,
          2.03293283e-03, 3.08863306e-03, 1.20415445e-03,
          -4.37553274e-03, -1.87052670e-03, -1.10098255e-04,
          7.51312415e-04, 1.86510128e-03, 1.36486522e-03, 6.89527427e-04,
          3.16079735e-04, -1.52583016e-04, -4.83087776e-03,
          -2.55030347e-04, 3.12612043e-04, 2.32691038e-03,
          1.77230779e-03, 2.19870359e-03, 2.22653383e-03, 3.15788737e-03,
          2.14128033e-03, -2.54911324e-03, 4.23356018e-04,
          7.51815445e-04, 1.93055253e-03, 1.47452124e-03, 3.20679013e-04,
          1.58473139e-03, 3.46701802e-03, 2.11339863e-03,
          -2.80774874e-03, -1.84273778e-03, -1.31352048e-03,
          -9.30542068e-04, -8.11268634e-04, -5.61945140e-04,
          1.11141917e-03, 2.91445176e-03, 2.24787230e-03,
          -1.23693550e-03, -1.64628716e-03, -2.05196533e-03,
          -2.18253233e-03, -2.01341882e-03, 8.76651553e-04,
          1.96538400e-03, 4.13583871e-03, 2.64506461e-03,
          -1.37354690e-03, -1.46523840e-03, -8.04761890e-04,
          -2.65866896e-04, -1.09421548e-04, 2.54157003e-05,
          1.80508918e-03, 3.68059007e-03, 2.28487817e-03,
          -1.68177322e-03, -2.69138999e-03, -1.24056649e-03,
          -1.43353106e-03, -1.21008302e-03, -1.21768448e-03,
          1.27812405e-03, 2.85858242e-03, 1.85022934e-03, 1.98966809e-04,
          -6.34116877e-04, -3.51356372e-04, -1.31759944e-03,
          -2.62683164e-03, -2.38829898e-03, 8.56807164e-04,
          7.90458056e-04, 1.26738066e-03, 4.45468613e-04, 1.79950299e-03,
          2.23351223e-03, 1.08516065e-03, -2.42418563e-03,
          -3.81313497e-04, 1.58664060e-03, 2.35885219e-03,
          1.69717998e-03, -1.37852074e-03, -1.37752504e-03,
          3.70787748e-04, -6.84644387e-04, -1.65079557e-03,
          -1.58028875e-03, -3.05278008e-05, 1.50257663e-04,
          4.65011457e-04, 3.47616617e-04, 2.07176758e-03, 2.13785935e-03,
          8.47118266e-04, -1.53057568e-03, -3.50291259e-03,
          -6.42953615e-04, -1.67715800e-04, 1.82150176e-03,
          -1.90884006e-04, 1.03040203e-03, 9.35576099e-04,
          5.94014593e-04, -3.31543456e-03, -2.91283289e-03,
          -2.17689620e-03, 2.75947736e-04, 4.05354192e-03,
          4.24096454e-03, 3.68107692e-03, 5.03913150e-04,
          -1.99028524e-04, -2.38596695e-03, -2.70088878e-03,
          -5.66834875e-04, -1.43800353e-04, 9.90831177e-04,
          -4.02549922e-04, 2.18405505e-03, 1.10632018e-03,
          2.31665454e-05, -2.09893030e-03, -1.59582577e-03,
          -2.73471582e-04, 5.75890823e-04, 3.46656679e-03,
          4.11863299e-03, 4.34218161e-03, 1.50631031e-03,
          -5.90323834e-05, -9.95897339e-04, -2.28418177e-03,
          -1.81038608e-03, -6.62501916e-05, 2.81848712e-03,
          3.84530751e-03, 2.74652406e-03, -1.00400270e-04,
          -5.48857031e-04, -1.18817785e-03, -2.62597902e-03,
          -1.64373440e-03, 2.94712838e-04, 2.40529841e-03,
          2.28060992e-03, 1.59097603e-04, -2.98685697e-03,
          -3.89438914e-03, -4.26675566e-03, -2.31351703e-04,
          2.50313315e-04, 7.75645371e-04, 3.00218537e-03, 3.97863146e-03,
          3.26870242e-03, 3.90591478e-04, -2.45864226e-06,
          -2.03400341e-04, 5.35051258e-05, 7.42646167e-04,
          8.79698258e-04, 1.39007682e-03, 8.84601788e-04, 4.05780534e-04,
          -1.12896902e-03, -1.62607478e-03, -7.50704727e-04,
          -1.06668891e-03, 5.80636106e-06, 1.97269861e-03,
          2.86813360e-03, 2.40774662e-03, 3.30114999e-05,
          -2.23224610e-03, -3.18502169e-03, -2.70164083e-03,
          -8.18909262e-04, -3.47510213e-05, 2.61409767e-03,
          2.45411298e-03, 1.91250839e-03, -5.78928797e-04,
          -2.10546516e-03, -2.36599846e-03, -1.79224869e-03,
          4.80989431e-04, 1.53102202e-03, 2.09158403e-03, 1.49483467e-03,
          2.66429095e-04, -9.10403731e-04, -1.46680651e-03,
          -2.04059016e-03, -6.74266485e-04, -1.52034545e-05,
          4.70419851e-04, 2.09815730e-03, 1.24372554e-03,
          -8.57141335e-04, -2.21230485e-03, -2.18899222e-03,
          -1.99280190e-03, -5.95801801e-04, -9.32088762e-04,
          -3.37378151e-05, 3.36990156e-03, 4.34615277e-03,
          3.10940947e-03, -5.79930260e-04, -1.83971995e-03,
          -1.83854159e-03, -1.72282779e-03, -6.42814499e-04,
          8.17652399e-05, 7.12226261e-04, 1.59215834e-03, 1.79332786e-03,
          -3.75687086e-04, -2.01780559e-03, -1.90870953e-03,
          -1.07087276e-03, -8.67510171e-05, 4.33509209e-04,
          1.82840275e-03, 2.10321182e-03, -3.74255178e-04,
          -1.80182257e-03, -1.97255937e-03, -1.72404549e-03,
          -1.50410272e-03, 5.04973461e-04, 9.80557757e-04,
          7.55893416e-05, -9.86395316e-05, -5.37977088e-04,
          -1.87814329e-03, -2.29701377e-03, -1.94093888e-03,
          -1.00980618e-03, -1.04226160e-03, 7.09596090e-04,
          2.71964213e-03, 3.35913571e-03, -3.41906707e-04,
          -1.31050544e-03, -1.97111932e-03, -2.72233319e-03,
          -2.02615187e-03, -1.30083342e-03, -2.54834857e-04,
          1.62610470e-03, 3.79645475e-03, 1.74661074e-03,
          -2.18719058e-03, -2.95750517e-03, -2.12845136e-03,
          -1.34179299e-03, -5.00093214e-04, 1.54977082e-03,
          3.02548637e-03, 3.13470466e-03, 1.58771442e-03, 5.61993220e-04,
          -6.00807078e-04, -1.92552351e-03, -1.55445875e-03,
          -1.78857392e-03, -1.53606947e-04, 1.29464967e-03,
          3.30414600e-03, 1.57500233e-03, -3.00507323e-04,
          -2.37296382e-03, -3.03943641e-03, -3.50173702e-03,
          -1.11153035e-03, -7.22690485e-04, 6.40713202e-04,
          4.50112531e-03, 3.21185845e-03, -2.92214891e-03,
          -4.13556956e-03, -1.41546922e-03, -3.74397932e-04,
          -1.21474836e-03, -5.10055164e-04, 2.01915289e-04,
          3.69613408e-03, 2.27581686e-03, -2.22654943e-03,
          -3.92654585e-03, -2.24129972e-03, -1.11152336e-03,
          -1.22182420e-03, -3.76967364e-04, 3.65910993e-04,
          3.66219599e-03, 3.58284055e-03, 7.69125239e-04,
          -2.74799438e-03, -1.05262536e-03, -1.42410072e-03,
          -8.05768243e-04, -3.38780141e-04, -4.17941810e-05,
          1.37486251e-03, 1.28705625e-03, 1.01039295e-04,
          -1.99948135e-03, -1.81354280e-03, -9.34885058e-04,
          -1.30290445e-03, -6.20001985e-04, 3.63472704e-04,
          2.74032913e-03, 2.03845953e-03, 6.54773521e-06,
          -3.16171069e-03, -1.28136016e-03, -1.33063656e-03,
          -2.64603033e-04, 1.33621471e-03, 2.49539316e-03,
          2.53317622e-03, 1.56413740e-03, 5.56919142e-04, 2.60715809e-04,
          -1.86835401e-04, -9.05383145e-04, -6.80079334e-04,
          -2.85797927e-04, 4.51106956e-04, 1.06004404e-03,
          -7.84678676e-04, -5.91952296e-04, -1.27126509e-03,
          -2.66145496e-03, -8.03968287e-04, 4.21609031e-04,
          1.94678712e-03, 2.38746824e-03, 3.70388874e-03, 1.99983199e-03,
          4.70865722e-04, -9.51325579e-04, -9.18663980e-04,
          -9.67915636e-04, -3.45723645e-04, 1.71058124e-03,
          2.42940080e-03, 9.06670641e-04, 3.86036700e-04,
          -9.97714596e-05, -2.24044670e-05, -2.37248198e-04,
          -9.59520403e-04, -2.20866408e-04, 1.07028743e-03,
          -1.23009144e-04, -8.21146066e-04, -1.21092401e-03,
          -1.55248883e-04, -9.21198007e-05, -8.81915475e-05,
          -1.05116377e-03, 1.07985956e-03, 1.51120278e-03,
          1.59739458e-03, 1.91503158e-03, 1.73317152e-03, 3.51906288e-04,
          9.24572741e-05, -2.88178009e-04, -9.06682224e-04,
          4.59575909e-04, 4.39851283e-04, -7.43628596e-04,
          -5.70314063e-04, 2.62145477e-04, 1.36990612e-03,
          5.65490918e-04, 1.01694968e-05, -9.64320265e-04,
          -4.04386199e-04, -2.38218436e-05, -5.24023606e-04,
          9.53235212e-05, -7.61465984e-04, 4.11322631e-04,
          -2.04638236e-05, -3.10321571e-04, -7.33955065e-04,
          -6.95293071e-04, -8.98633079e-05, -3.99317883e-04,
          1.05177588e-03, -9.01660416e-04, 2.88308889e-04,
          -5.57343919e-05, -4.03978192e-04, -7.87576311e-04,
          1.21221252e-04, 2.93519570e-05, -5.15217951e-04,
          8.43446061e-04, 1.16406055e-03, 1.82944792e-03, 4.72123735e-04,
          -4.16709430e-04, -8.45443108e-04, -1.16277233e-05,
          4.88249876e-04, 1.12405687e-03, 3.22560687e-03, 2.52509490e-03,
